1.653897613286972046e-01 -5.819097906351089478e-02 -1.064529195427894592e-01 -5.994247645139694214e-02 -2.783758342266082764e-01 2.537854611873626709e-01 1.315275132656097412e-01 1.691558361053466797e-01 7.825172692537307739e-02 -6.332895718514919281e-03 1.064447984099388123e-01 1.817517578601837158e-01 2.772067487239837646e-01 1.427955180406570435e-01 1.149078086018562317e-01 -1.235731244087219238e-01 3.181427344679832458e-02 7.423488795757293701e-02 2.913783788681030273e-01 2.010549604892730713e-01 -2.040381580591201782e-01 -2.523203194141387939e-01 -1.892888545989990234e-01 -2.066366374492645264e-01 -6.012924388051033020e-02
8.491473644971847534e-02 3.042459189891815186e-01 2.206335067749023438e-01 -2.985372543334960938e-01 -1.630049943923950195e-02 1.227277293801307678e-01 4.372075200080871582e-01 2.156451493501663208e-01 -3.492029607295989990e-01 -3.907124996185302734e-01 2.901024930179119110e-02 4.953569471836090088e-01 6.034054607152938843e-02 -9.274755418300628662e-02 -2.969467043876647949e-01 3.285500705242156982e-01 1.466978788375854492e-01 2.605563700199127197e-01 -7.377434521913528442e-02 -1.975184231996536255e-01 1.840363293886184692e-01 2.922572381794452667e-02 1.542424857616424561e-01 -2.832621894776821136e-02 -1.565433479845523834e-02
-2.679617404937744141e-01 -1.883147507905960083e-01 5.204382538795471191e-02 3.670549765229225159e-02 3.271173238754272461e-01 8.656546473503112793e-02 -3.795770928263664246e-02 -2.205332182347774506e-02 3.598487079143524170e-01 1.830344945192337036e-01 -1.370925009250640869e-01 2.223826497793197632e-01 3.694361746311187744e-01 3.813202381134033203e-01 -1.123226210474967957e-01 3.150345012545585632e-02 1.348752975463867188e-01 2.244099974632263184e-01 -7.806625962257385254e-02 -2.026349604129791260e-01 2.058867514133453369e-01 4.644460231065750122e-02 1.761882454156875610e-01 2.270300127565860748e-02 2.798361890017986298e-02
1.536355614662170410e-01 2.890704870223999023e-01 3.055205941200256348e-01 -1.449412293732166290e-02 1.763599514961242676e-01 -1.430663615465164185e-01 -6.549353897571563721e-02 1.419393271207809448e-01 1.317515671253204346e-01 2.627614438533782959e-01 -1.461683809757232666e-01 -2.090408504009246826e-01 1.103401482105255127e-01 -1.520944875665009022e-03 1.817650496959686279e-01 5.844061821699142456e-02 -1.998201012611389160e-01 -8.040679246187210083e-02 -5.043817684054374695e-02 -1.849285662174224854e-01 -6.173782795667648315e-02 4.017084836959838867e-02 -9.187754988670349121e-02 -2.116478085517883301e-01 -1.098275557160377502e-01
3.822954297065734863e-01 1.839947104454040527e-01 3.111991882324218750e-01 1.946827024221420288e-01 -1.116596087813377380e-01 -5.428407341241836548e-02 5.430896878242492676e-01 4.092544615268707275e-01 2.874818444252014160e-01 1.715600304305553436e-02 9.736797213554382324e-02 5.438899993896484375e-01 5.810518264770507812e-01 -2.547250129282474518e-02 -1.617744378745555878e-02 1.138994693756103516e-01 3.762812614440917969e-01 3.633562624454498291e-01 -8.006983995437622070e-02 -2.259539812803268433e-01 -1.879852414131164551e-01 9.781021624803543091e-02 3.309002220630645752e-01 -4.583229124546051025e-02 1.275706142187118530e-01
-2.323895692825317383e-01 -3.268877863883972168e-01 -6.704337149858474731e-02 2.372344285249710083e-01 2.492694556713104248e-01 -2.084277272224426270e-01 4.114829376339912415e-02 3.456125259399414062e-01 3.642821013927459717e-01 1.356427818536758423e-01 1.611106842756271362e-01 2.080292105674743652e-01 2.345418035984039307e-01 -1.158249750733375549e-02 -2.181143164634704590e-01 -8.253285288810729980e-02 6.717219366692006588e-04 -4.324313998222351074e-02 1.862400472164154053e-01 1.248414888978004456e-01 -4.985329881310462952e-02 6.666029989719390869e-02 8.970585465431213379e-02 2.243874073028564453e-01 2.516789138317108154e-01
-8.543798327445983887e-02 1.747950017452239990e-01 -3.304440155625343323e-02 -2.638039737939834595e-02 -1.904875040054321289e-01 -1.551784873008728027e-01 -1.571190208196640015e-01 -1.252737492322921753e-01 1.093845069408416748e-01 -6.571076065301895142e-02 -1.587765514850616455e-01 4.710415750741958618e-02 2.496330440044403076e-02 9.717557579278945923e-02 -1.117261201143264771e-01 7.987625151872634888e-02 -6.378025561571121216e-02 -6.464547663927078247e-02 -1.636156886816024780e-01 -5.806579068303108215e-02 2.411699295043945312e-02 1.644927412271499634e-01 1.107286140322685242e-01 1.514149606227874756e-01 3.256924152374267578e-01
1.731884479522705078e-01 2.126010358333587646e-01 1.336450576782226562e-01 -8.850484341382980347e-02 1.377006173133850098e-01 -1.181932538747787476e-01 -5.748132243752479553e-02 -2.004068642854690552e-01 -1.096129640936851501e-01 -1.979182958602905273e-01 1.089199408888816833e-01 -2.790610790252685547e-01 -2.502501308917999268e-01 -7.243398576974868774e-02 -9.026718139648437500e-02 2.269892208278179169e-02 -1.215965598821640015e-01 -7.514348626136779785e-02 8.925746381282806396e-02 2.334512025117874146e-01 -1.208820939064025879e-01 1.920835375785827637e-01 3.110674023628234863e-01 3.053442239761352539e-01 -1.194997727870941162e-01
2.957601100206375122e-02 -2.216901034116744995e-01 8.543435484170913696e-02 -1.940765976905822754e-01 -6.830936670303344727e-02 1.808517985045909882e-02 -2.468207292258739471e-02 9.414295852184295654e-02 2.003436684608459473e-01 1.273763477802276611e-01 1.750684678554534912e-01 2.347087860107421875e-01 1.471648961305618286e-01 4.838238358497619629e-01 3.868604004383087158e-01 2.889764010906219482e-01 3.106982409954071045e-01 3.222544118762016296e-02 2.244576625525951385e-02 2.874115407466888428e-01 -2.506411075592041016e-01 5.323013290762901306e-02 -2.713633477687835693e-01 -2.938864529132843018e-01 2.277335710823535919e-02
-7.060197181999683380e-03 1.323778778314590454e-01 3.934021294116973877e-01 4.065185189247131348e-01 3.742536306381225586e-01 1.845293492078781128e-02 -7.299498468637466431e-02 3.499095439910888672e-01 2.015591710805892944e-01 1.874257922172546387e-01 -2.771977800875902176e-03 -2.201222032308578491e-01 5.689772590994834900e-02 1.785445213317871094e-01 -1.301680225878953934e-02 -2.667895257472991943e-01 -2.014988362789154053e-01 -1.389341503381729126e-01 -1.081330478191375732e-01 -8.924861252307891846e-02 -8.384523540735244751e-02 -3.647545576095581055e-01 -3.319703936576843262e-01 -2.270397394895553589e-01 1.800587475299835205e-01
