8.894702047109603882e-02 1.953394967131316662e-04 -8.012381382286548615e-03 1.129249669611454010e-02 5.154463928192853928e-03 -4.320317506790161133e-02 1.223244611173868179e-02 -4.409201908856630325e-03 -3.697294741868972778e-02 -8.647471666336059570e-03 4.099711403250694275e-02 3.108088299632072449e-02 -5.584710091352462769e-02 3.838723525404930115e-02 5.534107331186532974e-03 -6.514968723058700562e-02 1.526117790490388870e-02 -1.891878806054592133e-02 9.459073096513748169e-02 -4.220878705382347107e-02 -1.849885657429695129e-02 -1.119829341769218445e-02 7.691741921007633209e-03 7.707982510328292847e-02 -2.393920440226793289e-03
-5.067474674433469772e-03 -5.032253637909889221e-02 -2.901605330407619476e-02 -5.579558759927749634e-02 -1.263160724192857742e-02 3.840147750452160835e-03 -1.564093306660652161e-02 4.324779286980628967e-02 6.798900663852691650e-02 1.377869583666324615e-02 -3.141381591558456421e-02 -1.052278131246566772e-01 1.106344163417816162e-01 8.836010843515396118e-02 -9.892751462757587433e-03 -2.120195515453815460e-02 -7.416235655546188354e-02 6.891527771949768066e-02 1.000116989016532898e-01 -1.306042075157165527e-02 -5.390521138906478882e-02 -5.217355117201805115e-02 -4.044646397233009338e-02 -4.126889631152153015e-02 -2.331994101405143738e-02
1.128454320132732391e-02 -5.377974733710289001e-02 -2.164946123957633972e-02 -4.772190470248460770e-03 5.009208619594573975e-02 -4.718927666544914246e-02 -1.217322275042533875e-01 1.083454489707946777e-01 8.547566831111907959e-02 7.709180563688278198e-02 -7.025545835494995117e-02 -4.098836705088615417e-02 1.854251325130462646e-02 -3.409797698259353638e-02 1.552738621830940247e-02 -1.261842846870422363e-01 -4.701834544539451599e-02 2.821601368486881256e-02 -1.082555484026670456e-02 1.564627699553966522e-02 -6.413108110427856445e-02 -8.918765187263488770e-02 -7.728621363639831543e-02 -2.731691114604473114e-02 3.513919562101364136e-02
3.064896445721387863e-03 -2.894673123955726624e-02 1.341247558593750000e-02 -3.837938606739044189e-02 -2.405368722975254059e-02 4.613249003887176514e-02 7.126558572053909302e-03 5.691872537136077881e-02 -4.660910367965698242e-02 -1.990867312997579575e-03 -4.181043803691864014e-02 -4.433684423565864563e-02 -4.471062496304512024e-02 -1.598176360130310059e-02 4.787886049598455429e-03 -4.203354194760322571e-02 -1.203080825507640839e-02 -3.305176272988319397e-02 5.620485171675682068e-02 -1.223391946405172348e-02 -3.385680168867111206e-02 -8.584842085838317871e-03 1.778873428702354431e-02 -1.414462272077798843e-02 -3.063507378101348877e-02
1.023598164319992065e-01 5.912188906222581863e-03 -6.955026835203170776e-02 -3.495910391211509705e-02 6.145707145333290100e-02 5.202944949269294739e-02 -2.706501074135303497e-02 3.528710082173347473e-02 1.037290096282958984e-01 1.876216754317283630e-02 -8.777269721031188965e-02 -1.985851526260375977e-01 1.417751014232635498e-01 5.424460023641586304e-02 -3.605696186423301697e-02 -1.013343259692192078e-01 -1.933319568634033203e-01 2.926153689622879028e-02 2.863047644495964050e-02 -5.242997035384178162e-02 -1.379432678222656250e-01 -1.358175724744796753e-01 -9.652466326951980591e-02 -6.644336134195327759e-02 2.488799020648002625e-02
8.965902961790561676e-03 -6.002170592546463013e-02 2.717638202011585236e-02 1.701933890581130981e-02 3.015404567122459412e-02 -5.642573907971382141e-02 -8.781784772872924805e-02 7.236322760581970215e-02 3.863926604390144348e-02 -1.548002567142248154e-02 -4.680708050727844238e-02 4.857151769101619720e-03 1.023177877068519592e-01 -2.036343328654766083e-02 -6.327707320451736450e-02 -7.114900648593902588e-02 4.651757702231407166e-02 5.478755012154579163e-02 -6.298960000276565552e-02 4.472401365637779236e-02 -5.391926690936088562e-02 -5.753276869654655457e-03 -2.394176274538040161e-02 2.461952902376651764e-02 5.194082483649253845e-02
-4.512623324990272522e-02 3.600477054715156555e-02 -2.344994340091943741e-03 -4.483749344944953918e-02 -9.591208770871162415e-03 -6.697979569435119629e-02 -3.352075442671775818e-02 -5.158411711454391479e-02 3.277485817670822144e-02 -2.930671349167823792e-02 -3.150998055934906006e-02 7.736745290458202362e-03 2.426904439926147461e-02 -5.536249279975891113e-02 1.419314090162515640e-02 2.921377075836062431e-03 -7.404857128858566284e-02 6.690258532762527466e-02 -3.213398903608322144e-02 -1.514279004186391830e-02 -5.197875946760177612e-02 6.149793043732643127e-02 3.756213933229446411e-02 6.266940385103225708e-02 4.266159143298864365e-03
1.843357458710670471e-02 -2.503177896142005920e-02 -1.813788525760173798e-02 3.045406751334667206e-02 3.690890036523342133e-03 -1.621532626450061798e-02 -1.556856185197830200e-02 1.940080896019935608e-02 -3.661623224616050720e-03 2.977218478918075562e-02 -6.939640641212463379e-02 7.077585905790328979e-03 -4.338555410504341125e-02 4.408062621951103210e-02 5.791236460208892822e-02 -8.136247843503952026e-02 1.376521773636341095e-02 -1.001785770058631897e-01 8.682249486446380615e-02 2.363971434533596039e-02 2.608678536489605904e-03 -4.907032102346420288e-02 3.826553374528884888e-02 -1.441875938326120377e-02 -5.709944292902946472e-02
6.006983667612075806e-02 5.298561975359916687e-02 2.786095440387725830e-02 2.536570653319358826e-02 9.636309742927551270e-02 -6.137328222393989563e-03 -5.967487394809722900e-02 -9.837028384208679199e-02 6.969663500785827637e-02 -4.875361546874046326e-02 -3.287406638264656067e-02 -3.086275979876518250e-02 3.253524005413055420e-02 2.329677343368530273e-02 -4.570420831441879272e-02 -3.776488825678825378e-02 -3.817830234766006470e-02 -1.779284887015819550e-02 1.395291648805141449e-03 -5.276881530880928040e-02 -9.783682227134704590e-02 -1.027506291866302490e-01 2.034838870167732239e-02 4.666886478662490845e-02 5.571425333619117737e-02
7.716420292854309082e-02 -3.003546036779880524e-02 1.448293402791023254e-02 -9.761763736605644226e-03 -7.541798800230026245e-02 5.359745398163795471e-02 -3.304681926965713501e-02 -8.923285640776157379e-03 8.972664363682270050e-03 6.873317062854766846e-02 -8.089832216501235962e-02 -8.364962786436080933e-02 9.717077761888504028e-02 1.321460306644439697e-02 2.100396901369094849e-02 -2.994454838335514069e-02 3.828712925314903259e-02 1.438681036233901978e-01 -5.469232797622680664e-02 1.359926629811525345e-02 -3.325644880533218384e-02 4.958579689264297485e-02 3.798721358180046082e-02 -8.210703730583190918e-03 3.241074085235595703e-02
-8.663094788789749146e-02 -8.151035755872726440e-02 -9.640777111053466797e-02 -6.870429962873458862e-02 -3.779903799295425415e-02 -8.515649288892745972e-02 -6.455436348915100098e-02 -9.216056764125823975e-02 9.541084058582782745e-03 -5.460481718182563782e-02 -6.281656026840209961e-02 6.374848540872335434e-03 -2.035972848534584045e-02 8.670982718467712402e-02 3.218860179185867310e-02 -7.104455679655075073e-02 -2.186262421309947968e-02 2.061697468161582947e-02 4.108482599258422852e-02 8.804266899824142456e-02 -9.312872588634490967e-02 -6.172293424606323242e-02 2.851826325058937073e-02 -1.837594993412494659e-02 -2.156259119510650635e-02
-8.077304810285568237e-02 3.209101781249046326e-02 4.002890735864639282e-02 1.435570884495973587e-03 -4.526840150356292725e-02 -1.009750552475452423e-02 1.311552990227937698e-02 9.941644221544265747e-02 7.434628903865814209e-02 -1.902882754802703857e-02 -6.863912940025329590e-02 4.497800767421722412e-02 8.369231224060058594e-02 3.086609393358230591e-02 8.275612443685531616e-02 -1.075206883251667023e-02 -7.295717298984527588e-02 -8.775560185313224792e-03 8.575650863349437714e-03 -3.930491209030151367e-02 -2.944412268698215485e-02 -9.841926395893096924e-02 2.136858366429805756e-02 -8.276636153459548950e-02 -2.729810029268264771e-02
-2.131968177855014801e-02 -4.124116525053977966e-02 5.657872930169105530e-02 -5.183871090412139893e-02 -5.303446948528289795e-02 -2.448594896122813225e-03 4.888185113668441772e-02 -7.426010910421609879e-03 -5.065416172146797180e-02 -8.157446980476379395e-02 -5.137298628687858582e-02 -1.696149632334709167e-02 -3.246585279703140259e-02 -7.563815265893936157e-02 -9.896282106637954712e-03 -4.488638415932655334e-02 -8.213265240192413330e-02 -8.003618568181991577e-02 -1.618046872317790985e-02 -2.736393548548221588e-02 -6.991118658334016800e-03 -4.047199338674545288e-02 -7.226589322090148926e-02 -8.318849653005599976e-02 -4.468098655343055725e-02
-3.750124201178550720e-02 -2.969821915030479431e-02 -4.167776927351951599e-02 2.248319564387202263e-03 -4.414852708578109741e-02 1.468447223305702209e-02 -2.208603546023368835e-02 -5.346387624740600586e-02 2.613841183483600616e-02 8.779183961451053619e-03 -6.753414124250411987e-02 -5.443266034126281738e-02 3.259447962045669556e-02 2.042491920292377472e-02 2.872259728610515594e-02 5.651794373989105225e-03 6.631296128034591675e-02 7.631243765354156494e-02 7.199238985776901245e-02 -1.263161562383174896e-02 6.247581169009208679e-02 3.964585438370704651e-02 3.336352482438087463e-02 3.168297931551933289e-02 8.848426491022109985e-02
-1.056340802460908890e-02 -8.618164807558059692e-03 8.816903084516525269e-02 7.636478636413812637e-03 -8.787366747856140137e-02 -9.300930798053741455e-02 4.275190830230712891e-02 1.462264806032180786e-01 4.028316587209701538e-03 -5.415182188153266907e-02 -7.497769594192504883e-02 2.998415613546967506e-03 1.012611985206604004e-01 7.595159113407135010e-02 -2.405272237956523895e-02 -6.110207736492156982e-02 -7.671281695365905762e-03 9.915611147880554199e-02 1.490229368209838867e-01 6.335893273353576660e-02 -1.248085871338844299e-01 -9.301327913999557495e-02 3.416121751070022583e-02 -1.692645996809005737e-02 -1.759211719036102295e-02
6.073328480124473572e-02 -1.092452183365821838e-02 3.711824864149093628e-02 -4.024383053183555603e-02 2.106981724500656128e-02 6.779646128416061401e-02 3.058360889554023743e-02 5.337623879313468933e-02 -4.374369233846664429e-02 -7.843923568725585938e-02 -4.860574263148009777e-04 5.766023695468902588e-02 1.348604448139667511e-02 -6.933861970901489258e-02 -6.330984830856323242e-02 -2.857233025133609772e-02 6.117651704698801041e-03 2.233254909515380859e-02 -1.838903501629829407e-02 3.001869656145572662e-02 -1.050035469233989716e-02 -9.548567235469818115e-02 5.841758102178573608e-03 -8.948590606451034546e-02 -4.449239373207092285e-02
-6.179586797952651978e-02 2.194972895085811615e-02 -6.658791005611419678e-02 -4.682089388370513916e-02 -5.323024094104766846e-02 -5.496260896325111389e-02 -2.900184877216815948e-02 5.586159601807594299e-02 -1.880118250846862793e-02 1.499822549521923065e-02 -7.810062170028686523e-02 4.896899685263633728e-02 -3.717941232025623322e-03 -4.197467118501663208e-02 5.873186886310577393e-02 -4.759657755494117737e-02 3.628278896212577820e-02 -5.265523865818977356e-02 -6.479293107986450195e-02 -4.904552549123764038e-02 2.475945092737674713e-02 -9.117840789258480072e-03 -5.546655133366584778e-02 2.031392231583595276e-02 2.023392822593450546e-03
3.919126000255346298e-03 -5.354840308427810669e-02 -6.844348460435867310e-02 2.882845140993595123e-02 -2.785757370293140411e-02 2.145556733012199402e-02 1.183921936899423599e-02 -8.049474656581878662e-02 -4.513103887438774109e-02 1.742930710315704346e-02 -8.181253820657730103e-02 -3.683048859238624573e-02 -7.935865223407745361e-02 -2.409013360738754272e-02 -2.298074401915073395e-02 -1.866480335593223572e-03 -9.191354364156723022e-02 -8.136162161827087402e-02 -3.020408563315868378e-02 -4.677515849471092224e-02 -7.912061363458633423e-02 8.520222268998622894e-03 -4.953472688794136047e-02 3.223315253853797913e-02 5.504155904054641724e-02
-4.775289446115493774e-02 -5.970185995101928711e-02 -5.374715104699134827e-02 2.321911603212356567e-02 -1.638610288500785828e-02 -4.921844229102134705e-02 3.345342352986335754e-02 3.210489079356193542e-02 -1.286638318561017513e-03 -8.919489383697509766e-02 -1.312620006501674652e-02 2.313822135329246521e-02 1.019761785864830017e-01 -2.510792389512062073e-02 -3.655823320150375366e-02 -1.434742379933595657e-02 -8.594914339482784271e-03 7.167041301727294922e-02 7.905071228742599487e-02 4.034107550978660583e-02 -2.022016979753971100e-02 -7.875484414398670197e-03 -2.468930929899215698e-02 -9.165347367525100708e-02 -6.134071853011846542e-03
3.612350672483444214e-02 -1.776394620537757874e-02 -7.600175589323043823e-02 -4.445484280586242676e-02 -5.453477054834365845e-02 2.644507959485054016e-02 3.379467502236366272e-02 -2.800892293453216553e-02 -7.398419827222824097e-02 1.715644821524620056e-02 -7.775524165481328964e-03 1.415126398205757141e-02 -3.876211494207382202e-02 3.482110798358917236e-02 -3.513910993933677673e-02 -6.055194139480590820e-02 1.229575276374816895e-02 1.049622148275375366e-01 1.075343191623687744e-01 -1.040150783956050873e-02 1.260051224380731583e-02 7.007247209548950195e-02 1.089327856898307800e-01 1.168567463755607605e-01 2.189958281815052032e-02
4.509269446134567261e-02 6.452704221010208130e-02 5.104746297001838684e-02 -3.302182629704475403e-02 -2.202268689870834351e-02 5.227891355752944946e-02 6.447742879390716553e-02 6.070946156978607178e-02 4.310144577175378799e-03 2.916374476626515388e-03 -3.829317167401313782e-02 -2.486403100192546844e-02 6.362802535295486450e-02 -1.502616424113512039e-02 3.086986392736434937e-02 2.826394699513912201e-02 -8.168888743966817856e-04 4.242543131113052368e-02 1.450035255402326584e-02 5.921020731329917908e-02 -4.433171823620796204e-02 2.254177816212177277e-02 -4.254492744803428650e-02 5.236443504691123962e-02 6.578723341226577759e-02
-1.868523657321929932e-02 1.133038662374019623e-02 -3.112254291772842407e-02 -4.187197983264923096e-02 -9.277387522161006927e-03 -4.230812191963195801e-02 -4.779653996229171753e-02 -6.659642606973648071e-02 -7.184356451034545898e-02 -7.141835242509841919e-02 -7.276632636785507202e-02 -1.313779801130294800e-01 -1.434204280376434326e-01 -5.079449713230133057e-02 -1.501579768955707550e-02 -1.002018451690673828e-01 -6.170009821653366089e-02 -3.313837200403213501e-02 -2.604260109364986420e-02 5.254790931940078735e-02 -1.585018262267112732e-02 4.823660850524902344e-02 2.883063443005084991e-02 4.148015286773443222e-03 -3.353689238429069519e-02
1.058316603302955627e-02 5.394415184855461121e-02 4.849296808242797852e-02 6.913347542285919189e-02 -3.018012829124927521e-02 -4.805177077651023865e-02 -3.551115840673446655e-02 -1.167516596615314484e-02 -1.190440729260444641e-01 -1.167856454849243164e-01 -4.490048810839653015e-02 -9.885846078395843506e-02 -5.367094278335571289e-02 -5.089250579476356506e-02 -3.413533419370651245e-02 7.799646817147731781e-03 8.071658015251159668e-02 1.051606386899948120e-01 1.018587127327919006e-01 3.608722984790802002e-02 8.278689533472061157e-02 1.255732774734497070e-01 4.441482573747634888e-02 6.563156843185424805e-02 2.810054831206798553e-02
-1.604619808495044708e-02 5.420550704002380371e-03 -7.500051055103540421e-03 -4.786469042301177979e-02 -1.859183423221111298e-02 2.759514562785625458e-02 8.034137636423110962e-02 3.370746225118637085e-02 -4.173510894179344177e-02 3.049454092979431152e-02 -2.238124795258045197e-02 5.673603340983390808e-02 -5.882655829191207886e-02 -1.007663179188966751e-02 4.541389271616935730e-02 3.237721323966979980e-02 -3.989611193537712097e-02 -5.817310139536857605e-02 8.737632073462009430e-03 5.180434137582778931e-02 -4.915098473429679871e-02 -3.780094161629676819e-02 6.794141139835119247e-03 -6.164102815091609955e-03 6.733437627553939819e-02
-6.724613159894943237e-02 -1.874298788607120514e-02 -1.735824160277843475e-02 1.264787837862968445e-02 1.257107127457857132e-02 -3.504439443349838257e-02 -1.333680599927902222e-01 -1.308556050062179565e-01 -9.975032508373260498e-02 -1.131890416145324707e-01 -3.161903470754623413e-02 -1.264187842607498169e-01 -1.648851186037063599e-01 -7.553435117006301880e-02 -3.424037247896194458e-02 -3.558671846985816956e-02 -3.567875176668167114e-02 7.022326346486806870e-03 8.240535110235214233e-02 1.298522353172302246e-01 -5.974242091178894043e-02 8.931460231542587280e-02 1.037203669548034668e-01 8.231282979249954224e-02 3.423262760043144226e-02
-2.632298134267330170e-02 -4.075336456298828125e-02 2.325229719281196594e-02 -3.856163844466209412e-02 -7.069201767444610596e-02 -5.899827927350997925e-02 -9.614841639995574951e-02 -2.036052569746971130e-02 2.351379953324794769e-02 8.622958557680249214e-04 -8.179543912410736084e-02 1.203564926981925964e-02 -1.373344194144010544e-02 -4.996680095791816711e-02 2.771188504993915558e-03 1.279260497540235519e-02 6.823999434709548950e-02 6.854087859392166138e-02 1.000372320413589478e-01 3.174071758985519409e-02 1.358297280967235565e-02 7.023729383945465088e-02 1.429079324007034302e-01 2.593132667243480682e-02 -1.235975418239831924e-02
-6.765782088041305542e-02 -1.796301454305648804e-02 -3.273429349064826965e-02 -5.803869292140007019e-02 3.756200149655342102e-02 -5.332863330841064453e-02 -1.017996575683355331e-02 4.484159871935844421e-03 -3.529029339551925659e-02 7.314439117908477783e-02 1.237624790519475937e-03 6.167605146765708923e-02 7.350156456232070923e-02 8.713243901729583740e-02 3.888194262981414795e-02 6.618348509073257446e-02 7.977225631475448608e-02 2.342064492404460907e-02 -1.242774887941777706e-03 -1.494705025106668472e-02 1.085409894585609436e-02 2.182171680033206940e-02 -6.183632835745811462e-02 4.970787465572357178e-02 1.190838683396577835e-02
-7.311575114727020264e-02 4.602420609444379807e-03 1.259650569409132004e-02 -7.595809642225503922e-03 1.089166663587093353e-02 3.408097662031650543e-03 -5.756746232509613037e-02 -1.741486042737960815e-02 4.216331616044044495e-02 -2.075799927115440369e-02 4.582691192626953125e-02 6.508465111255645752e-02 4.065276682376861572e-02 2.280137501657009125e-02 1.860395446419715881e-02 -8.137725293636322021e-03 7.146904617547988892e-02 4.874100536108016968e-02 1.662053167819976807e-02 4.571258276700973511e-02 -5.099765257909893990e-04 -5.483993515372276306e-02 2.802973845973610878e-03 -7.725929375737905502e-03 2.646055817604064941e-02
6.265329569578170776e-02 -2.338307723402976990e-02 1.474992837756872177e-02 7.116572558879852295e-02 -6.495240330696105957e-02 -3.404811397194862366e-02 3.684899955987930298e-02 3.530833870172500610e-02 -1.288736145943403244e-02 -8.378518372774124146e-02 -3.343924507498741150e-02 -9.073323011398315430e-02 -6.175557523965835571e-02 -2.950846403837203979e-02 1.255715936422348022e-01 6.048198416829109192e-02 8.355386555194854736e-02 6.809287518262863159e-02 1.476470381021499634e-01 2.923754975199699402e-02 6.205148994922637939e-02 3.780669346451759338e-02 1.687151193618774414e-02 1.247386168688535690e-02 1.083235349506139755e-02
-4.171337187290191650e-02 4.940298944711685181e-02 -3.822620259597897530e-03 5.225529894232749939e-02 7.383803278207778931e-02 -1.119930949062108994e-02 5.980341136455535889e-02 6.307417899370193481e-02 9.575608372688293457e-02 -2.670906484127044678e-02 -3.609054163098335266e-02 -3.635825961828231812e-02 4.733799397945404053e-02 -7.812307775020599365e-02 -6.373939663171768188e-02 6.011305842548608780e-03 2.280591987073421478e-02 1.429123990237712860e-02 -4.006035998463630676e-02 -3.875260008499026299e-03 6.205330789089202881e-02 3.561986610293388367e-02 -2.384842559695243835e-02 -1.111457590013742447e-02 2.692390233278274536e-02
5.324864387512207031e-02 2.135078236460685730e-02 1.585755869746208191e-02 -1.879035867750644684e-02 1.162234577350318432e-03 8.298175036907196045e-02 1.026965528726577759e-01 8.927155286073684692e-04 -2.735123410820960999e-02 -7.808767259120941162e-02 4.023876041173934937e-02 4.690429940819740295e-02 2.076460979878902435e-02 -2.908627316355705261e-02 -6.248620152473449707e-02 -1.129953190684318542e-02 1.046695932745933533e-02 -7.240635156631469727e-02 -1.232589036226272583e-02 -6.543513387441635132e-02 -8.973208069801330566e-02 -3.176052123308181763e-02 -4.044847190380096436e-02 -7.431684434413909912e-02 -2.292719669640064240e-02
-9.835279779508709908e-04 -3.369197249412536621e-02 -5.849297717213630676e-02 -8.630090206861495972e-02 1.795284566469490528e-03 -6.058944761753082275e-02 -7.400406152009963989e-02 4.868900030851364136e-02 2.605181746184825897e-02 2.796762064099311829e-02 -8.716220408678054810e-02 -1.452954709529876709e-01 -1.359763089567422867e-02 -3.857287392020225525e-02 -1.048272009938955307e-02 -8.197170495986938477e-02 1.875411905348300934e-02 -2.512731030583381653e-02 6.773124635219573975e-02 2.533360943198204041e-02 9.123250097036361694e-02 9.119334071874618530e-02 5.128914862871170044e-02 -3.227880969643592834e-02 -3.399752080440521240e-02
-5.628168582916259766e-02 -2.730794250965118408e-02 1.006940379738807678e-01 2.996360696852207184e-02 4.811703041195869446e-02 2.056289277970790863e-02 3.587577491998672485e-02 -5.134517699480056763e-02 -6.351318210363388062e-02 4.923715814948081970e-02 -3.874441236257553101e-02 -6.753704976290464401e-03 -7.227068394422531128e-02 2.607223577797412872e-03 -5.100929364562034607e-02 -1.060461066663265228e-02 1.834126189351081848e-02 -1.101123541593551636e-02 -5.867682397365570068e-02 2.554569020867347717e-02 1.061954721808433533e-01 5.763349682092666626e-02 -7.723310589790344238e-02 -3.503662720322608948e-02 -7.607819139957427979e-02
-6.069301068782806396e-02 -4.764256998896598816e-02 1.500268001109361649e-02 -4.230740666389465332e-02 -9.588005952537059784e-03 1.305509358644485474e-01 7.207600772380828857e-02 9.281058609485626221e-02 4.682081192731857300e-02 4.975839331746101379e-02 3.466061875224113464e-02 -3.122299723327159882e-02 -6.384354084730148315e-02 -7.454741746187210083e-02 7.813016884028911591e-03 3.580280393362045288e-02 2.988694794476032257e-02 -6.495996564626693726e-02 -8.085974305868148804e-02 1.754291169345378876e-02 -7.224522531032562256e-03 -5.433173105120658875e-02 -1.246928330510854721e-02 -3.160517662763595581e-02 -5.966320633888244629e-03
-6.785622332245111465e-03 2.528467029333114624e-02 -2.155982423573732376e-03 4.705771431326866150e-02 9.041892364621162415e-03 6.806104630231857300e-02 1.202207654714584351e-01 1.258962452411651611e-01 1.323174238204956055e-01 7.269684970378875732e-02 -1.522303819656372070e-01 -7.164388895034790039e-02 -9.338798373937606812e-02 1.434369361959397793e-03 -1.559216808527708054e-02 1.663346588611602783e-02 -6.455399841070175171e-02 -4.101917147636413574e-02 -4.517564177513122559e-02 2.931106602773070335e-03 7.963064312934875488e-02 8.449937403202056885e-02 2.082587778568267822e-02 -4.684818163514137268e-02 -4.614924266934394836e-02
-3.576194122433662415e-02 2.733205072581768036e-02 8.252821862697601318e-02 1.400978397578001022e-02 3.954688832163810730e-02 6.700578331947326660e-02 9.156997501850128174e-02 -5.367253348231315613e-02 3.369505330920219421e-02 -6.789333373308181763e-02 -7.723157852888107300e-02 -7.283186423592269421e-04 1.590570434927940369e-02 -1.874393597245216370e-02 4.196658730506896973e-02 -8.783161640167236328e-02 5.189887061715126038e-02 9.826759994029998779e-02 9.868008084595203400e-03 3.987372666597366333e-02 2.293123491108417511e-02 -5.668650195002555847e-02 -5.508034303784370422e-02 -1.655326038599014282e-02 -6.689314544200897217e-02
-5.221802741289138794e-02 1.840356178581714630e-02 -3.861202672123908997e-02 -4.188917204737663269e-02 -6.491500884294509888e-03 -4.331775009632110596e-02 3.920397907495498657e-02 -4.252037405967712402e-02 -5.676874890923500061e-02 -3.208576887845993042e-02 -3.739836812019348145e-02 3.448802977800369263e-02 5.527862906455993652e-02 -3.673398122191429138e-02 -2.649944275617599487e-02 6.385969370603561401e-02 -6.017982214689254761e-02 4.756517242640256882e-03 -6.874714791774749756e-02 -7.603153586387634277e-02 -4.133032634854316711e-03 -4.983686283230781555e-02 1.678003370761871338e-02 -4.224268719553947449e-02 -1.356770936399698257e-02
-2.056315355002880096e-02 2.488787658512592316e-02 3.168142214417457581e-02 -5.359490588307380676e-02 -8.227324485778808594e-02 -7.284545153379440308e-02 8.207120746374130249e-02 3.586950525641441345e-02 1.094688381999731064e-02 -9.563229046761989594e-03 6.110054999589920044e-02 7.290149480104446411e-02 3.519656509160995483e-02 3.846614435315132141e-02 -3.443048102781176567e-03 5.298592522740364075e-02 1.537480950355529785e-02 -3.019331023097038269e-02 -5.636180192232131958e-02 -2.876116521656513214e-02 5.008148029446601868e-02 9.835330769419670105e-03 -4.736749082803726196e-02 -4.220822453498840332e-02 -8.618058636784553528e-03
9.620731323957443237e-02 1.990285515785217285e-01 1.653126329183578491e-01 1.152144670486450195e-01 4.452988505363464355e-02 6.202035117894411087e-03 4.953987523913383484e-02 1.990018598735332489e-02 -5.890541896224021912e-02 -9.621264040470123291e-02 -8.715870790183544159e-03 -3.431723266839981079e-02 -1.117849647998809814e-01 -4.788954555988311768e-02 2.335491590201854706e-03 4.879684001207351685e-02 3.380611911416053772e-02 -5.506260693073272705e-02 4.479199647903442383e-03 -5.580918863415718079e-02 -1.100179832428693771e-02 -9.315051883459091187e-02 -9.270665049552917480e-02 -3.465526178479194641e-02 -1.886805333197116852e-02
-1.287840753793716431e-01 -9.701123833656311035e-02 -7.441689074039459229e-02 -2.899695560336112976e-02 -2.937073446810245514e-02 1.726714968681335449e-01 2.028866857290267944e-01 1.670895218849182129e-01 5.484418943524360657e-03 3.204922005534172058e-02 2.744833938777446747e-02 3.081363392993807793e-03 -3.129944950342178345e-02 -6.590024381875991821e-02 -9.751631319522857666e-02 -1.678065024316310883e-02 -2.747461199760437012e-02 7.153336890041828156e-03 -9.389986097812652588e-02 -5.006461590528488159e-02 -5.853885784745216370e-02 6.331179291009902954e-02 2.573082782328128815e-02 -6.381777673959732056e-02 -4.032972827553749084e-02
4.997785016894340515e-02 1.546918973326683044e-02 2.649402245879173279e-02 -8.875692635774612427e-02 1.251559797674417496e-02 5.852507799863815308e-02 -1.894874498248100281e-02 -1.682499237358570099e-02 -3.318382892757654190e-03 -2.031553350389003754e-02 3.122815489768981934e-02 -4.129225015640258789e-02 -9.916295856237411499e-02 -1.167305037379264832e-01 1.156026497483253479e-02 -6.812634877860546112e-03 1.421679370105266571e-02 -2.787834592163562775e-02 -8.722029626369476318e-02 -9.471434168517589569e-03 -5.463235452771186829e-02 -5.144796893000602722e-02 -1.462430227547883987e-03 1.010793447494506836e-02 -3.174383193254470825e-02
-3.184915333986282349e-02 -4.784847423434257507e-02 -7.806602120399475098e-02 8.577577769756317139e-02 -2.766164392232894897e-02 -1.688005402684211731e-02 -3.876553103327751160e-02 -3.139679506421089172e-02 5.892388150095939636e-02 9.373726695775985718e-02 -1.961906068027019501e-02 2.281942404806613922e-02 -1.530509535223245621e-02 1.132565215229988098e-01 1.125737950205802917e-01 1.265353616327047348e-02 5.388182587921619415e-03 6.754488497972488403e-02 1.098611578345298767e-01 1.124479696154594421e-01 4.448999837040901184e-02 -3.901883959770202637e-02 5.615877732634544373e-02 1.348419487476348877e-01 3.736791759729385376e-02
-1.274111028760671616e-02 -4.443766921758651733e-02 2.632586471736431122e-02 4.535179585218429565e-03 2.970797754824161530e-02 2.129703294485807419e-03 -5.245665460824966431e-02 5.504869297146797180e-02 4.232575744390487671e-02 9.878834336996078491e-02 4.804056079592555761e-04 -7.417064905166625977e-02 2.227779664099216461e-02 3.822840005159378052e-02 -3.734566643834114075e-02 2.385776303708553314e-02 -1.781795360147953033e-02 4.171704500913619995e-02 -2.443155460059642792e-02 -9.176513552665710449e-02 -2.995420619845390320e-02 -2.267799526453018188e-02 -3.570770472288131714e-02 3.020221181213855743e-02 -3.063497506082057953e-02
4.473938792943954468e-02 -7.027836889028549194e-02 -8.459439873695373535e-02 -2.974288538098335266e-02 -4.951747134327888489e-02 -1.427802722901105881e-02 -2.777427900582551956e-03 -9.146243333816528320e-02 6.808296311646699905e-03 -4.770832508802413940e-02 5.775547400116920471e-02 -1.008712314069271088e-02 -4.567770659923553467e-02 -8.835805952548980713e-02 -6.858475040644407272e-03 -4.195564985275268555e-02 -6.605662405490875244e-03 -1.101964339613914490e-01 -6.381638348102569580e-02 -5.271525308489799500e-02 -4.276073351502418518e-02 -6.370483338832855225e-02 -3.001695126295089722e-02 -1.644588075578212738e-02 -3.530104644596576691e-03
1.541293412446975708e-02 -7.939054816961288452e-02 -4.430931806564331055e-02 4.356849193572998047e-02 4.559995979070663452e-02 -2.827551029622554779e-02 -1.029294580221176147e-01 3.822614997625350952e-02 1.417272388935089111e-01 9.484683722257614136e-02 3.551359102129936218e-02 5.640640389174222946e-03 -5.600316449999809265e-02 1.430439800024032593e-01 9.890481829643249512e-02 3.321547806262969971e-02 -2.156516723334789276e-02 -1.601801998913288116e-02 1.148855239152908325e-01 3.284566476941108704e-02 -2.481149695813655853e-02 -8.656939119100570679e-02 -9.981258213520050049e-02 3.467535600066184998e-03 9.206359088420867920e-02
6.278920918703079224e-02 4.713856056332588196e-02 2.924356982111930847e-02 -2.520259283483028412e-02 9.365878067910671234e-03 1.115953084081411362e-02 -3.846644982695579529e-02 4.950443282723426819e-02 9.801526367664337158e-02 3.650603070855140686e-02 -4.354311898350715637e-02 -4.448593407869338989e-02 1.090818867087364197e-01 7.802650332450866699e-02 -8.524089306592941284e-02 -2.548728138208389282e-02 -4.996686056256294250e-02 3.828049451112747192e-02 1.064391508698463440e-01 -9.333790093660354614e-02 2.691673114895820618e-03 -8.672577887773513794e-02 6.370356772094964981e-03 5.302978679537773132e-03 -1.240321435034275055e-02
-4.470148589462041855e-03 -2.960773371160030365e-02 -2.751172706484794617e-02 -3.402985259890556335e-02 -6.386568397283554077e-02 -4.702384024858474731e-02 2.951422333717346191e-02 -6.904248148202896118e-02 -7.708302140235900879e-02 1.137073338031768799e-02 2.230347506701946259e-02 1.341506186872720718e-02 -9.747385978698730469e-02 -6.510365009307861328e-02 -7.065595686435699463e-02 -4.444059357047080994e-02 -4.026465117931365967e-02 -9.194964542984962463e-03 3.877199441194534302e-02 -6.795167177915573120e-02 2.704463433474302292e-03 -8.132349699735641479e-02 -1.238217111676931381e-02 2.293653227388858795e-02 1.587498816661536694e-03
3.136886656284332275e-02 1.319446321576833725e-02 4.078617319464683533e-02 -8.210386149585247040e-03 3.828964754939079285e-02 2.093805000185966492e-02 -5.492987111210823059e-02 -1.930078677833080292e-02 -7.407940924167633057e-02 1.186004187911748886e-02 -3.897114424034953117e-03 5.526617914438247681e-02 -8.327955752611160278e-02 -3.779706358909606934e-02 -6.158876419067382812e-02 3.955347463488578796e-02 -2.806100761517882347e-03 -1.323643885552883148e-02 -1.175628602504730225e-01 -5.719800293445587158e-02 2.861990965902805328e-02 -4.710407555103302002e-02 -3.505688533186912537e-02 -9.344393759965896606e-02 -3.299213945865631104e-02
-3.482917696237564087e-02 4.339429736137390137e-02 3.700519725680351257e-02 -7.017666939646005630e-03 1.530907116830348969e-02 -1.516965776681900024e-02 7.728648930788040161e-02 -2.255394123494625092e-02 -6.154377944767475128e-03 -4.430831223726272583e-02 6.235491018742322922e-03 -6.433014292269945145e-03 1.466012746095657349e-02 -9.384813718497753143e-03 -1.115900054574012756e-01 -2.925589121878147125e-02 -2.132349461317062378e-02 -1.810051500797271729e-02 -4.492308199405670166e-02 -7.188362628221511841e-02 -6.257441639900207520e-02 -3.361814469099044800e-02 -1.505951164290308952e-03 -3.009397163987159729e-02 2.360798791050910950e-02
-3.288628160953521729e-02 -3.715111408382654190e-03 -5.080002173781394958e-02 -1.269538104534149170e-01 -6.315559893846511841e-02 -2.478274889290332794e-02 3.453669324517250061e-02 4.801195487380027771e-02 -1.122264489531517029e-01 -3.537484258413314819e-02 1.404330600053071976e-02 -5.249156802892684937e-02 -6.721707433462142944e-02 -6.387489289045333862e-02 -1.702891662716865540e-02 1.314752083271741867e-02 -4.597691819071769714e-02 -9.006150066852569580e-02 1.297816168516874313e-02 6.836935877799987793e-03 -2.407440170645713806e-02 -6.375432014465332031e-02 -9.298455715179443359e-02 1.274072658270597458e-02 -2.558128349483013153e-02
-2.906656078994274139e-02 -3.271397575736045837e-02 -1.648785732686519623e-02 -3.629743680357933044e-02 1.684090122580528259e-02 -9.759021922945976257e-03 -4.277430847287178040e-02 4.325097054243087769e-02 4.443443566560745239e-02 2.558081038296222687e-02 -1.507957652211189270e-02 6.423630751669406891e-03 -4.491525515913963318e-02 4.776586964726448059e-02 6.251175701618194580e-02 7.526267319917678833e-03 7.062084972858428955e-02 7.685378938913345337e-02 -4.285083618015050888e-03 -3.026060014963150024e-02 1.002122089266777039e-02 3.189136832952499390e-02 -3.117778152227401733e-02 1.817985624074935913e-02 -1.085890643298625946e-02
1.202522125095129013e-02 2.731675468385219574e-02 7.473477721214294434e-02 6.248828023672103882e-02 1.484443317167460918e-03 1.686764997430145741e-03 1.572991348803043365e-02 -9.818331338465213776e-03 -4.981977492570877075e-02 -1.628476940095424652e-02 1.138598192483186722e-02 4.865532740950584412e-02 1.682983897626399994e-02 -2.371828816831111908e-02 -9.227365255355834961e-03 5.757265165448188782e-02 5.110939219594001770e-02 -5.056013166904449463e-02 -6.176906079053878784e-02 -7.432641834020614624e-02 1.203548721969127655e-02 -9.507812559604644775e-02 -6.072397902607917786e-02 2.052891626954078674e-02 5.747352167963981628e-02
-1.590469107031822205e-02 8.184625953435897827e-02 3.492793440818786621e-02 6.988126039505004883e-02 -2.825774624943733215e-02 2.923063188791275024e-02 9.209018945693969727e-02 9.040016680955886841e-02 1.873832195997238159e-02 -6.088489666581153870e-02 3.743655234575271606e-02 2.786787226796150208e-02 -2.693864330649375916e-02 -1.265893969684839249e-02 -1.182919219136238098e-01 -5.854764487594366074e-03 -3.933287411928176880e-02 -7.751034945249557495e-02 -1.365700829774141312e-02 -6.043004617094993591e-02 -1.088075712323188782e-01 -6.971060484647750854e-02 -4.593466594815254211e-02 -6.517165899276733398e-02 9.894578717648983002e-03
5.306462198495864868e-02 -1.904533710330724716e-03 -2.870314009487628937e-02 4.984450340270996094e-02 5.587097629904747009e-02 3.659752383828163147e-02 -7.670363411307334900e-03 -9.554254822432994843e-03 -3.660393133759498596e-02 3.087024949491024017e-02 6.369426101446151733e-02 -1.971990801393985748e-02 -5.767675489187240601e-02 4.468733817338943481e-02 7.734686136245727539e-02 6.146353110671043396e-02 5.261701066046953201e-03 1.311657950282096863e-02 1.746335998177528381e-02 -2.386154793202877045e-02 5.676196422427892685e-03 7.283998280763626099e-02 1.805047877132892609e-02 6.165352463722229004e-02 -4.628467932343482971e-02
8.586222305893898010e-03 4.599365592002868652e-02 -7.206025067716836929e-03 8.128019422292709351e-02 9.285844862461090088e-02 -5.013782158493995667e-02 9.988141059875488281e-02 8.573790639638900757e-02 -7.593724131584167480e-02 -4.995297268033027649e-02 1.330334693193435669e-01 6.514935288578271866e-03 -6.696627289056777954e-02 -1.440012603998184204e-01 -4.286752268671989441e-02 3.145959973335266113e-02 -1.141683571040630341e-02 2.850795164704322815e-03 -8.841723948717117310e-02 -1.336456090211868286e-01 -3.886505588889122009e-02 -2.372703142464160919e-02 -1.763370074331760406e-02 -4.678708035498857498e-03 -1.347627211362123489e-02
3.591717034578323364e-02 8.407066762447357178e-02 3.192080929875373840e-02 5.674063786864280701e-02 3.553585708141326904e-02 8.088658750057220459e-02 -1.271808054298162460e-02 4.294646158814430237e-02 4.297860898077487946e-03 -8.261794596910476685e-02 7.863197475671768188e-02 7.763178646564483643e-02 2.824985422194004059e-02 -9.926764667034149170e-02 1.044873986393213272e-02 -5.702630616724491119e-03 1.697070337831974030e-02 1.146215107291936874e-02 -3.740634396672248840e-02 -5.249198153614997864e-02 -4.377564787864685059e-02 -7.837619632482528687e-02 -2.274415642023086548e-02 2.381734736263751984e-02 1.657547987997531891e-02
-2.793558873236179352e-02 3.755566477775573730e-02 4.897350072860717773e-02 -2.676410973072052002e-02 2.405808120965957642e-02 2.213338157162070274e-03 1.970136724412441254e-02 -5.528313666582107544e-02 -5.896304175257682800e-02 -6.469999440014362335e-03 -5.712569504976272583e-02 1.729612611234188080e-02 5.492378026247024536e-02 -1.263443846255540848e-02 1.921251532621681690e-03 5.898074246942996979e-03 -2.944843471050262451e-02 5.597449839115142822e-03 2.565374039113521576e-02 6.098572909832000732e-02 -5.821901559829711914e-02 -3.943162504583597183e-03 -4.858647286891937256e-02 -9.928494691848754883e-03 1.369409612379968166e-03
-2.690663374960422516e-02 7.703770697116851807e-02 8.028510212898254395e-02 -1.981355249881744385e-02 -2.112058922648429871e-02 1.501568686217069626e-02 2.811853215098381042e-02 5.734263733029365540e-02 7.811743766069412231e-02 -5.427689850330352783e-02 1.708046719431877136e-02 -3.027774021029472351e-02 -2.006708085536956787e-02 6.189385801553726196e-02 -1.421715598553419113e-02 -2.583929710090160370e-02 4.539479687809944153e-02 5.944238509982824326e-03 -4.521246999502182007e-02 -3.232146054506301880e-02 -1.580804027616977692e-02 -7.046001846902072430e-04 -4.748671874403953552e-02 -8.054268360137939453e-02 3.360285423696041107e-03
-3.825303539633750916e-02 -7.791898213326931000e-03 6.840886920690536499e-02 1.418907474726438522e-02 -2.099312096834182739e-02 4.274991527199745178e-02 7.657078653573989868e-02 2.028835192322731018e-02 -1.290680374950170517e-02 1.502147037535905838e-02 5.184045061469078064e-02 1.144250668585300446e-02 5.232887808233499527e-03 9.531414136290550232e-03 -7.776018232107162476e-02 -1.261456124484539032e-02 4.683628678321838379e-02 -2.717865630984306335e-03 -7.224009372293949127e-03 3.967968001961708069e-02 4.274253547191619873e-02 2.763858065009117126e-02 6.482091546058654785e-02 -4.498760402202606201e-02 3.126813098788261414e-02
2.971336059272289276e-02 -5.432613193988800049e-03 -5.732145532965660095e-02 1.677786000072956085e-02 -4.752387106418609619e-02 -5.801191926002502441e-02 1.925017684698104858e-02 -2.953879162669181824e-02 1.121530309319496155e-03 5.264909565448760986e-02 -1.508716773241758347e-02 5.409909412264823914e-03 -6.070974469184875488e-02 4.398848116397857666e-02 -3.193129971623420715e-02 3.044196590781211853e-02 -7.340299338102340698e-02 -4.964833334088325500e-02 6.455712020397186279e-02 -3.136406466364860535e-02 1.265194080770015717e-02 2.728505246341228485e-02 6.521284580230712891e-02 1.547058671712875366e-02 1.905865594744682312e-02
-3.436819836497306824e-02 -9.612613357603549957e-03 7.514364272356033325e-02 4.093443974852561951e-02 -1.131496112793684006e-02 -6.171043217182159424e-02 -5.011430382728576660e-02 5.453006923198699951e-02 2.795398177113384008e-04 3.984037041664123535e-02 3.189985454082489014e-02 -2.877400070428848267e-02 -1.976547017693519592e-02 1.369772106409072876e-01 4.460521414875984192e-02 -5.040788277983665466e-02 -7.180976122617721558e-02 -2.383136004209518433e-02 2.535358816385269165e-02 9.187366068363189697e-02 7.886712998151779175e-02 2.181441709399223328e-02 -1.029857993125915527e-02 3.071229346096515656e-02 -3.732374683022499084e-02
-3.755787387490272522e-02 1.561356242746114731e-02 3.352939710021018982e-02 7.421224564313888550e-02 -3.765000402927398682e-02 -1.027849223464727402e-02 -4.910406842827796936e-02 -2.467560023069381714e-02 1.425720900297164917e-01 1.389099508523941040e-01 -9.757930785417556763e-02 -8.660019934177398682e-02 -3.811505064368247986e-02 8.443586528301239014e-02 9.965468943119049072e-02 -4.575761035084724426e-02 -3.734170645475387573e-02 -1.245805248618125916e-01 2.162366919219493866e-02 5.583397671580314636e-02 4.814825952053070068e-02 3.900019451975822449e-03 -2.666673623025417328e-02 -8.586857467889785767e-03 -5.135532002896070480e-03
5.346746370196342468e-02 2.671829983592033386e-02 -4.271567240357398987e-02 1.119359768927097321e-02 -5.379925295710563660e-02 1.403228961862623692e-03 -1.191093772649765015e-02 5.583183374255895615e-03 6.039472646079957485e-04 -4.707594402134418488e-03 -4.629720002412796021e-02 -2.799934148788452148e-02 -8.109115995466709137e-03 -7.146503031253814697e-02 2.380114607512950897e-02 -7.186248153448104858e-02 -3.890793770551681519e-02 3.068113885819911957e-02 3.750928863883018494e-02 1.121164765208959579e-02 9.747889824211597443e-03 4.583713412284851074e-02 -4.581722244620323181e-02 5.489125475287437439e-02 -7.394153159111738205e-03
4.727663472294807434e-03 -4.691946879029273987e-02 9.016148746013641357e-03 2.350826933979988098e-02 -5.661821365356445312e-02 3.084473684430122375e-02 -1.885477453470230103e-02 -1.617315411567687988e-02 6.701730936765670776e-02 -6.571257114410400391e-02 -1.372922305017709732e-02 2.620021998882293701e-02 5.997857823967933655e-02 1.459931838326156139e-03 -3.195966780185699463e-02 -1.059627719223499298e-02 -6.195315346121788025e-02 2.436097711324691772e-02 1.965875417226925492e-04 2.939053252339363098e-02 5.267922207713127136e-02 -8.491025120019912720e-02 -6.952615827322006226e-02 -5.935551598668098450e-02 4.970056563615798950e-02
4.863800853490829468e-02 -2.061276882886886597e-02 7.551221549510955811e-02 3.035306558012962341e-02 -1.453954279422760010e-01 -5.355777591466903687e-02 1.278380583971738815e-02 4.124649986624717712e-02 1.641734093427658081e-01 6.308367103338241577e-02 -8.583743125200271606e-02 -4.464698582887649536e-02 -9.767815470695495605e-02 6.331445276737213135e-02 1.693188697099685669e-01 -2.606012113392353058e-02 -6.804668903350830078e-02 -8.976697921752929688e-02 5.115238949656486511e-02 5.614087730646133423e-02 5.155614390969276428e-02 -1.841327175498008728e-02 -9.874565899372100830e-02 -6.205635145306587219e-02 -4.761295393109321594e-02
6.324098259210586548e-02 9.807249158620834351e-02 4.961005598306655884e-02 3.786098212003707886e-02 -6.658592820167541504e-02 1.378162298351526260e-02 6.758248805999755859e-02 2.318126894533634186e-02 4.507458582520484924e-02 -5.807306244969367981e-02 -3.223744034767150879e-02 -1.078454852104187012e-01 -4.543632641434669495e-02 -2.988457120954990387e-02 -1.872632466256618500e-02 -1.419909298419952393e-02 -9.839384257793426514e-02 -3.707193583250045776e-02 3.118699043989181519e-02 -2.024617232382297516e-02 3.942219167947769165e-02 -5.100305192172527313e-03 -3.260001912713050842e-02 -7.585977762937545776e-02 3.859184682369232178e-02
-4.333762917667627335e-03 1.389276701956987381e-02 2.201903425157070160e-02 3.985556215047836304e-02 -4.610048234462738037e-02 1.177222840487957001e-02 -7.439165562391281128e-02 2.022902853786945343e-02 -3.263947740197181702e-02 2.407191134989261627e-02 -4.555744677782058716e-02 2.238461747765541077e-02 1.847841776907444000e-02 2.320299297571182251e-02 -5.677168443799018860e-02 5.895569920539855957e-02 -3.075373172760009766e-02 -6.436094641685485840e-02 3.101421333849430084e-02 2.634297357872128487e-03 -1.094255689531564713e-02 -3.992112353444099426e-02 2.362046204507350922e-02 -1.631393097341060638e-02 -4.153009504079818726e-02
-8.795920759439468384e-03 -5.697501823306083679e-02 2.340671344427391887e-04 -4.408787935972213745e-02 -2.446115575730800629e-02 -6.894073635339736938e-02 -4.000615701079368591e-02 -7.125908136367797852e-02 -1.303262542933225632e-04 -2.469320595264434814e-02 2.619703486561775208e-02 3.269968926906585693e-02 -2.487936057150363922e-02 -9.412214159965515137e-02 -7.921851426362991333e-02 -3.094671852886676788e-02 4.675090312957763672e-03 -4.392042011022567749e-02 9.482443332672119141e-03 -4.030265659093856812e-02 2.250316552817821503e-02 1.142908073961734772e-02 -2.790114842355251312e-02 6.075959280133247375e-02 -2.193012647330760956e-02
-4.186561703681945801e-02 3.542694076895713806e-02 -3.164219111204147339e-02 -9.451121091842651367e-03 -3.438722714781761169e-02 -3.936593234539031982e-02 1.213275920599699020e-02 1.028212085366249084e-01 5.556238070130348206e-02 5.109283328056335449e-02 -2.219254337251186371e-02 2.847443893551826477e-02 -4.465239588171243668e-03 9.080216288566589355e-03 5.168457701802253723e-02 2.270333468914031982e-02 -1.026284415274858475e-03 2.806568332016468048e-02 5.376352369785308838e-02 3.795633465051651001e-02 1.962763443589210510e-02 -1.597892679274082184e-02 -1.113456580787897110e-02 1.735747233033180237e-02 -3.530396521091461182e-02
-1.225737296044826508e-02 3.236370906233787537e-02 6.517885718494653702e-03 -7.355800271034240723e-02 -5.546351522207260132e-02 -5.341268330812454224e-02 5.182420834898948669e-02 6.249583885073661804e-02 -2.322857268154621124e-02 -6.122746691107749939e-02 -8.735015243291854858e-02 6.114201247692108154e-02 8.836280554533004761e-02 1.161762326955795288e-01 6.002141162753105164e-02 -3.250860422849655151e-02 7.916687056422233582e-03 4.667302966117858887e-02 3.665249049663543701e-02 1.526330690830945969e-02 3.171397745609283447e-02 -4.089591279625892639e-02 -5.280875414609909058e-02 -4.736571758985519409e-02 -2.244714647531509399e-02
-2.294657193124294281e-02 -2.091296575963497162e-02 1.312860939651727676e-02 2.125171571969985962e-02 -4.356950055807828903e-03 3.409481421113014221e-02 -7.540660351514816284e-02 -3.383813053369522095e-02 -6.512148678302764893e-02 2.881374675780534744e-04 3.236702457070350647e-02 -1.058754622936248779e-01 -4.799320176243782043e-02 -6.182205304503440857e-02 1.334430649876594543e-02 -5.216837674379348755e-02 -4.954085871577262878e-02 -1.086018532514572144e-01 -2.404233999550342560e-02 -7.520382106304168701e-02 -5.356832593679428101e-02 -4.818142950534820557e-02 -2.257886156439781189e-02 6.948342919349670410e-02 -1.477973815053701401e-02
-8.386751264333724976e-02 -9.731303155422210693e-02 -6.190773099660873413e-02 -2.050542086362838745e-02 8.399979211390018463e-03 -4.281757026910781860e-02 -1.714956574141979218e-02 -3.781804814934730530e-02 9.667089208960533142e-03 5.278579890727996826e-02 -1.407736074179410934e-02 -7.669590413570404053e-02 6.480713933706283569e-02 1.284785419702529907e-01 -6.433118879795074463e-02 -1.051027625799179077e-01 -5.513156205415725708e-02 8.213434368371963501e-02 5.758532881736755371e-02 -4.361311346292495728e-02 -1.004159152507781982e-01 5.203562323004007339e-03 1.130802556872367859e-01 1.247881632298231125e-02 1.685948669910430908e-02
7.331954315304756165e-03 2.462024614214897156e-02 -1.373937726020812988e-02 -7.535865902900695801e-02 3.722798824310302734e-02 -8.142598718404769897e-02 -2.909269556403160095e-02 1.999814435839653015e-02 5.336885526776313782e-02 3.379911929368972778e-02 -1.022810414433479309e-01 -1.888231933116912842e-02 9.104228019714355469e-02 1.277958750724792480e-01 -5.090098083019256592e-02 -3.607958555221557617e-02 1.383654326200485229e-01 1.742514073848724365e-01 -7.894907891750335693e-02 -7.223661243915557861e-02 4.103870689868927002e-02 5.657474324107170105e-02 -6.710837036371231079e-02 2.067620493471622467e-02 -6.489256769418716431e-02
4.446897655725479126e-02 3.123864904046058655e-02 4.269909113645553589e-02 -8.855930529534816742e-03 1.221383642405271530e-02 -6.387244164943695068e-02 2.073255740106105804e-02 2.919263497460633516e-04 3.238992393016815186e-02 -3.758637979626655579e-02 3.338913246989250183e-02 1.660114154219627380e-02 -1.971636526286602020e-02 -1.311058877035975456e-03 -5.164608731865882874e-02 -6.714019179344177246e-02 -7.780610769987106323e-02 -8.101483434438705444e-02 9.113197214901447296e-03 1.069152168929576874e-02 -4.044032469391822815e-02 2.316995896399021149e-02 -1.955749653279781342e-02 -4.028943181037902832e-02 -1.140325423330068588e-02
-7.968986034393310547e-02 -5.525495857000350952e-02 2.781498618423938751e-02 5.030337348580360413e-02 -9.364341944456100464e-02 -7.517947256565093994e-02 -9.302687644958496094e-02 -7.381979376077651978e-02 4.691034182906150818e-02 -3.420145064592361450e-02 -4.277034103870391846e-02 -1.474791467189788818e-01 1.306009143590927124e-01 3.863803297281265259e-02 -3.721608221530914307e-02 -1.093223914504051208e-01 7.177294045686721802e-02 1.323177814483642578e-01 -1.387262344360351562e-02 -1.660452485084533691e-01 -4.340195283293724060e-02 6.685848534107208252e-02 1.485805064439773560e-01 2.365475334227085114e-02 -8.134422451257705688e-02
-6.785254925489425659e-02 -2.281682007014751434e-02 -2.307285740971565247e-02 -5.056428909301757812e-02 -1.022688820958137512e-01 -1.302967071533203125e-01 -7.953038066625595093e-02 7.926920428872108459e-03 -8.846370037645101547e-04 -1.369847333990037441e-03 -4.772816598415374756e-02 -2.951306290924549103e-02 -1.057244371622800827e-02 1.076362878084182739e-01 -2.481287531554698944e-02 -4.356000199913978577e-02 1.160121262073516846e-01 1.553113758563995361e-01 -4.308287054300308228e-02 -8.237387239933013916e-02 4.918616265058517456e-02 1.118002906441688538e-01 9.214477986097335815e-02 -1.348788850009441376e-02 4.051684401929378510e-03
1.924014184623956680e-03 -1.839450187981128693e-02 -2.798042632639408112e-02 1.672287471592426300e-02 7.296773046255111694e-02 3.827542439103126526e-02 7.548655569553375244e-02 8.504223078489303589e-02 6.592900305986404419e-02 -1.374457590281963348e-02 -2.939930744469165802e-02 9.697659872472286224e-03 -4.277555644512176514e-02 -2.255581878125667572e-02 -2.365261130034923553e-02 3.699418157339096069e-02 -2.176886051893234253e-02 5.457401648163795471e-02 -5.741940066218376160e-02 -6.564927101135253906e-02 5.732814781367778778e-03 2.150924503803253174e-02 -1.538781542330980301e-02 -3.870204463601112366e-02 1.374842785298824310e-02
-1.891013421118259430e-02 -3.372266516089439392e-02 1.575310900807380676e-02 -1.501957979053258896e-02 6.356813013553619385e-02 -7.383105158805847168e-02 -2.985136583447456360e-02 6.593021750450134277e-02 1.071899831295013428e-01 4.417286068201065063e-02 -6.441355496644973755e-02 1.472233049571514130e-02 -5.342561053112149239e-04 1.633097766898572445e-03 2.138080447912216187e-02 -1.088325865566730499e-02 -4.738185182213783264e-02 -6.269423663616180420e-02 3.694782033562660217e-02 -2.460130490362644196e-02 -6.233662366867065430e-02 -1.693926751613616943e-02 5.078805983066558838e-02 8.494767546653747559e-02 -6.138594355434179306e-03
-6.706304103136062622e-02 -6.390917301177978516e-02 -1.388158369809389114e-02 -7.516442239284515381e-02 2.381687797605991364e-02 -8.901936560869216919e-02 -1.213124021887779236e-01 -1.042672768235206604e-01 5.199206620454788208e-02 7.446236908435821533e-02 -3.068747557699680328e-02 -3.239289671182632446e-02 6.219450011849403381e-02 1.079965233802795410e-01 6.179244443774223328e-02 -5.771322920918464661e-02 -2.995703369379043579e-03 1.975596882402896881e-02 -8.386778831481933594e-02 3.835329413414001465e-02 -7.571672648191452026e-02 -3.020403906702995300e-02 -9.423054754734039307e-03 2.857566811144351959e-02 -1.188236381858587265e-02
-5.489590018987655640e-02 2.225278504192829132e-02 3.296672552824020386e-02 -1.508059166371822357e-02 -5.298887193202972412e-02 3.954754397273063660e-02 -3.856502845883369446e-02 -5.083822086453437805e-02 2.624674513936042786e-02 -3.435510024428367615e-02 -8.203773759305477142e-03 -2.437792532145977020e-02 -5.262934044003486633e-02 -5.520761385560035706e-02 -2.324126474559307098e-02 -1.943850517272949219e-02 3.298401087522506714e-02 -1.475233398377895355e-02 -5.359020829200744629e-02 6.335422862321138382e-03 -9.181806445121765137e-02 5.265104770660400391e-02 -3.513553366065025330e-02 -9.714999794960021973e-02 -1.982518099248409271e-02
4.544993117451667786e-02 2.881896868348121643e-02 3.335050493478775024e-02 1.286883093416690826e-02 4.005419090390205383e-03 1.568904146552085876e-02 5.862208548933267593e-03 -4.699886217713356018e-02 -4.114872310310602188e-03 -3.444350510835647583e-02 -5.611998587846755981e-02 4.492547828704118729e-03 -3.634357452392578125e-02 -3.470389544963836670e-02 -2.529206871986389160e-02 1.553070545196533203e-02 -1.428763964213430882e-03 2.922753430902957916e-02 -1.795996166765689850e-02 -3.759733960032463074e-02 -3.697324544191360474e-02 -7.488151639699935913e-02 1.764776185154914856e-02 1.043252274394035339e-01 7.172542810440063477e-02
-5.315469205379486084e-02 -1.581997983157634735e-02 3.108715638518333435e-02 -5.748820304870605469e-02 -5.034344270825386047e-02 -2.872901596128940582e-02 4.960450902581214905e-02 4.374789446592330933e-02 -3.114054910838603973e-02 -7.940636575222015381e-02 -1.741844788193702698e-02 -1.540356688201427460e-02 1.713044941425323486e-01 1.019090563058853149e-01 -7.074049860239028931e-02 -6.045474857091903687e-02 -2.017251215875148773e-02 1.601749211549758911e-01 1.400078684091567993e-01 -3.174842335283756256e-03 -1.170524675399065018e-02 -5.444359034299850464e-02 8.812571316957473755e-02 1.002634167671203613e-01 -2.742300368845462799e-02
2.732335589826107025e-02 -1.279049087315797806e-02 5.756847187876701355e-02 -7.181107997894287109e-02 -5.946198478341102600e-03 2.008548937737941742e-02 4.395334422588348389e-02 2.018868923187255859e-02 -6.105109304189682007e-02 -8.618152141571044922e-02 -9.093143790960311890e-02 4.789530858397483826e-02 -2.784554474055767059e-02 -7.272139936685562134e-02 -2.051529288291931152e-02 8.842557872412726283e-05 -6.227499246597290039e-02 -8.878338150680065155e-03 -1.911614090204238892e-02 4.662816971540451050e-02 -3.727759420871734619e-02 1.468611229211091995e-02 1.145727559924125671e-02 5.956957861781120300e-02 -3.506512194871902466e-02
-4.676128178834915161e-02 -1.824476011097431183e-02 -4.114998131990432739e-02 2.092909254133701324e-02 4.313556477427482605e-02 -6.200227886438369751e-02 -6.626734137535095215e-02 -5.702104885131120682e-03 9.498101659119129181e-03 9.230550378561019897e-03 4.042232409119606018e-02 1.021884847432374954e-02 -6.229449063539505005e-02 1.120442175306379795e-03 1.558465976268053055e-02 -5.142651125788688660e-02 1.580764539539813995e-02 -3.916159272193908691e-02 -6.236643064767122269e-03 3.369258716702461243e-02 -8.119549602270126343e-02 -4.092231392860412598e-03 8.885133266448974609e-02 3.880007565021514893e-02 -3.409110382199287415e-02
9.696790017187595367e-03 -2.256703004240989685e-02 -4.914163146167993546e-03 1.676837354898452759e-02 7.076248526573181152e-02 -2.191731519997119904e-02 4.710650071501731873e-02 5.417595058679580688e-02 -9.324092417955398560e-02 -4.797859117388725281e-02 -1.110725253820419312e-01 3.817933425307273865e-02 2.144031822681427002e-01 -4.259482026100158691e-02 -1.511682420969009399e-01 -1.200914010405540466e-01 -4.701815173029899597e-02 1.818373501300811768e-01 1.131749227643013000e-01 -1.237567812204360962e-01 -1.108692586421966553e-01 -1.078177243471145630e-01 1.202761828899383545e-01 1.013360992074012756e-01 1.431082375347614288e-02
1.138040795922279358e-02 -3.248842433094978333e-03 2.750581689178943634e-02 3.333275392651557922e-02 -4.621845483779907227e-02 -5.592076573520898819e-03 -2.326095476746559143e-02 -4.540671035647392273e-02 -5.559857934713363647e-02 2.083735540509223938e-02 -8.190435171127319336e-02 8.556171506643295288e-02 1.076139975339174271e-02 -5.890316888689994812e-02 -6.687588244676589966e-02 -6.123409257270395756e-04 1.254981104284524918e-02 -2.377159520983695984e-02 -6.299090385437011719e-02 1.872805645689368248e-03 -6.826661527156829834e-02 4.038912802934646606e-02 4.606089554727077484e-03 -7.161799073219299316e-02 -1.789343543350696564e-02
-2.488876506686210632e-02 3.095694631338119507e-02 3.500656038522720337e-02 4.049209877848625183e-02 3.362001106142997742e-02 -5.765328928828239441e-02 -6.565809249877929688e-02 -4.716575611382722855e-03 7.891556248068809509e-03 -4.776499420404434204e-02 2.706059999763965607e-02 -2.115303091704845428e-02 -5.237674340605735779e-02 3.183852508664131165e-02 6.265626847743988037e-02 -7.358913775533437729e-03 -3.009667620062828064e-02 1.059770304709672928e-02 -5.743281543254852295e-02 4.493694379925727844e-02 3.501865640282630920e-02 -2.182884700596332550e-02 -5.556778237223625183e-02 3.683426603674888611e-02 -6.677722930908203125e-02
-4.687793180346488953e-02 1.252132933586835861e-02 -3.499557822942733765e-02 9.877951815724372864e-03 5.780256539583206177e-02 -3.192544355988502502e-02 -2.484050020575523376e-02 5.169267952442169189e-02 -4.100513644516468048e-03 2.253481745719909668e-02 -4.915948212146759033e-02 -1.088732033967971802e-01 -5.271473899483680725e-02 -3.793320059776306152e-02 -1.601996272802352905e-02 -6.142048537731170654e-02 7.060189731419086456e-03 -9.347505867481231689e-02 1.255052629858255386e-02 1.701557822525501251e-02 4.291277006268501282e-02 2.984744124114513397e-02 -8.769392967224121094e-02 3.883966477587819099e-03 -4.013655707240104675e-02
1.863106340169906616e-02 -1.595393568277359009e-02 -3.102619014680385590e-02 5.709864199161529541e-02 -2.589227445423603058e-02 8.282375335693359375e-02 1.546809915453195572e-02 -3.994056209921836853e-02 -3.693254664540290833e-02 -8.315924555063247681e-02 -3.385575255379080772e-03 2.101060003042221069e-02 -1.626081205904483795e-02 -2.466724999248981476e-02 -2.152635017409920692e-03 -2.521324902772903442e-02 3.213056549429893494e-02 -4.506592825055122375e-02 -2.109060809016227722e-02 3.448915481567382812e-02 -9.484602510929107666e-02 -5.243373662233352661e-02 4.195641726255416870e-02 -3.564598271623253822e-03 -7.442930713295936584e-03
-5.398614332079887390e-02 -8.141411840915679932e-02 -8.243736624717712402e-02 -2.883903309702873230e-02 -4.936422035098075867e-02 -6.855702493339776993e-03 4.189362376928329468e-02 -8.137217909097671509e-02 6.432870030403137207e-02 -1.403199601918458939e-02 -7.811244577169418335e-03 2.203499153256416321e-02 -8.086816221475601196e-02 -3.547801822423934937e-02 7.216378301382064819e-02 -5.315808206796646118e-02 1.020503342151641846e-01 2.507955767214298248e-03 -7.802144438028335571e-02 2.104008570313453674e-02 1.223989820573478937e-04 4.011691361665725708e-02 6.915526837110519409e-02 -4.865067452192306519e-02 -9.571641683578491211e-03
2.878707461059093475e-02 -1.519945822656154633e-02 2.534484863281250000e-02 -1.048844680190086365e-02 -4.013849422335624695e-02 -9.002610109746456146e-03 -4.914953559637069702e-02 -8.730018744245171547e-04 -4.124769940972328186e-02 -1.369555830024182796e-03 4.304766654968261719e-03 3.870569169521331787e-02 -3.576145693659782410e-02 5.785122886300086975e-02 -1.461282372474670410e-02 -6.430830806493759155e-02 5.633033812046051025e-02 2.819799259305000305e-02 1.130741536617279053e-01 7.304028421640396118e-02 -1.447383221238851547e-02 -9.501501917839050293e-03 -2.445537224411964417e-02 5.303803831338882446e-03 -4.293505626264959574e-04
-1.071973517537117004e-02 -5.925313010811805725e-02 -8.814333379268646240e-02 -5.745559930801391602e-02 -1.589285908266901970e-03 -2.233123965561389923e-02 -5.006315186619758606e-02 -1.985765062272548676e-02 -1.986844930797815323e-03 4.439720511436462402e-02 -1.028902977705001831e-01 -3.391232714056968689e-02 1.961664482951164246e-02 -2.373300120234489441e-02 -6.524781696498394012e-03 1.376109576085582376e-04 -5.154426023364067078e-02 -1.988341286778450012e-02 -6.324116885662078857e-02 6.446479260921478271e-02 -3.522481396794319153e-02 -5.117187649011611938e-02 -2.649116888642311096e-02 -2.960912883281707764e-02 -7.899304479360580444e-02
6.229871883988380432e-02 -3.246731683611869812e-02 -1.212431211024522781e-02 3.804898262023925781e-02 2.970719151198863983e-02 2.749452553689479828e-02 1.495344215072691441e-03 1.274906843900680542e-02 2.736357785761356354e-02 2.565833926200866699e-02 3.757159411907196045e-02 1.150737516582012177e-04 -4.791481420397758484e-03 -4.943747818470001221e-02 -6.061254069209098816e-02 -4.498785734176635742e-02 -8.039437979459762573e-02 -7.549661397933959961e-02 5.432462319731712341e-03 -1.188504416495561600e-02 1.301268581300973892e-02 3.275004774332046509e-02 -7.492811977863311768e-02 9.399030357599258423e-03 3.585015237331390381e-02
-4.003159329295158386e-02 -3.114144131541252136e-02 2.976102009415626526e-02 -6.168698146939277649e-02 4.894679039716720581e-02 3.373401612043380737e-02 1.321669388562440872e-02 4.904111847281455994e-02 -6.310784071683883667e-02 6.029417738318443298e-02 -2.331658825278282166e-02 3.667233139276504517e-02 -3.072616830468177795e-02 4.662615060806274414e-02 7.732273079454898834e-03 -3.453183546662330627e-02 5.357533320784568787e-02 8.610140532255172729e-02 8.009149692952632904e-03 -3.761099278926849365e-02 -8.285527117550373077e-03 3.324200958013534546e-02 5.691380798816680908e-02 5.177338793873786926e-02 1.534339040517807007e-02
1.067283656448125839e-02 -3.358160378411412239e-03 -1.788702793419361115e-02 1.151857286458835006e-04 2.503762952983379364e-02 -1.941186748445034027e-02 3.068320825695991516e-02 1.020213365554809570e-01 6.643835455179214478e-03 -2.500065043568611145e-02 -5.531710386276245117e-02 7.818593084812164307e-02 1.062278915196657181e-02 -1.225451566278934479e-02 -3.397381305694580078e-02 -8.125143498182296753e-02 5.385194439440965652e-03 -7.067686319351196289e-02 -3.006235696375370026e-03 2.970306575298309326e-02 -3.625120222568511963e-02 -7.505765557289123535e-02 -4.360402468591928482e-03 -7.373186945915222168e-02 -3.762785345315933228e-02
8.178392797708511353e-02 5.519543960690498352e-02 -9.656396694481372833e-03 4.808519408106803894e-02 -3.091724775731563568e-02 7.724200934171676636e-02 8.233124762773513794e-02 6.988579779863357544e-02 9.985561668872833252e-02 1.482733059674501419e-03 -7.231832295656204224e-02 2.382185123860836029e-02 7.702332735061645508e-02 6.200562790036201477e-02 -1.442605257034301758e-02 -1.128004677593708038e-02 -2.928183041512966156e-02 -7.289768010377883911e-02 -2.069012448191642761e-02 5.772225186228752136e-02 -6.600786745548248291e-02 1.849825680255889893e-02 1.064179930835962296e-02 -3.161764144897460938e-02 -4.119176417589187622e-02
-3.131879121065139771e-02 -5.551218241453170776e-02 1.190544944256544113e-02 -3.808239474892616272e-02 -5.342145916074514389e-03 -1.833385974168777466e-02 -4.843840003013610840e-02 -4.990277439355850220e-02 6.069514900445938110e-02 4.234433546662330627e-02 4.662780091166496277e-02 2.022951282560825348e-02 3.750601038336753845e-02 3.861995786428451538e-02 5.980013683438301086e-02 7.735545281320810318e-03 -2.296792343258857727e-03 4.211078956723213196e-02 2.593022771179676056e-02 -3.575307875871658325e-02 5.228283628821372986e-02 6.755911558866500854e-02 -1.377506460994482040e-02 -5.804708227515220642e-02 -1.130380481481552124e-02
-5.181867629289627075e-02 8.510743081569671631e-02 2.145959809422492981e-02 1.616456732153892517e-02 6.223548948764801025e-02 3.042838349938392639e-02 5.533613637089729309e-02 6.877181679010391235e-02 -2.616182900965213776e-02 8.097904175519943237e-02 -4.078811407089233398e-02 3.605236997827887535e-03 8.030622266232967377e-04 1.265161782503128052e-01 3.404625877737998962e-02 -7.529477588832378387e-03 -4.820509254932403564e-02 5.293907225131988525e-02 -5.728496611118316650e-02 4.854337498545646667e-02 4.565826058387756348e-02 6.662844121456146240e-02 4.350427538156509399e-02 -8.499464020133018494e-03 1.576905325055122375e-02
3.928615525364875793e-02 -3.457968682050704956e-02 4.988067597150802612e-02 -1.165740471333265305e-02 5.862150713801383972e-02 4.788459464907646179e-02 -1.492333412170410156e-02 2.143582515418529510e-02 8.823444694280624390e-02 4.477174580097198486e-02 5.245253071188926697e-02 -1.886073686182498932e-02 2.153826132416725159e-02 -2.755419164896011353e-02 1.984185911715030670e-02 -8.145603537559509277e-02 1.151075121015310287e-02 7.226916402578353882e-02 3.811551490798592567e-03 2.001096308231353760e-02 -5.353876948356628418e-02 3.747782111167907715e-02 -2.557874843478202820e-02 1.306686550378799438e-02 -7.060088217258453369e-02
3.381761163473129272e-02 3.766228631138801575e-02 -2.770397067070007324e-02 -5.945074558258056641e-02 -6.747126579284667969e-02 1.049297153949737549e-01 3.579391166567802429e-02 -6.314351223409175873e-03 6.417613476514816284e-02 -1.573888584971427917e-02 -3.348654508590698242e-02 2.321783639490604401e-02 5.266452208161354065e-02 -3.989449888467788696e-02 -2.110823616385459900e-02 3.615399822592735291e-02 8.692987263202667236e-02 7.982526719570159912e-02 8.055020868778228760e-02 -6.753661204129457474e-03 -2.117879129946231842e-02 5.899778753519058228e-02 6.215218454599380493e-02 7.391824573278427124e-02 5.897822603583335876e-02
3.450579941272735596e-02 -4.937935620546340942e-02 -8.883214741945266724e-02 -7.005067914724349976e-02 -4.461066052317619324e-02 -4.144833423197269440e-03 -3.902045264840126038e-02 -7.070448249578475952e-02 -6.737834215164184570e-02 -1.115263402462005615e-01 5.148342251777648926e-02 -5.440976470708847046e-02 -3.585404157638549805e-02 -1.295189112424850464e-01 2.229599095880985260e-02 -6.790086627006530762e-02 -6.339011341333389282e-02 -2.285513794049620628e-03 3.131365031003952026e-02 5.702464282512664795e-02 -2.138770557940006256e-02 -1.311587691307067871e-01 -9.744901210069656372e-02 4.806329309940338135e-02 -4.087672010064125061e-02
9.818073362112045288e-02 4.403432086110115051e-02 -4.078822582960128784e-02 -1.037226691842079163e-01 5.883988738059997559e-02 5.264929309487342834e-02 8.865255117416381836e-02 -5.808331817388534546e-02 -5.245150253176689148e-02 1.504801660776138306e-01 7.069736719131469727e-02 -8.965140208601951599e-03 -9.741933643817901611e-02 9.375786036252975464e-02 1.328401416540145874e-01 3.650354966521263123e-02 -4.787256941199302673e-02 -4.621759429574012756e-02 1.815282255411148071e-01 3.925785049796104431e-02 -6.939619313925504684e-03 5.205249786376953125e-02 1.028414592146873474e-01 8.190150558948516846e-02 8.601386100053787231e-03
3.460741415619850159e-02 -3.344806283712387085e-02 -6.628861278295516968e-02 -6.262730062007904053e-02 1.346752941608428955e-01 3.171482682228088379e-02 -2.410351298749446869e-02 -4.683530703186988831e-02 1.379610747098922729e-01 1.037896946072578430e-01 1.580097712576389313e-02 -9.317046403884887695e-02 -5.310885235667228699e-02 9.565638750791549683e-02 4.805244132876396179e-02 -1.371572818607091904e-02 2.205541729927062988e-02 6.072395294904708862e-02 1.016371510922908783e-02 1.624684967100620270e-02 5.471191182732582092e-02 -2.843316830694675446e-02 2.753568068146705627e-02 6.912208162248134613e-03 4.270358383655548096e-02
-5.463474616408348083e-02 4.276199266314506531e-02 -2.831940352916717529e-02 -3.985495306551456451e-03 5.017513409256935120e-03 -4.481777921319007874e-02 -6.199249625205993652e-02 -1.075238212943077087e-01 -1.614908874034881592e-02 -1.427447982132434845e-02 -4.406370595097541809e-02 -1.895076967775821686e-02 -1.064939722418785095e-01 -1.880051754415035248e-02 -1.074357777833938599e-01 8.045266382396221161e-03 3.910145536065101624e-02 -6.446920335292816162e-02 -8.094775676727294922e-02 -2.426170930266380310e-02 -5.979213491082191467e-02 -6.343171745538711548e-02 3.839572146534919739e-02 -2.969910018146038055e-02 4.738930985331535339e-02
4.471663385629653931e-03 -1.084861252456903458e-02 -1.512219160795211792e-01 -1.244666427373886108e-01 8.405023068189620972e-02 9.906334429979324341e-02 1.355799473822116852e-02 -1.439217180013656616e-01 -1.849628612399101257e-02 2.041454166173934937e-01 6.682655960321426392e-02 1.906452141702175140e-02 -1.313452720642089844e-01 7.730869203805923462e-02 4.468064010143280029e-02 -8.941773325204849243e-03 -8.917845040559768677e-02 -3.082365915179252625e-02 1.492617875337600708e-01 2.676377259194850922e-02 3.694449085742235184e-03 -5.111574009060859680e-02 -1.599238440394401550e-02 -1.356002222746610641e-02 -1.134719513356685638e-02
1.788680674508213997e-03 -4.080646485090255737e-02 -9.657502919435501099e-02 2.421668544411659241e-02 7.737157493829727173e-02 4.892199113965034485e-02 -1.340405195951461792e-01 -1.311615258455276489e-01 3.605969250202178955e-02 1.455643028020858765e-01 5.123637244105339050e-02 -1.187890917062759399e-01 -3.988272324204444885e-02 1.859600394964218140e-01 4.918168857693672180e-02 -4.510016366839408875e-02 -7.503274083137512207e-02 7.108947634696960449e-02 1.418769955635070801e-01 4.271929338574409485e-02 -2.362895756959915161e-02 -4.679557681083679199e-02 1.064010895788669586e-02 6.673505157232284546e-02 -8.732213824987411499e-02
2.846128679811954498e-02 -6.521096825599670410e-02 -1.165725197643041611e-02 7.005413621664047241e-02 -1.262352336198091507e-02 -1.237120945006608963e-02 2.129508880898356438e-03 4.031747207045555115e-02 5.925712361931800842e-02 -4.787601903080940247e-02 6.100530922412872314e-02 -9.143093600869178772e-03 1.092617586255073547e-02 -3.010636568069458008e-02 1.371208112686872482e-02 -6.010530143976211548e-02 -6.394391506910324097e-02 -5.511602759361267090e-02 5.112986266613006592e-02 1.771537214517593384e-02 -3.281971067190170288e-02 -7.101594004780054092e-03 5.519615486264228821e-02 -5.896307900547981262e-02 4.629148542881011963e-02
3.572495281696319580e-02 -4.767974093556404114e-02 -8.149704337120056152e-02 3.611655533313751221e-02 3.871726617217063904e-02 -3.111093677580356598e-02 -5.762012302875518799e-02 -3.466881439089775085e-02 -1.520190387964248657e-02 2.052437700331211090e-02 3.642480820417404175e-02 -1.293476577848196030e-02 3.780301660299301147e-02 -3.807121515274047852e-02 4.517424479126930237e-02 -3.119920566678047180e-02 -3.571958467364311218e-02 6.649401038885116577e-04 -4.894502926617860794e-03 2.852789312601089478e-02 -2.038334310054779053e-02 -4.521969705820083618e-02 -3.335813060402870178e-02 -4.656976088881492615e-02 3.092045895755290985e-03
-1.765320263803005219e-02 -1.298912614583969116e-01 -2.792623080313205719e-02 -7.344046235084533691e-02 -7.972440123558044434e-02 -7.502789050340652466e-02 -1.402259021997451782e-01 -1.245145276188850403e-01 -6.883741170167922974e-02 4.729047790169715881e-02 -1.738738152198493481e-03 -8.944145590066909790e-02 -3.636525198817253113e-02 -4.244296997785568237e-02 5.053853616118431091e-02 -1.109174825251102448e-02 -7.878257334232330322e-02 -2.017592266201972961e-02 -7.382779568433761597e-02 6.117516662925481796e-03 -4.406304284930229187e-02 -6.195276230573654175e-02 -9.529543109238147736e-03 -5.692904442548751831e-02 4.797352012246847153e-03
-2.787551842629909515e-02 -1.408222690224647522e-02 -8.035787194967269897e-02 -4.187264293432235718e-02 -6.558279856108129025e-04 -4.299525171518325806e-02 -8.829193562269210815e-02 -1.133255735039710999e-01 -9.392856061458587646e-02 -7.865029573440551758e-02 -3.546729683876037598e-02 -9.395679831504821777e-02 -1.040554121136665344e-01 -6.889647804200649261e-03 -1.124519929289817810e-01 -3.530971705913543701e-03 -7.761487364768981934e-02 4.040334001183509827e-02 6.167558208107948303e-02 -7.663534581661224365e-02 -7.372931391000747681e-02 8.134208619594573975e-04 5.457052029669284821e-03 2.367671951651573181e-02 -5.799581762403249741e-03
3.319386765360832214e-02 1.384906470775604248e-02 6.208929792046546936e-02 5.216384306550025940e-02 -1.887064776383340359e-03 6.589894741773605347e-02 -7.203598506748676300e-03 5.681925639510154724e-02 6.645945366472005844e-03 9.174661338329315186e-02 -5.749450996518135071e-02 -4.554131999611854553e-02 -3.015249967575073242e-02 -2.298372425138950348e-02 -1.566966623067855835e-02 9.442257694900035858e-03 1.614743098616600037e-02 -7.591751962900161743e-02 -5.975736305117607117e-02 -3.454708680510520935e-02 2.235457859933376312e-02 -1.760420203208923340e-02 5.655672284774482250e-04 1.759129459969699383e-03 -4.025512933731079102e-02
1.922048814594745636e-02 -3.337639197707176208e-02 -3.688416257500648499e-02 -1.084152236580848694e-02 9.298833087086677551e-03 -2.325764484703540802e-02 3.719269856810569763e-02 8.174217492341995239e-02 3.870361833833158016e-04 1.754259690642356873e-02 -1.241104304790496826e-02 2.045474760234355927e-02 -1.084844209253787994e-02 -4.375661537051200867e-02 -1.040961071848869324e-01 -1.501869410276412964e-02 8.659033477306365967e-02 2.682615071535110474e-03 -3.481648489832878113e-02 -5.148010700941085815e-02 6.150796543806791306e-03 4.581251181662082672e-03 1.953505352139472961e-02 7.858199067413806915e-03 1.081179641187191010e-02
-4.090086370706558228e-02 -5.637597758322954178e-03 -6.550230085849761963e-03 1.320619322359561920e-02 7.021952420473098755e-02 3.883176296949386597e-02 1.328044235706329346e-01 1.791518032550811768e-01 1.365193575620651245e-01 -6.750630587339401245e-02 4.049640521407127380e-02 9.444533288478851318e-02 -6.835389416664838791e-03 -2.945623733103275299e-02 -3.042603284120559692e-02 -1.334781199693679810e-02 4.088756162673234940e-03 -7.413303852081298828e-02 -7.354573905467987061e-02 -4.811415448784828186e-03 -1.786893000826239586e-03 -7.273511588573455811e-02 -7.654541637748479843e-03 -5.802082642912864685e-02 -4.885825142264366150e-02
6.313616409897804260e-03 -2.043765038251876831e-02 2.449091337621212006e-02 1.762234605848789215e-02 -9.618313051760196686e-03 1.354040391743183136e-02 6.828609108924865723e-02 -4.279849678277969360e-02 -1.659044995903968811e-02 3.383633866906166077e-02 -2.113349176943302155e-02 7.712113112211227417e-02 7.822752743959426880e-02 4.512426257133483887e-02 -2.954929694533348083e-02 -5.288521572947502136e-02 1.490863412618637085e-02 -2.299736253917217255e-02 8.896158076822757721e-03 5.551520269364118576e-03 4.142983350902795792e-03 4.006236791610717773e-02 -7.706210762262344360e-02 -5.316261947154998779e-02 3.690943866968154907e-02
-3.967250883579254150e-02 -1.231347844004631042e-01 -8.477982878684997559e-02 7.329720258712768555e-02 4.436169192194938660e-02 5.304954200983047485e-02 9.312316030263900757e-02 1.318079829216003418e-01 1.695209741592407227e-01 7.218568027019500732e-02 -1.693825051188468933e-02 1.656984351575374603e-02 8.845427632331848145e-02 -2.634005434811115265e-02 -9.457413107156753540e-02 1.175303943455219269e-02 -6.599145382642745972e-02 -1.323783695697784424e-01 -9.619034081697463989e-02 -4.530518874526023865e-02 -2.266564033925533295e-02 3.782493993639945984e-02 -1.262731254100799561e-01 -3.319941833615303040e-02 9.907787665724754333e-03
-6.036608293652534485e-02 -5.338647589087486267e-02 -4.257604479789733887e-02 -1.819642959162592888e-03 9.033364802598953247e-02 1.236220821738243103e-02 -9.480018168687820435e-03 4.631790518760681152e-02 9.838098287582397461e-02 3.695843368768692017e-02 -2.274728380143642426e-03 3.247265890240669250e-02 -3.578659892082214355e-02 -2.310437150299549103e-02 -5.077423155307769775e-02 1.878088572993874550e-03 -4.658465087413787842e-02 -4.852111265063285828e-02 -2.057076804339885712e-02 -1.567580364644527435e-02 -1.591920666396617889e-02 -3.754841908812522888e-02 -9.284447878599166870e-02 -9.694141335785388947e-03 -6.938926130533218384e-02
7.272435724735260010e-02 7.412572950124740601e-02 3.234458714723587036e-02 6.995175778865814209e-02 1.533178146928548813e-02 5.277761816978454590e-02 6.990244146436452866e-03 1.965330168604850769e-02 -9.176579304039478302e-03 -5.106650665402412415e-02 -7.137452065944671631e-02 -3.610216081142425537e-02 4.236098006367683411e-02 3.515911847352981567e-02 -1.348960399627685547e-02 -5.190532281994819641e-02 5.404416844248771667e-02 9.040736593306064606e-03 -6.149648129940032959e-02 -3.988896682858467102e-02 -3.567277221009135246e-03 -1.032716874033212662e-02 -3.182032331824302673e-02 3.205599496141076088e-03 -5.607978999614715576e-02
3.619974479079246521e-02 3.964687231928110123e-03 9.965968132019042969e-02 4.364278912544250488e-02 4.021660611033439636e-02 -7.442483305931091309e-02 -1.007290743291378021e-02 -2.793975174427032471e-02 -6.437358260154724121e-02 4.976489394903182983e-02 -2.597487904131412506e-02 3.037787275388836861e-03 5.880561098456382751e-02 3.190346527844667435e-03 3.929303959012031555e-02 -2.496814914047718048e-02 4.424516111612319946e-02 5.499122664332389832e-02 -1.363375689834356308e-02 -7.800034433603286743e-02 1.430187001824378967e-02 -5.976415798068046570e-02 4.582824185490608215e-02 9.294589050114154816e-03 -3.087940439581871033e-02
-2.580344304442405701e-02 3.633463755249977112e-02 8.048771321773529053e-02 4.740691184997558594e-02 4.983015358448028564e-03 4.766605794429779053e-02 1.335093379020690918e-01 1.669971644878387451e-01 2.617059275507926941e-02 6.368075311183929443e-02 -4.639573022723197937e-02 2.741012908518314362e-02 -6.004045531153678894e-02 -8.965311944484710693e-02 -4.411118477582931519e-02 1.428650226444005966e-02 -7.582329213619232178e-02 -6.023284792900085449e-02 3.837138880044221878e-03 -1.017941441386938095e-02 -1.903759315609931946e-02 1.233281847089529037e-02 -8.717878162860870361e-02 -5.116488784551620483e-02 1.191161666065454483e-02
-1.566120609641075134e-02 -6.496915966272354126e-02 -1.103964969515800476e-01 -5.112440139055252075e-02 -2.737452276051044464e-02 -1.990789920091629028e-02 4.244977608323097229e-02 6.630499660968780518e-02 3.905644640326499939e-02 5.164963006973266602e-02 -6.039707362651824951e-02 8.023137599229812622e-02 1.560685336589813232e-01 6.086651608347892761e-02 -5.886380746960639954e-02 -1.384082133881747723e-03 5.543931946158409119e-02 -6.596853490918874741e-03 -1.583724282681941986e-02 -7.242785394191741943e-02 6.970284134149551392e-02 -7.101719081401824951e-02 -2.608526265248656273e-03 -6.538468599319458008e-02 -2.489560842514038086e-02
-8.666072972118854523e-03 -1.236258633434772491e-02 -1.053618639707565308e-02 -5.043804273009300232e-02 -2.932225912809371948e-02 2.987448684871196747e-02 9.441696107387542725e-03 2.158710034564137459e-03 -1.636171899735927582e-02 1.683814451098442078e-02 4.066508263349533081e-03 -2.727649360895156860e-02 2.949149347841739655e-03 1.378260273486375809e-02 4.978752136230468750e-02 -6.508538126945495605e-02 -5.627049878239631653e-02 -3.520727530121803284e-02 4.795002564787864685e-02 -1.228232029825448990e-02 -3.476618602871894836e-02 -3.270865231752395630e-02 -1.646458357572555542e-02 -6.357955187559127808e-02 2.609295770525932312e-02
4.329436272382736206e-02 3.398763760924339294e-02 -5.297171324491500854e-02 -3.894140571355819702e-02 1.404269877821207047e-02 1.965234428644180298e-02 1.859894208610057831e-02 2.453806065022945404e-02 -1.538695674389600754e-02 2.794020809233188629e-02 5.411291867494583130e-02 1.236591860651969910e-02 -1.712132431566715240e-02 4.191581532359123230e-02 6.018045544624328613e-02 -5.200488120317459106e-02 1.108760107308626175e-02 -4.588954150676727295e-02 -4.365207132650539279e-05 -1.598120853304862976e-02 -1.378744561225175858e-02 -1.539810677058994770e-03 -4.869831353425979614e-02 -5.000439286231994629e-02 3.907373547554016113e-02
-3.161570057272911072e-02 3.568239137530326843e-02 -4.151833429932594299e-02 3.941632062196731567e-02 9.841104038059711456e-04 -4.697912558913230896e-02 -1.969797536730766296e-02 -2.579208649694919586e-02 1.844874769449234009e-02 2.895097434520721436e-02 -6.958781927824020386e-02 4.805985954590141773e-04 2.739605307579040527e-02 -3.506265580654144287e-02 1.076851971447467804e-02 2.352252602577209473e-02 -6.570787727832794189e-02 3.092177398502826691e-02 -5.762944743037223816e-02 1.182569656521081924e-03 1.946231909096240997e-02 -1.802260242402553558e-02 -3.989196568727493286e-02 -1.988917030394077301e-02 1.488039549440145493e-02
-1.999181695282459259e-02 -9.058940224349498749e-03 4.421046003699302673e-02 -1.872784271836280823e-02 2.833257801830768585e-02 -5.686385557055473328e-02 -3.187470138072967529e-02 4.048007354140281677e-02 2.030163072049617767e-02 1.161571685224771500e-02 -3.361130878329277039e-02 -5.269709601998329163e-02 2.616851590573787689e-02 -3.792893141508102417e-02 -4.335134755820035934e-03 -4.735609143972396851e-02 -3.326308354735374451e-02 3.699872177094221115e-03 1.268953550606966019e-03 -7.104256190359592438e-03 -2.107215486466884613e-02 9.830303490161895752e-03 8.342067711055278778e-03 6.791771203279495239e-02 2.701763249933719635e-02
-5.521950870752334595e-02 -5.783058702945709229e-03 4.712875932455062866e-02 -5.507137626409530640e-02 -9.931305423378944397e-03 -5.668338388204574585e-03 -7.101970911026000977e-02 6.533355265855789185e-02 -1.171435974538326263e-02 -6.753630191087722778e-02 -5.986100435256958008e-02 -7.007747888565063477e-02 -6.812249124050140381e-02 6.244331598281860352e-02 5.204688757658004761e-02 -6.128657609224319458e-02 -6.394918262958526611e-02 -8.757757022976875305e-03 -1.274843816645443439e-03 1.162559613585472107e-01 -3.275682032108306885e-02 -3.050495870411396027e-02 -5.327187106013298035e-02 1.382087636739015579e-02 1.125690117478370667e-01
-1.591495797038078308e-02 -6.345741450786590576e-02 1.679434441030025482e-02 -5.265676602721214294e-02 2.176506631076335907e-02 4.822443798184394836e-02 1.298243831843137741e-02 4.998640343546867371e-02 -4.865534231066703796e-02 -4.383154958486557007e-02 -7.620822638273239136e-02 2.912509813904762268e-02 -2.773121697828173637e-03 4.042650759220123291e-02 -2.476671151816844940e-02 -4.708521533757448196e-03 4.358921945095062256e-02 -3.603041172027587891e-03 5.880921334028244019e-02 -2.412067167460918427e-02 8.648311719298362732e-03 -1.720778271555900574e-02 -4.353838786482810974e-02 -8.943771943449974060e-03 1.171306520700454712e-02
-6.510892510414123535e-02 4.504438489675521851e-02 -3.476787731051445007e-02 -1.724880072288215160e-03 2.017372753471136093e-03 -6.603930145502090454e-02 -3.533878549933433533e-02 9.173789061605930328e-03 -2.088751643896102905e-02 3.550127893686294556e-02 1.353273820132017136e-02 1.466440036892890930e-02 3.266759216785430908e-02 1.864025741815567017e-02 -5.316077545285224915e-02 2.757634222507476807e-02 -1.430719345808029175e-02 1.364104636013507843e-02 2.608142793178558350e-02 1.910875178873538971e-02 4.970788955688476562e-02 6.583333760499954224e-02 -4.549304023385047913e-02 -3.362865000963211060e-02 2.114520594477653503e-02
-1.116706896573305130e-02 4.878263920545578003e-03 -5.509173125028610229e-02 -1.688801124691963196e-02 6.464472040534019470e-03 4.368313774466514587e-02 -5.562513321638107300e-02 7.434407714754343033e-03 7.960458286106586456e-03 -2.903321199119091034e-02 1.764230430126190186e-02 4.123430699110031128e-02 3.175901994109153748e-02 -1.960478536784648895e-02 1.154481526464223862e-02 -5.990271456539630890e-03 3.354902192950248718e-02 -3.457964956760406494e-02 4.352616611868143082e-03 2.698779292404651642e-02 3.677633404731750488e-02 -1.712959818542003632e-02 4.198231175541877747e-02 -6.292726099491119385e-02 -3.450070694088935852e-02
4.479473084211349487e-02 -3.752542287111282349e-02 -2.133975550532341003e-02 5.506451800465583801e-02 2.801588736474514008e-02 -1.889850944280624390e-02 1.153623219579458237e-02 -5.875082686543464661e-02 -6.606938689947128296e-02 4.536614567041397095e-02 -2.340664342045783997e-02 2.028970420360565186e-02 -6.569304503500461578e-03 3.249095752835273743e-02 -5.856451019644737244e-02 -4.550652951002120972e-02 -8.119067549705505371e-02 -5.769713968038558960e-02 7.631814479827880859e-02 2.274526655673980713e-02 -3.444964438676834106e-02 -2.216846682131290436e-02 1.581038231961429119e-03 4.184254910796880722e-03 -3.739633411169052124e-02
4.915517941117286682e-02 4.459022078663110733e-03 -4.825889319181442261e-02 1.940382830798625946e-02 1.927002519369125366e-02 -2.239741943776607513e-02 -5.796647816896438599e-02 -7.119311392307281494e-02 7.716936524957418442e-04 -3.579797223210334778e-02 2.418025210499763489e-02 -6.643908470869064331e-02 -6.668895017355680466e-03 -6.263494491577148438e-02 -6.045584753155708313e-02 -6.985816359519958496e-02 -5.473379045724868774e-02 -3.735991660505533218e-03 2.448657178319990635e-04 -3.484256565570831299e-02 2.299593575298786163e-02 -5.696877837181091309e-02 -1.568805612623691559e-02 4.703001677989959717e-02 7.926622033119201660e-02
2.675095386803150177e-02 -8.903405815362930298e-02 -8.532521873712539673e-02 -2.301672846078872681e-02 -3.568592295050621033e-02 1.531084775924682617e-01 1.565758436918258667e-01 6.920831650495529175e-02 1.473711878061294556e-01 8.944196999073028564e-02 5.533951148390769958e-02 5.687461048364639282e-02 1.391645818948745728e-01 4.719789326190948486e-02 7.492904365062713623e-02 5.291597917675971985e-02 -1.945678959600627422e-03 -4.825580120086669922e-02 -2.280469797551631927e-02 2.703857235610485077e-02 -2.103191800415515900e-02 -2.549284137785434723e-02 1.020633615553379059e-02 -4.695799574255943298e-02 -4.324821010231971741e-02
-3.426887840032577515e-02 1.718945987522602081e-02 -7.025111466646194458e-02 -8.829279243946075439e-02 -1.682731695473194122e-02 -1.014135032892227173e-02 -3.154537826776504517e-02 3.875375539064407349e-02 -5.666431039571762085e-02 -1.988826878368854523e-02 2.817341359332203865e-03 -4.411063343286514282e-02 -7.518048584461212158e-02 -1.732483319938182831e-02 -2.748771570622920990e-02 -4.252256453037261963e-02 1.878197304904460907e-02 -3.991070017218589783e-02 -6.318006664514541626e-02 -6.466726213693618774e-02 -7.063753157854080200e-02 -2.756097353994846344e-02 3.726111724972724915e-02 -5.340380221605300903e-02 6.093321740627288818e-02
5.645712837576866150e-02 -7.043280452489852905e-02 -3.912626206874847412e-02 -9.189143031835556030e-02 -8.138033561408519745e-03 4.590591788291931152e-02 1.577482186257839203e-02 4.431772511452436447e-03 -1.019682385958731174e-03 -2.175479568541049957e-02 1.161552127450704575e-02 -3.399971127510070801e-02 -2.877143584191799164e-02 -1.458903215825557709e-02 -3.221015632152557373e-02 -1.756408484652638435e-03 2.868903614580631256e-02 -9.546057879924774170e-02 -5.464500188827514648e-02 -3.507025912404060364e-02 -7.274176925420761108e-02 8.814362809062004089e-03 5.209914967417716980e-02 5.530696362257003784e-02 3.029181249439716339e-02
-4.023322463035583496e-02 -8.416022360324859619e-02 -5.709218233823776245e-02 -8.653663098812103271e-02 -6.038001552224159241e-02 -2.140617184340953827e-02 4.411349073052406311e-02 -3.485935926437377930e-02 -3.276859968900680542e-02 -6.894974410533905029e-02 5.831629037857055664e-02 1.176046952605247498e-01 1.085515767335891724e-01 1.164743453264236450e-01 6.699721515178680420e-02 -1.723211258649826050e-02 6.773898005485534668e-02 -1.218437030911445618e-02 2.271324768662452698e-02 2.608309872448444366e-02 6.899880710989236832e-03 -4.544698819518089294e-02 -1.204108074307441711e-02 8.303352631628513336e-03 -1.784283481538295746e-02
-5.469772592186927795e-02 -1.276666671037673950e-01 -1.669525951147079468e-01 -2.071506828069686890e-01 -1.629210710525512695e-01 -2.244053594768047333e-02 3.540179133415222168e-02 7.186859846115112305e-02 -4.116966575384140015e-02 7.299232482910156250e-02 2.480533719062805176e-02 4.590524733066558838e-02 1.199494004249572754e-01 1.341089159250259399e-01 4.413216933608055115e-02 -9.503917396068572998e-02 -8.785098046064376831e-02 -1.531433910131454468e-01 -5.487736314535140991e-02 1.082421094179153442e-02 4.066378250718116760e-02 -2.233824197901412845e-04 -2.700425498187541962e-02 2.806035056710243225e-02 -3.055734746158123016e-02
1.065924763679504395e-01 2.437867596745491028e-02 -3.024037228897213936e-03 6.322074681520462036e-03 -2.482126001268625259e-03 2.762499637901782990e-02 -1.240162737667560577e-02 9.801442176103591919e-02 1.242340262979269028e-02 1.785858906805515289e-02 -6.096430122852325439e-02 -5.847547203302383423e-02 4.453807696700096130e-02 1.365096494555473328e-02 -1.225641276687383652e-02 -6.724762171506881714e-02 -1.054872721433639526e-01 -6.953558884561061859e-03 -6.500533223152160645e-02 2.780024660751223564e-03 -2.981744892895221710e-02 3.845173865556716919e-02 -1.073914114385843277e-03 6.577605381608009338e-04 4.411886259913444519e-02
1.101232245564460754e-01 2.299642562866210938e-02 2.709237113595008850e-02 3.867666795849800110e-02 4.065522179007530212e-02 3.694854676723480225e-02 -2.966744080185890198e-02 4.280100762844085693e-02 7.030072808265686035e-02 2.398416958749294281e-02 -3.446328267455101013e-02 4.165415838360786438e-02 -3.733436018228530884e-02 3.592611057683825493e-03 -5.501964315772056580e-02 3.547918796539306641e-02 -5.350153893232345581e-02 3.164797276258468628e-02 -3.952889516949653625e-02 -6.401255726814270020e-02 -1.854751631617546082e-02 4.956094920635223389e-02 2.022796310484409332e-02 -5.593767762184143066e-02 1.843380928039550781e-02
1.282766088843345642e-02 1.770985126495361328e-02 -1.490459777414798737e-02 1.111955475062131882e-02 7.351870089769363403e-02 -4.589542001485824585e-02 3.857862576842308044e-02 -1.571675576269626617e-02 -7.073950022459030151e-02 -6.949175149202346802e-02 7.433139719069004059e-03 3.631475567817687988e-02 3.274554014205932617e-02 3.059695474803447723e-02 -7.773240096867084503e-03 4.139950906392186880e-04 4.498774185776710510e-02 4.400337859988212585e-02 9.387105703353881836e-02 5.870210379362106323e-02 6.494560837745666504e-02 5.860267207026481628e-02 -5.872965604066848755e-02 -3.132829815149307251e-02 3.061979264020919800e-02
1.537045463919639587e-03 -5.700283497571945190e-02 -6.698879599571228027e-02 -7.178042083978652954e-02 -2.169310487806797028e-02 1.004778370261192322e-01 1.476301699876785278e-01 1.699968874454498291e-01 1.919266879558563232e-01 8.482966572046279907e-02 3.470759093761444092e-02 9.845457226037979126e-02 9.686194360256195068e-02 1.219146624207496643e-01 5.175864696502685547e-02 -1.112461090087890625e-01 -1.049624532461166382e-01 -2.744524739682674408e-02 -6.287022680044174194e-02 -4.949617758393287659e-02 -1.398964878171682358e-02 -4.757718369364738464e-02 2.104554325342178345e-02 1.441499125212430954e-02 -5.819583684206008911e-02
-8.235418796539306641e-02 -1.008744239807128906e-01 3.093939041718840599e-03 1.473571610404178500e-04 -7.277991622686386108e-02 -3.335730731487274170e-02 -4.022023454308509827e-02 -7.032062113285064697e-02 -7.481228560209274292e-02 -7.042842358350753784e-02 1.628202050924301147e-01 1.173265054821968079e-01 2.024883180856704712e-01 1.734415739774703979e-01 6.536602973937988281e-02 -4.268992692232131958e-02 5.436102300882339478e-02 1.571924611926078796e-02 -2.068344876170158386e-02 1.483911648392677307e-02 -4.520767182111740112e-02 -2.090878970921039581e-02 -4.313064739108085632e-02 -8.894318342208862305e-02 -5.376373603940010071e-02
2.207488380372524261e-02 1.140087377279996872e-02 7.520737592130899429e-03 -6.273492239415645599e-03 -8.312555029988288879e-03 -2.040068618953227997e-02 1.383974775671958923e-02 -5.111288651823997498e-02 -2.921949885785579681e-02 7.899939268827438354e-02 5.327452719211578369e-02 3.760638087987899780e-02 5.736181139945983887e-02 -4.261512681841850281e-02 -9.587212465703487396e-03 -3.206843137741088867e-02 -6.379781756550073624e-03 5.888396501541137695e-02 5.872312188148498535e-02 -6.676860898733139038e-02 7.272325456142425537e-02 -9.881473146378993988e-03 4.799822345376014709e-02 7.145203649997711182e-03 -5.149345844984054565e-02
3.836496919393539429e-02 -6.340100616216659546e-02 -4.270983487367630005e-02 2.425111271440982819e-02 7.309824228286743164e-02 -3.203367814421653748e-02 -7.485696673393249512e-02 8.635191246867179871e-03 1.006226316094398499e-01 4.722832888364791870e-02 -2.409026212990283966e-02 -4.672903195023536682e-02 1.103489398956298828e-01 -2.620047889649868011e-02 -9.669208526611328125e-02 -5.288078449666500092e-03 -2.166649699211120605e-02 4.345543310046195984e-02 -1.080770045518875122e-01 -4.723862931132316589e-02 -2.350860461592674255e-02 -5.852621514350175858e-03 -5.476363375782966614e-02 -3.401294234208762646e-04 -1.465922035276889801e-02
-8.296957239508628845e-03 -3.957162424921989441e-02 3.982776030898094177e-02 5.535705760121345520e-02 -1.148965209722518921e-02 -7.195664942264556885e-02 2.207283303141593933e-02 1.002301648259162903e-01 6.001114472746849060e-02 7.916110567748546600e-03 8.369727991521358490e-03 1.878115981817245483e-01 1.284872144460678101e-01 -9.444472193717956543e-02 -1.506284112110733986e-03 1.222517155110836029e-02 1.566535606980323792e-02 -1.025803014636039734e-01 -9.426874667406082153e-02 1.660403423011302948e-02 6.587801501154899597e-03 -1.189633980393409729e-01 -7.188113778829574585e-02 3.943509364034980536e-04 -8.730978518724441528e-02
1.158429123461246490e-02 -7.371389120817184448e-02 -2.104914188385009766e-02 6.244022026658058167e-02 -3.901741653680801392e-02 -4.256331920623779297e-02 -5.854918062686920166e-02 6.847744435071945190e-02 1.625707559287548065e-02 -4.745038598775863647e-02 2.599685918539762497e-03 6.336183845996856689e-02 -7.575727999210357666e-02 -9.556951932609081268e-03 -3.721492737531661987e-02 -3.023492358624935150e-02 -9.039840660989284515e-03 2.502622455358505249e-02 -7.555560022592544556e-02 -2.516891993582248688e-02 -5.330149829387664795e-02 -9.840806946158409119e-03 -1.749133691191673279e-02 4.122329875826835632e-02 7.137150503695011139e-03
1.970459707081317902e-02 -4.360495880246162415e-02 -4.661927372217178345e-02 2.394128218293190002e-02 -1.948649622499942780e-02 -5.179160833358764648e-02 -7.607502490282058716e-02 1.137351542711257935e-01 1.425347477197647095e-01 -2.958727255463600159e-02 2.541154623031616211e-02 8.808702975511550903e-02 1.592973023653030396e-01 -5.741779133677482605e-02 -1.596072465181350708e-01 1.447650324553251266e-02 2.499057725071907043e-02 -4.620437324047088623e-02 -1.344351321458816528e-01 -7.984305918216705322e-02 -1.006503403186798096e-02 -1.157748401165008545e-01 -1.262212842702865601e-01 -2.973518706858158112e-02 -5.450165644288063049e-02
-4.208810254931449890e-02 2.520235441625118256e-02 6.478901952505111694e-03 -5.828216671943664551e-02 4.647168889641761780e-02 3.774443641304969788e-02 5.165762081742286682e-02 9.412609785795211792e-02 3.095512837171554565e-02 -2.618775516748428345e-02 3.705291077494621277e-02 1.224490180611610413e-01 7.698398828506469727e-02 -7.777182012796401978e-02 -3.961788117885589600e-02 8.987204730510711670e-02 -8.467982523143291473e-03 -6.971222907304763794e-02 -7.616636902093887329e-02 -6.817833334207534790e-02 -8.269756101071834564e-03 -7.745134830474853516e-02 -2.924975380301475525e-02 3.360337391495704651e-02 -2.646515332162380219e-02
4.364565387368202209e-02 1.728834770619869232e-02 -1.905426965095102787e-03 4.400989040732383728e-02 1.900713890790939331e-02 8.752970956265926361e-03 3.809642978012561798e-03 -3.928861394524574280e-02 -9.962353855371475220e-03 3.731080144643783569e-02 6.285414844751358032e-02 5.086799338459968567e-02 -5.320343747735023499e-02 1.305910176597535610e-03 2.849460206925868988e-02 3.914009407162666321e-02 -3.720282763242721558e-02 -3.799916803836822510e-02 3.687411546707153320e-02 -3.603308275341987610e-02 5.565657094120979309e-02 -3.534406796097755432e-02 4.643537476658821106e-02 -1.765912212431430817e-02 -5.251393094658851624e-02
-6.890346109867095947e-02 7.514810562133789062e-02 4.575323686003684998e-02 -5.850692465901374817e-02 3.281258791685104370e-02 5.157079175114631653e-02 7.961747795343399048e-02 -3.677159175276756287e-02 -1.304269302636384964e-02 3.851060569286346436e-02 6.807391531765460968e-03 1.295575499534606934e-02 -9.561372920870780945e-03 3.719676285982131958e-02 2.074761502444744110e-02 -2.905950695276260376e-02 -3.553492203354835510e-02 3.764627501368522644e-02 -3.071271581575274467e-03 -2.207188867032527924e-02 -4.708939790725708008e-02 3.763029724359512329e-02 -1.684664562344551086e-02 3.960440307855606079e-02 -1.666045864112675190e-03
6.202667020261287689e-03 4.722499847412109375e-02 -1.025841943919658661e-02 -5.786503478884696960e-02 5.037220194935798645e-02 -4.791279509663581848e-02 5.576205998659133911e-02 9.722713381052017212e-02 -1.150295883417129517e-02 -5.346193164587020874e-02 7.315523922443389893e-02 9.079102426767349243e-02 4.873615130782127380e-02 -3.231050819158554077e-02 -1.236971747130155563e-02 9.547659754753112793e-02 2.370086126029491425e-02 -9.727444499731063843e-02 -4.040529951453208923e-02 -8.307763375341892242e-03 3.781844675540924072e-02 -7.631633430719375610e-02 -9.486533701419830322e-02 -3.652613982558250427e-02 -1.445094496011734009e-02
7.200761139392852783e-02 -5.261868983507156372e-02 -1.350360922515392303e-02 -2.458437532186508179e-02 2.796110883355140686e-02 -4.567006975412368774e-02 -6.155870482325553894e-02 9.888921864330768585e-03 -4.259737581014633179e-02 3.906024619936943054e-02 -1.577455922961235046e-02 6.787586212158203125e-02 -5.074451677501201630e-03 1.927522942423820496e-02 4.436753690242767334e-03 4.066327214241027832e-02 1.370880007743835449e-02 -5.757755413651466370e-02 -3.382798284292221069e-02 -3.210544213652610779e-02 2.583276480436325073e-03 5.135459825396537781e-02 3.052618913352489471e-02 -1.397396717220544815e-02 -1.513537392020225525e-02
3.475057706236839294e-02 -5.326008424162864685e-02 -6.889598816633224487e-02 -5.710316821932792664e-03 5.993259325623512268e-02 -2.492140419781208038e-02 2.784819528460502625e-02 1.294986531138420105e-02 4.217818006873130798e-02 -5.728718265891075134e-02 -3.209530189633369446e-02 5.379272997379302979e-02 6.569010019302368164e-02 1.478129327297210693e-01 -4.105795547366142273e-02 -1.567232236266136169e-02 1.558246929198503494e-02 1.581737585365772247e-02 1.325107272714376450e-02 5.590606946498155594e-03 -4.379054531455039978e-02 8.005044609308242798e-02 -1.475979224778711796e-03 -2.698342874646186829e-02 3.457036614418029785e-02
2.226654440164566040e-02 -2.208014763891696930e-02 2.269389852881431580e-02 -9.580612182617187500e-02 -1.031724736094474792e-01 5.311271920800209045e-02 3.210044652223587036e-02 5.524110049009323120e-02 3.050766140222549438e-02 -7.833263278007507324e-02 -5.640637502074241638e-02 -1.779715158045291901e-02 4.067428410053253174e-02 1.325844079256057739e-01 1.227648835629224777e-02 -1.981687173247337341e-02 -3.201589733362197876e-02 1.959415897727012634e-02 4.948491975665092468e-02 1.227902993559837341e-01 -5.435382947325706482e-02 -2.667636610567569733e-02 -8.062864840030670166e-02 -6.115440279245376587e-02 8.440785855054855347e-02
-3.886217251420021057e-02 5.118510872125625610e-02 5.572595447301864624e-02 2.205780148506164551e-02 -3.446849808096885681e-02 3.256382048130035400e-02 -2.312671765685081482e-02 -5.488555133342742920e-02 2.715814113616943359e-02 -1.096393615007400513e-01 5.481943115592002869e-02 -1.066207420080900192e-02 1.216967776417732239e-02 -2.132415957748889923e-02 -1.055431291460990906e-01 5.651763174682855606e-03 -5.077126994729042053e-02 -4.298961535096168518e-02 -4.080339893698692322e-02 -5.938887223601341248e-02 -1.687902025878429413e-02 5.645034462213516235e-02 3.416273370385169983e-02 -2.590342611074447632e-02 3.867999836802482605e-02
1.772769843228161335e-03 -5.909988656640052795e-03 -7.908092811703681946e-03 -2.487023919820785522e-02 -2.089691348373889923e-02 1.618331857025623322e-02 5.389242246747016907e-02 -6.993770599365234375e-02 5.392191186547279358e-02 5.309115722775459290e-02 4.820927977561950684e-02 7.500212639570236206e-02 8.883315324783325195e-02 7.750429213047027588e-03 -3.826347738504409790e-02 -4.549167677760124207e-02 -2.222834713757038116e-02 7.379457354545593262e-02 6.699362397193908691e-02 2.581713488325476646e-03 -1.359589118510484695e-02 6.232320517301559448e-02 -7.228672504425048828e-03 -9.974643588066101074e-03 8.698331564664840698e-02
3.669438511133193970e-02 2.734027244150638580e-02 -6.870226562023162842e-02 -5.439401417970657349e-02 -5.810932442545890808e-02 9.418187546543776989e-04 8.624065667390823364e-03 -2.618037397041916847e-03 -8.572120219469070435e-02 -1.245589405298233032e-01 2.901604585349559784e-02 -8.652065880596637726e-03 -4.877526313066482544e-03 1.019184011965990067e-02 -1.006497349590063095e-02 1.704553700983524323e-02 -5.550701171159744263e-02 1.995840668678283691e-02 9.411961585283279419e-02 1.479553431272506714e-01 -6.496672332286834717e-02 4.947128519415855408e-02 7.940901443362236023e-03 -2.198192290961742401e-03 8.524335175752639771e-02
-3.650874271988868713e-02 3.833845257759094238e-02 -1.114232186228036880e-02 -5.920568481087684631e-02 1.656391844153404236e-02 4.999702330678701401e-03 7.853481173515319824e-02 -1.438833400607109070e-02 -3.620459511876106262e-02 -7.313650846481323242e-02 6.423474848270416260e-02 7.866702228784561157e-02 4.969049245119094849e-02 1.715000905096530914e-02 -1.222941502928733826e-01 4.166563227772712708e-02 -3.145934641361236572e-02 -5.296919262036681175e-04 -3.229608759284019470e-02 -8.333047479391098022e-02 -6.157892942428588867e-02 -5.453501641750335693e-02 -7.944383472204208374e-02 -2.865800075232982635e-02 -3.130899742245674133e-02
