-5.727766081690788269e-02 -1.856089010834693909e-02 -9.456963278353214264e-03 -6.342302262783050537e-02 9.173596650362014771e-02 1.245529204607009888e-01 2.961169555783271790e-02 2.257165871560573578e-02 6.350802630186080933e-02 2.339645475149154663e-02 -2.244724519550800323e-02 -7.891682907938957214e-03 4.081150889396667480e-02 -4.307449236512184143e-02 5.999135598540306091e-02 -1.041123364120721817e-02 -2.506771124899387360e-02 6.364369299262762070e-03 -7.737861573696136475e-02 -4.823448508977890015e-02 3.263117000460624695e-02 -4.022528231143951416e-02 -2.368721924722194672e-02 5.036307126283645630e-02 -1.973742432892322540e-02 -3.237168490886688232e-02 5.478112772107124329e-02 6.922146771103143692e-03 -9.798864275217056274e-02 -4.236926138401031494e-02 -2.354984357953071594e-02 1.545531023293733597e-02 4.617655649781227112e-02 2.565873600542545319e-02 4.311472177505493164e-02 -5.534423515200614929e-02 4.003784060478210449e-02 2.605831995606422424e-02 -5.933382548391819000e-03 6.095364317297935486e-02 1.279052197933197021e-01 1.302442513406276703e-02 4.455982893705368042e-02 6.423631682991981506e-03 2.138601429760456085e-02 -2.096852473914623260e-02 -6.726082414388656616e-02 -4.807815700769424438e-02 -3.289569541811943054e-02 3.205380961298942566e-02 1.459792722016572952e-02 -3.869666531682014465e-02 6.296177208423614502e-02 5.364011600613594055e-02 8.027582615613937378e-02 -2.768660709261894226e-02 6.986876577138900757e-02 7.179833948612213135e-02 2.971090935170650482e-02 -3.178253024816513062e-02 7.959349080920219421e-03 5.409323051571846008e-02 4.754965752363204956e-02 5.179170891642570496e-02 -7.511364668607711792e-02 -4.706981405615806580e-02 7.240515202283859253e-02 3.695697709918022156e-02 -3.112403303384780884e-02 3.918489813804626465e-02 7.348974049091339111e-02 6.322027742862701416e-02 -5.308306962251663208e-02 -2.332936413586139679e-02 -1.459421310573816299e-02 -8.490455336868762970e-03 3.002675436437129974e-02 5.547961592674255371e-02 5.110261216759681702e-02 1.204696111381053925e-02 8.935916237533092499e-03 1.817291020415723324e-03 -4.362443462014198303e-02 1.473592873662710190e-02 -6.533050537109375000e-02 7.751416414976119995e-03 1.110430900007486343e-02 7.763938046991825104e-03 -7.995552569627761841e-02 1.821560412645339966e-02 4.114088136702775955e-03 -1.356327068060636520e-02 3.988891374319791794e-03 -4.985392466187477112e-02 3.520216792821884155e-02 3.101413510739803314e-02 6.597088277339935303e-02 1.574217900633811951e-02 -4.686040058732032776e-02 -2.636831626296043396e-02 2.329641021788120270e-02 5.250212550163269043e-02 -3.427047282457351685e-03 -2.264518849551677704e-02 -1.072656828910112381e-03 5.356410983949899673e-03 -3.713733702898025513e-02 -2.035417966544628143e-02 -5.012746155261993408e-02 -4.942254349589347839e-02 -1.005614921450614929e-02 2.549875155091285706e-02 1.002676133066415787e-02 -4.317604377865791321e-02 -5.610284954309463501e-02 -4.303066059947013855e-02 -1.065479069948196411e-01 -6.506450939923524857e-03 1.480481028556823730e-02 2.358720637857913971e-02 -4.237691313028335571e-02 -6.474518030881881714e-02 2.792633697390556335e-02 9.287206083536148071e-02 7.085619866847991943e-02 1.852294802665710449e-02 5.581375956535339355e-02 5.387597158551216125e-02 -9.471233934164047241e-03 -6.418146658688783646e-03 5.508580431342124939e-02 -2.531540021300315857e-02 -2.686374634504318237e-02 4.925575479865074158e-02 8.182953298091888428e-02 -4.940090328454971313e-02 3.498079627752304077e-02 5.877368524670600891e-02 7.081711292266845703e-02 -5.575399473309516907e-02 -7.808575034141540527e-02 6.244940217584371567e-03 1.203456670045852661e-01 2.097395481541752815e-03 6.181351840496063232e-02 5.288527533411979675e-02 3.595755994319915771e-02 -2.338347025215625763e-02 2.700240910053253174e-02 6.321068853139877319e-02 3.318735212087631226e-02 7.034367322921752930e-02 -2.053813077509403229e-02 2.247319743037223816e-02 1.027645263820886612e-02 2.472164854407310486e-02 4.544777795672416687e-03 1.399778574705123901e-02 -4.610937833786010742e-02 -3.317142277956008911e-02 3.228791523724794388e-03 -1.262913197278976440e-01 -1.105014160275459290e-01 -1.031678635627031326e-02 4.226531833410263062e-02 1.313333678990602493e-02 2.404534630477428436e-02 -3.479795157909393311e-02 -7.248943671584129333e-03 2.440079301595687866e-02 -4.563223919831216335e-04 -3.410459728911519051e-03 5.528707988560199738e-03 3.166780248284339905e-02 9.530532360076904297e-02 -3.970275446772575378e-02 2.035300619900226593e-02 7.333675026893615723e-02 -1.288587786257266998e-02 -4.716828465461730957e-02 4.263330250978469849e-02 -6.543844472616910934e-03 -2.397436881437897682e-03 2.592646330595016479e-02 4.715416580438613892e-02 5.653768032789230347e-02 6.268650293350219727e-03 4.296904895454645157e-03 7.514831423759460449e-02 2.503833174705505371e-02 -9.252110496163368225e-03 3.531476855278015137e-02 -2.866248600184917450e-02 7.633119355887174606e-03 -4.444971308112144470e-02 2.271319925785064697e-02 5.775393173098564148e-02 -2.281050011515617371e-02 -4.878001287579536438e-02 3.993280231952667236e-02 -1.278666500002145767e-02 4.446898400783538818e-02 4.715724661946296692e-02 -2.095603011548519135e-02 -1.477147266268730164e-02 -3.695622831583023071e-02 4.948125034570693970e-02 -3.846861049532890320e-02 4.862046986818313599e-02 5.940299853682518005e-02 1.383823752403259277e-01 6.810250133275985718e-02 1.226039454340934753e-01 1.960163190960884094e-02 6.296472251415252686e-02 -2.968281693756580353e-02 6.086499616503715515e-02 4.967981949448585510e-03 3.449360653758049011e-02 2.863281033933162689e-02 -3.645462170243263245e-02 5.760166421532630920e-02 -2.625797130167484283e-02 1.116116298362612724e-03 -6.526117026805877686e-02 -2.680185250937938690e-02 -1.244904752820730209e-02 3.361900523304939270e-02 -7.092987187206745148e-03 -1.377664040774106979e-02 -1.075179874897003174e-02 8.039158419705927372e-04 -1.236570160835981369e-02 -2.622877433896064758e-02 1.286862324923276901e-02 -4.892163909971714020e-03 5.627418309450149536e-02 -2.122273482382297516e-02 -6.460513919591903687e-02 -5.318457842804491520e-04 5.301762372255325317e-02 8.615187555551528931e-02 8.328608423471450806e-02 -7.223562151193618774e-02 1.373822335153818130e-02 6.585235893726348877e-02 -2.691961266100406647e-02 4.238242283463478088e-02 -1.152738835662603378e-02 -2.632987871766090393e-02 -2.500453591346740723e-02 5.691969767212867737e-02 2.163529396057128906e-02 -2.685375511646270752e-02 3.169112140312790871e-03 4.275108501315116882e-02 -9.840682148933410645e-03 -1.774178817868232727e-02 6.100604310631752014e-02 4.035913944244384766e-02 -5.519133433699607849e-02 -5.650787800550460815e-02 -3.322982788085937500e-02 4.893874004483222961e-02 -4.311785101890563965e-03 -5.953612923622131348e-02 -1.011311658658087254e-03 1.230671722441911697e-02 -4.637095704674720764e-02 -1.843513175845146179e-02 -4.128953814506530762e-02 -6.468245387077331543e-02 -3.321886435151100159e-02 -9.650730527937412262e-03 1.122834999114274979e-02 7.318318635225296021e-02 -1.067495066672563553e-02 5.983026325702667236e-02 2.496638149023056030e-02 2.432719245553016663e-02 2.965930663049221039e-02 -9.060314856469631195e-03 1.602715812623500824e-02 1.375679275952279568e-03 -4.836674779653549194e-03 -3.353515267372131348e-02 -7.563970237970352173e-02 -4.611340537667274475e-02 -1.153748854994773865e-01 -6.441759318113327026e-02 4.176377784460783005e-03 1.543301250785589218e-02 7.516797631978988647e-02 6.379728205502033234e-03 5.505789443850517273e-02 -3.047426231205463409e-03 3.290737792849540710e-02 4.068170115351676941e-02 -2.177217975258827209e-02 7.493432611227035522e-03 1.923332735896110535e-02 2.927784062922000885e-02 6.296999007463455200e-02 -3.607447445392608643e-02 1.208432111889123917e-02 4.903115332126617432e-02 -4.386592656373977661e-02 -1.145424880087375641e-02 6.107892096042633057e-02 -2.100599929690361023e-02 1.062425374984741211e-01 7.483186572790145874e-02 9.399640560150146484e-02 3.724936023354530334e-02 8.113909512758255005e-02 8.165556937456130981e-02 5.501412320882081985e-03 -8.788131177425384521e-02 -3.117817081511020660e-02 -1.135699544101953506e-02
-1.543373800814151764e-02 7.337597012519836426e-02 3.446061536669731140e-02 -3.960269317030906677e-02 -8.141056634485721588e-03 -2.161774784326553345e-03 1.033223513513803482e-02 -8.933141827583312988e-03 3.619827702641487122e-02 2.765097282826900482e-02 8.940301835536956787e-02 9.236118942499160767e-02 -6.668965518474578857e-02 -8.895575255155563354e-02 -1.887541264295578003e-02 -6.296782940626144409e-02 -8.112695999443531036e-03 -2.573245577514171600e-02 4.476932063698768616e-02 5.935142561793327332e-02 2.216029213741421700e-03 4.973507300019264221e-02 8.676359057426452637e-02 -4.350966960191726685e-02 -6.829978898167610168e-03 1.100036799907684326e-01 2.376201562583446503e-02 -3.279016911983489990e-02 5.523875728249549866e-02 1.166855916380882263e-02 -4.875607788562774658e-02 -7.394299656152725220e-02 -5.733383446931838989e-02 -2.677419409155845642e-02 -2.389700897037982941e-02 2.273201011121273041e-02 -1.139599271118640900e-02 2.659038407728075981e-03 -6.958518177270889282e-02 -1.748792454600334167e-02 -8.630660176277160645e-02 1.864067977294325829e-03 -2.626669406890869141e-02 3.020935878157615662e-02 1.354890614748001099e-01 7.648534327745437622e-02 4.663383879233151674e-04 6.294329464435577393e-02 -6.760407239198684692e-02 -2.759435027837753296e-02 8.269253373146057129e-02 -3.246968612074851990e-02 6.204523146152496338e-02 -1.701293047517538071e-03 -6.225084513425827026e-02 -4.473473131656646729e-02 3.349602222442626953e-02 4.180973395705223083e-02 -1.044757082127034664e-03 4.891173169016838074e-02 4.334645718336105347e-02 -8.265512995421886444e-03 4.384543001651763916e-02 -2.670582383871078491e-02 2.291898010298609734e-03 7.446815818548202515e-02 3.467119066044688225e-03 7.137921452522277832e-02 -1.534718088805675507e-02 8.654697239398956299e-02 -4.378744214773178101e-02 1.389820128679275513e-02 5.864503979682922363e-02 -4.754097759723663330e-02 1.847057044506072998e-02 -7.230894267559051514e-02 -1.605422794818878174e-02 -5.855715647339820862e-02 3.865481540560722351e-02 5.254561454057693481e-02 -2.461814135313034058e-02 2.572147548198699951e-02 -1.987312920391559601e-02 8.005329221487045288e-02 -4.483609274029731750e-02 6.358556449413299561e-02 7.122133672237396240e-02 -1.465753465890884399e-02 -2.575842477381229401e-02 -5.375173687934875488e-02 -5.140295624732971191e-02 1.074330043047666550e-02 -6.218624860048294067e-02 -1.175337936729192734e-03 5.856616422533988953e-02 1.648119837045669556e-02 1.845880970358848572e-02 5.532527342438697815e-02 2.963701030239462852e-03 -5.652167648077011108e-02 1.682844571769237518e-02 -6.246087700128555298e-02 -1.766362600028514862e-02 -5.178591609001159668e-02 5.731040611863136292e-02 1.734732650220394135e-02 5.173042789101600647e-02 7.115561515092849731e-02 -1.119185239076614380e-02 6.010865420103073120e-02 -3.511519357562065125e-02 3.523633629083633423e-02 -7.654014974832534790e-02 -2.904527634382247925e-02 6.810199003666639328e-03 6.953321397304534912e-02 -2.198171423515304923e-04 9.487929940223693848e-02 1.319364737719297409e-02 -6.260329484939575195e-02 -1.378366351127624512e-01 6.417238153517246246e-03 3.248874563723802567e-03 -9.232590347528457642e-02 -4.277225583791732788e-02 2.132111229002475739e-02 5.336870998144149780e-02 -3.008512221276760101e-02 -2.569428470451384783e-04 8.576639927923679352e-03 -1.390367513522505760e-03 -6.557787954807281494e-02 5.305619444698095322e-03 7.463654130697250366e-02 -1.446553692221641541e-02 7.701204717159271240e-02 -1.673112064599990845e-02 -2.760934643447399139e-02 1.053277552127838135e-01 7.565805315971374512e-02 1.453062403015792370e-03 7.336481940001249313e-03 -2.916548214852809906e-02 -5.123142898082733154e-02 -3.715905919671058655e-02 -4.379004240036010742e-02 -3.807879984378814697e-02 5.151932593435049057e-03 -5.625900626182556152e-02 5.935473367571830750e-02 3.206614870578050613e-03 3.016770258545875549e-02 9.968572296202182770e-03 4.249203577637672424e-02 -1.217240002006292343e-03 -1.610103808343410492e-02 1.302393060177564621e-02 -1.517999265342950821e-02 -2.536736428737640381e-02 3.079494927078485489e-03 -5.948378238826990128e-04 1.184055395424365997e-02 1.206684485077857971e-01 6.726678460836410522e-02 -5.459382757544517517e-02 9.604658186435699463e-02 4.489004984498023987e-02 -1.231806352734565735e-02 -6.111413240432739258e-02 -3.615812584757804871e-02 -3.665715828537940979e-02 -5.297463014721870422e-02 -8.731556683778762817e-02 -5.752753838896751404e-02 -1.276473235338926315e-02 4.813984036445617676e-03 -6.058783084154129028e-02 9.889749810099601746e-03 5.048488453030586243e-02 5.912906676530838013e-02 -2.279507368803024292e-02 -3.482973203063011169e-02 1.535180769860744476e-02 8.432850986719131470e-02 -1.182220410555601120e-02 -4.974499344825744629e-02 -6.469072401523590088e-02 -9.621478617191314697e-02 5.089134722948074341e-02 -4.963123053312301636e-02 -1.372294221073389053e-02 1.657797954976558685e-03 1.297143008559942245e-02 3.262724354863166809e-02 4.834920167922973633e-02 -3.146832063794136047e-02 8.125935681164264679e-03 5.873226374387741089e-02 1.922717638080939651e-04 6.046595051884651184e-03 4.831365123391151428e-02 1.804437302052974701e-02 8.396932855248451233e-03 3.859496489167213440e-02 3.062118031084537506e-02 -8.182828873395919800e-02 1.835100911557674408e-02 -9.103134274482727051e-03 5.341403186321258545e-02 2.496992796659469604e-02 -1.875766180455684662e-02 -7.463563978672027588e-02 4.131690785288810730e-02 9.391638450324535370e-03 -7.603200525045394897e-02 3.749047592282295227e-02 5.178876966238021851e-02 9.097252972424030304e-03 3.195932600647211075e-03 5.095539987087249756e-02 1.581255197525024414e-01 6.318768858909606934e-02 2.039878070354461670e-02 -4.772951081395149231e-02 -5.557037889957427979e-02 -3.802212700247764587e-02 4.358093254268169403e-03 6.326755881309509277e-02 1.381661742925643921e-02 3.057564981281757355e-02 -1.485886331647634506e-02 2.708927169442176819e-02 1.453055441379547119e-02 -1.362502295523881912e-02 -3.795010596513748169e-02 -9.447076171636581421e-02 2.148188278079032898e-02 -5.882003810256719589e-03 8.193437010049819946e-02 7.056141644716262817e-02 6.700014322996139526e-02 -4.913914948701858521e-02 -3.169393539428710938e-02 5.959318485110998154e-03 -6.345564126968383789e-02 -4.805041104555130005e-02 7.699115574359893799e-02 2.426885999739170074e-02 -8.948219008743762970e-03 -1.672011055052280426e-02 3.598416224122047424e-02 3.752893209457397461e-02 4.672118276357650757e-02 3.262392058968544006e-02 -1.930425316095352173e-02 -2.948013320565223694e-02 1.647321507334709167e-02 -1.257346104830503464e-02 -6.689434498548507690e-02 -4.814806953072547913e-02 1.557450927793979645e-02 -4.237522184848785400e-02 -8.734920993447303772e-05 -3.316382691264152527e-02 -3.810179606080055237e-02 5.478268489241600037e-02 -4.952874407172203064e-02 -2.143822843208909035e-03 3.152856975793838501e-02 1.469494551420211792e-01 2.354731783270835876e-02 -5.131381005048751831e-02 1.130126789212226868e-02 2.270423620939254761e-02 -5.076954513788223267e-02 -1.179306884296238422e-03 -8.241279050707817078e-03 1.338735874742269516e-02 -6.442050635814666748e-02 6.368915736675262451e-02 -4.289096966385841370e-02 -6.698661018162965775e-03 2.646506577730178833e-02 -4.303993657231330872e-02 9.530141949653625488e-02 7.220344990491867065e-02 -1.153769809752702713e-02 1.915161870419979095e-02 -3.717539366334676743e-03 4.945373907685279846e-02 3.271166980266571045e-02 5.639741197228431702e-02 -2.226475626230239868e-02 -1.841641613282263279e-03 -4.106156900525093079e-02 -3.394199535250663757e-02 -4.332662373781204224e-02 -3.594333305954933167e-02 -4.196508321911096573e-03 -3.991803526878356934e-02 -5.514657497406005859e-02 4.275929927825927734e-02 9.242346882820129395e-02 2.327500842511653900e-02 4.625359550118446350e-03 3.012483241036534309e-03 1.578838564455509186e-02 4.636597633361816406e-02 1.522909197956323624e-02 2.298973686993122101e-02 -6.612577941268682480e-03 5.229345336556434631e-02 7.185701280832290649e-02 -1.687190495431423187e-02 -4.078591614961624146e-02 -2.177035249769687653e-02 9.655975736677646637e-03 -1.140865683555603027e-02 2.961692400276660919e-02 9.544310718774795532e-02
-1.244652736932039261e-02 -7.408530917018651962e-03 -4.880296764895319939e-04 -3.043032437562942505e-02 -3.102011606097221375e-02 -4.858997836709022522e-02 -9.100873023271560669e-03 1.455413736402988434e-02 4.032000526785850525e-02 -5.543618276715278625e-02 2.467966079711914062e-02 -4.476903006434440613e-02 2.463659271597862244e-02 -4.357002303004264832e-02 -3.809422999620437622e-02 -4.754424467682838440e-02 4.564181715250015259e-02 -4.780680686235427856e-02 3.543586283922195435e-02 4.673409461975097656e-02 -3.556113690137863159e-02 4.317460209131240845e-02 4.424799606204032898e-02 -6.135887280106544495e-02 -3.833055123686790466e-02 4.553625360131263733e-02 -3.642296046018600464e-02 3.004490397870540619e-02 -3.546323254704475403e-02 -6.579552311450242996e-03 -4.262359440326690674e-02 3.646014723926782608e-03 -3.115765005350112915e-02 -2.640079706907272339e-02 1.416830439120531082e-02 5.277313292026519775e-03 -2.658190904185175896e-03 -2.402841113507747650e-02 3.437915071845054626e-02 5.023329704999923706e-02 2.787848189473152161e-02 -4.671833664178848267e-02 -4.660976305603981018e-02 -3.548308089375495911e-02 2.876749029383063316e-03 -5.770042538642883301e-03 9.909400716423988342e-03 1.958539150655269623e-02 3.244410082697868347e-02 2.510750666260719299e-02 9.946886450052261353e-03 -2.172262966632843018e-02 -5.330168642103672028e-03 -1.989533379673957825e-02 -4.430668428540229797e-02 -9.385342709720134735e-03 -4.920089617371559143e-02 4.743664711713790894e-02 3.686523810029029846e-02 1.717652659863233566e-03 -3.506695106625556946e-02 -1.815037056803703308e-02 6.734490394592285156e-03 4.324515163898468018e-02 4.404323920607566833e-02 7.990332320332527161e-03 1.340801641345024109e-02 -1.449925918132066727e-02 -3.515782207250595093e-02 -3.507192432880401611e-02 -3.112124651670455933e-02 8.050004020333290100e-03 7.466419599950313568e-03 2.975709550082683563e-02 3.942503407597541809e-02 -3.997778147459030151e-02 2.300241403281688690e-02 -2.893807366490364075e-02 2.357855066657066345e-02 -5.357082560658454895e-02 -1.905352622270584106e-02 2.935255691409111023e-02 -1.548524200916290283e-02 -3.083945065736770630e-02 3.851842880249023438e-02 -3.520028665661811829e-02 -3.763294965028762817e-02 -4.347030073404312134e-03 2.870662324130535126e-02 -3.443299606442451477e-02 3.427776321768760681e-02 -5.984653532505035400e-02 3.978230059146881104e-02 -4.105779528617858887e-02 -4.695153795182704926e-03 -4.355063289403915405e-02 -5.032324790954589844e-02 4.822110757231712341e-02 1.763726770877838135e-02 -4.491243138909339905e-02 -4.590621218085289001e-02 -1.020950172096490860e-02 2.683228999376296997e-02 3.238205984234809875e-02 7.581140846014022827e-03 8.142461068928241730e-03 -4.332607239484786987e-02 3.370051085948944092e-02 -3.765839384868741035e-03 -4.323213547468185425e-02 -4.195809364318847656e-02 -1.186143234372138977e-02 -3.573354706168174744e-02 -1.992782950401306152e-02 4.677340760827064514e-02 3.760918974876403809e-03 -3.110137768089771271e-02 4.860317334532737732e-02 4.905282333493232727e-02 5.092432722449302673e-03 -5.656076595187187195e-03 7.733256090432405472e-03 -1.676454953849315643e-02 9.276876226067543030e-03 1.572599820792675018e-02 3.844609484076499939e-02 2.621863596141338348e-02 1.270092278718948364e-02 -5.000558216124773026e-03 4.268457368016242981e-02 1.493288669735193253e-02 1.069394033402204514e-02 3.720298781991004944e-02 1.355976425111293793e-02 -2.132164314389228821e-02 7.831905968487262726e-03 -3.049897775053977966e-02 3.919631615281105042e-02 -2.173396386206150055e-02 1.093297451734542847e-02 1.115920208394527435e-02 -3.768252581357955933e-02 -4.674959555268287659e-02 3.823307156562805176e-02 -5.812757462263107300e-02 -2.472533658146858215e-02 2.683054655790328979e-02 1.274881139397621155e-02 5.366246029734611511e-02 -5.835788324475288391e-02 1.749958656728267670e-02 -1.838009245693683624e-02 2.596815489232540131e-02 4.038035124540328979e-02 3.501193225383758545e-02 -5.524666234850883484e-02 -2.100985497236251831e-02 3.711046651005744934e-02 1.579996757209300995e-02 -4.678852111101150513e-02 3.166525810956954956e-02 3.108441457152366638e-02 -2.887898311018943787e-02 -1.365775335580110550e-02 -3.672843426465988159e-02 -4.826014861464500427e-02 -2.762821130454540253e-02 -1.209225598722696304e-02 6.175191141664981842e-03 3.037130832672119141e-02 4.680790752172470093e-02 6.033094599843025208e-03 3.186650574207305908e-02 2.780963853001594543e-02 1.248639449477195740e-02 -2.817474864423274994e-02 1.643987372517585754e-02 3.033611457794904709e-03 -4.544273391366004944e-02 -1.838983595371246338e-02 -2.324864827096462250e-02 1.881375536322593689e-02 -2.187724411487579346e-02 3.306480124592781067e-02 -1.761249150149524212e-03 -8.887051604688167572e-03 2.204325608909130096e-02 3.339034318923950195e-02 1.424579974263906479e-02 4.077464807778596878e-03 -1.247550826519727707e-02 -8.903803303837776184e-03 2.734456211328506470e-02 -1.204221136868000031e-02 4.224133864045143127e-02 3.594645485281944275e-02 -5.238009616732597351e-02 9.970302693545818329e-03 -9.590765461325645447e-03 1.778173819184303284e-02 4.561037197709083557e-02 2.985458588227629662e-03 -2.799232862889766693e-02 -8.990203030407428741e-03 -2.383153326809406281e-02 3.087397105991840363e-02 2.972548082470893860e-02 1.276056747883558273e-03 -5.034504830837249756e-02 -6.307137664407491684e-03 4.826081916689872742e-02 -2.151954919099807739e-03 1.773956045508384705e-02 -4.225289076566696167e-02 2.269268594682216644e-02 4.916277900338172913e-02 7.137117441743612289e-03 -2.165109151974320412e-03 1.939705200493335724e-02 -4.968732595443725586e-02 4.546668787952512503e-04 -1.593405008316040039e-02 5.488610267639160156e-02 -7.996647618710994720e-03 4.109307751059532166e-02 -2.034064568579196930e-02 -2.926240302622318268e-02 2.075834572315216064e-02 1.834233663976192474e-02 -5.008680000901222229e-02 -2.348787896335124969e-02 -8.795519359409809113e-03 3.127068653702735901e-02 3.328834474086761475e-02 -3.372242301702499390e-02 -5.647346004843711853e-02 4.927331954240798950e-02 -1.974334381520748138e-02 1.310565322637557983e-02 -4.917295649647712708e-02 -5.632821470499038696e-03 1.241997350007295609e-02 3.323208913207054138e-02 -4.071472212672233582e-02 -3.760563582181930542e-02 -2.161640860140323639e-02 3.423704952001571655e-02 -3.555875271558761597e-02 -5.497630313038825989e-02 -1.967185176908969879e-02 4.823344573378562927e-02 -5.991313979029655457e-02 1.327741891145706177e-02 4.638115316629409790e-02 2.815382368862628937e-02 4.573453217744827271e-02 -1.191356591880321503e-02 4.682549834251403809e-02 -4.121181368827819824e-02 3.057563863694667816e-02 2.537048980593681335e-02 3.815581277012825012e-02 3.934200853109359741e-02 3.797248005867004395e-02 3.551862388849258423e-02 -5.151785537600517273e-02 1.183534413576126099e-02 -4.748758673667907715e-02 1.223361119627952576e-02 -2.599302679300308228e-02 -2.559512481093406677e-02 9.821450803428888321e-04 5.532272160053253174e-03 -3.729905188083648682e-02 -5.608090758323669434e-02 3.949342668056488037e-02 1.291980594396591187e-02 4.977839067578315735e-02 1.004589069634675980e-02 3.347889706492424011e-02 -5.223700031638145447e-02 -4.438774194568395615e-03 4.876478761434555054e-02 8.375894976779818535e-04 -2.613948285579681396e-02 3.326543839648365974e-03 -4.478130862116813660e-02 -3.671535849571228027e-02 -3.249793127179145813e-02 1.230449229478836060e-02 -4.987984150648117065e-02 2.814079821109771729e-02 -2.829827554523944855e-02 -4.592557251453399658e-02 -4.684963449835777283e-02 -3.944508731365203857e-03 2.739238366484642029e-02 -7.476181723177433014e-03 -6.548478454351425171e-02 -4.680643789470195770e-03 5.581321194767951965e-02 -2.841824293136596680e-02 1.040660892613232136e-03 1.667749509215354919e-02 -3.885155543684959412e-02 -4.926138371229171753e-02 2.392848767340183258e-02 -3.240280225872993469e-02 2.999985823407769203e-03 5.009806528687477112e-02 2.419489994645118713e-02 2.789671532809734344e-02 4.079833626747131348e-02 -2.412801794707775116e-02 1.462388690561056137e-02 3.151839599013328552e-02 -4.104254394769668579e-02 1.358031388372182846e-02 -2.865685708820819855e-02 -5.806845799088478088e-02
-1.612631371244788170e-03 3.659297479316592216e-03 -4.113059490919113159e-02 8.412519469857215881e-03 5.752424895763397217e-02 -1.772583834826946259e-02 -6.970792263746261597e-02 -1.882069557905197144e-02 -2.001050114631652832e-02 4.858871549367904663e-02 1.857277005910873413e-02 -3.178056702017784119e-02 7.096437364816665649e-02 7.886929810047149658e-02 -9.771995991468429565e-02 -6.877730786800384521e-02 -6.656271219253540039e-02 -9.282053261995315552e-02 1.752422936260700226e-02 -4.210911318659782410e-02 4.638918861746788025e-02 -3.592019900679588318e-02 -8.838217705488204956e-03 -4.224123433232307434e-03 3.617672249674797058e-02 -1.622058637440204620e-02 -3.450687043368816376e-03 8.062640205025672913e-03 -4.388213157653808594e-02 3.868880495429039001e-02 4.718148708343505859e-02 1.523134484887123108e-02 2.254848182201385498e-02 -2.539263851940631866e-02 3.771900013089179993e-02 4.647637903690338135e-02 -1.186868697404861450e-01 4.721138626337051392e-02 -4.349583387374877930e-02 8.110836148262023926e-03 1.391169615089893341e-02 9.999873116612434387e-03 -4.288824647665023804e-02 -4.432710260152816772e-02 1.160647440701723099e-02 -1.881409436464309692e-02 -1.320851594209671021e-02 -5.307141691446304321e-02 3.538615256547927856e-02 -5.820375680923461914e-02 -8.884240873157978058e-03 3.175361827015876770e-02 2.906392700970172882e-02 4.379008710384368896e-02 -6.126835942268371582e-03 2.207077294588088989e-02 -5.947144702076911926e-02 -3.138145059347152710e-02 1.135306060314178467e-02 -3.626715019345283508e-02 3.503237292170524597e-02 -7.902261801064014435e-03 -4.724708560388535261e-04 -2.168029546737670898e-02 -1.868891716003417969e-02 -1.520659425295889378e-03 3.031294606626033783e-02 4.937569145113229752e-03 -3.394281119108200073e-02 6.987550854682922363e-02 -2.843028493225574493e-02 1.128516392782330513e-03 8.773746900260448456e-03 1.052898392081260681e-01 6.616668775677680969e-03 2.233905950561165810e-03 -1.355393789708614349e-02 1.314355991780757904e-03 4.569507017731666565e-02 6.209341809153556824e-02 -2.051695995032787323e-02 7.310781627893447876e-03 2.958241291344165802e-02 6.002528592944145203e-02 6.430451571941375732e-02 -1.267006341367959976e-02 1.021459251642227173e-01 1.345703005790710449e-01 2.839484252035617828e-02 1.960838399827480316e-02 5.603249743580818176e-02 2.091050706803798676e-02 3.257796168327331543e-02 -2.150146989151835442e-03 -4.428236186504364014e-02 -4.114605858922004700e-02 -5.162889137864112854e-02 1.684891059994697571e-02 -2.739916380960494280e-04 -5.351951718330383301e-02 -1.705985516309738159e-02 4.009465500712394714e-02 -4.083032533526420593e-02 -4.503813758492469788e-02 6.004171818494796753e-02 1.099297553300857544e-01 1.199566293507814407e-02 -3.814439475536346436e-02 2.192123979330062866e-02 -4.480658844113349915e-02 1.227805158123373985e-03 -5.051638185977935791e-02 1.255347765982151031e-02 6.490588188171386719e-02 6.410744041204452515e-02 -1.628125645220279694e-02 3.163267672061920166e-02 -5.324204266071319580e-02 -1.550857722759246826e-02 7.152471225708723068e-03 7.601576391607522964e-03 4.565624892711639404e-02 6.622711569070816040e-02 -4.753717407584190369e-02 3.799345344305038452e-02 -1.604435220360755920e-02 -2.676530182361602783e-02 2.414934523403644562e-02 -9.777579456567764282e-03 -1.091171950101852417e-01 -1.606372371315956116e-02 -3.320737183094024658e-02 -5.174322053790092468e-02 4.294717311859130859e-02 1.814954914152622223e-02 -2.639044448733329773e-02 2.743306010961532593e-02 -3.814477846026420593e-02 5.645577609539031982e-02 1.252229660749435425e-01 4.018789529800415039e-02 -1.091579688363708556e-04 2.017960138618946075e-02 4.535488784313201904e-03 4.049151018261909485e-02 6.486130505800247192e-02 2.261445159092545509e-03 -3.362987935543060303e-02 5.267658270895481110e-03 4.031231626868247986e-02 1.054531056433916092e-02 -6.390023231506347656e-02 -1.083258092403411865e-01 6.417279690504074097e-02 5.282282456755638123e-02 9.781564585864543915e-03 1.804317906498908997e-02 -1.498713809996843338e-02 5.251791793853044510e-03 -4.525355622172355652e-02 1.060197874903678894e-02 5.549647659063339233e-02 -2.022728323936462402e-02 -1.801386661827564240e-02 -3.630285710096359253e-02 -2.564731426537036896e-02 -2.996583096683025360e-02 -5.596600472927093506e-02 5.433061346411705017e-02 5.257162451744079590e-02 -6.437851488590240479e-02 2.812043949961662292e-02 -4.525445401668548584e-03 3.135878965258598328e-02 -1.814671047031879425e-02 8.614743500947952271e-02 -2.150435186922550201e-02 -1.042517088353633881e-02 4.561062157154083252e-02 -3.156697377562522888e-02 -2.075088582932949066e-02 1.422334648668766022e-02 -2.938715741038322449e-02 1.428119372576475143e-02 -3.339758142828941345e-02 5.487172678112983704e-02 8.072119951248168945e-02 -2.140830736607313156e-03 -6.651008035987615585e-03 -5.914008617401123047e-02 -8.705220371484756470e-02 -5.525559186935424805e-02 -6.819377839565277100e-02 2.532404847443103790e-02 5.231443047523498535e-02 -2.565266005694866180e-02 4.465303570032119751e-02 5.897188931703567505e-02 2.331105433404445648e-02 1.510262605734169483e-03 4.189597442746162415e-02 1.544451899826526642e-02 -1.320134196430444717e-02 4.408270865678787231e-02 -5.204184353351593018e-02 -1.768680848181247711e-02 -5.567029118537902832e-02 3.161747008562088013e-02 2.369567751884460449e-02 5.807813256978988647e-02 -4.947700351476669312e-02 -1.298538967967033386e-02 -5.352388694882392883e-02 -1.957522518932819366e-02 -5.322148278355598450e-02 -8.756158500909805298e-02 -2.467267960309982300e-02 3.208772838115692139e-02 -4.717641323804855347e-02 -6.704649329185485840e-02 -3.569986298680305481e-02 -4.890828952193260193e-02 -7.308765500783920288e-02 -4.115546494722366333e-02 -3.305349498987197876e-02 7.299807388335466385e-03 4.969757515937089920e-03 -1.634923741221427917e-02 1.814114977605640888e-03 -2.599371224641799927e-02 1.088419780135154724e-01 1.244235560297966003e-01 -1.635908707976341248e-02 4.005769267678260803e-03 -3.975686058402061462e-02 -3.739713283721357584e-04 5.994695425033569336e-02 -1.720598712563514709e-02 -4.465358331799507141e-02 -1.398894749581813812e-02 -3.892654785886406898e-03 -7.163715362548828125e-02 8.958708494901657104e-02 8.664903044700622559e-02 1.133065391331911087e-02 8.082679659128189087e-02 3.878005221486091614e-02 -3.961911797523498535e-02 -8.558447472751140594e-03 -2.725625969469547272e-02 4.478861019015312195e-02 4.563461616635322571e-02 1.185954082757234573e-02 -4.273056983947753906e-02 -3.200886398553848267e-02 -4.966141656041145325e-03 -5.648678168654441833e-02 -2.637312561273574829e-02 -1.105277682654559612e-03 1.429616473615169525e-02 -6.367051601409912109e-02 -4.526306688785552979e-02 3.666532412171363831e-02 -1.855124952271580696e-03 -4.744570702314376831e-02 -6.821905821561813354e-02 -2.123045362532138824e-02 -1.751876994967460632e-02 -3.241663100197911263e-03 2.931862836703658104e-04 -1.298760622739791870e-02 -1.030369754880666733e-02 -2.914932742714881897e-02 2.877868525683879852e-02 8.311022073030471802e-03 -1.371349673718214035e-02 7.804489135742187500e-02 3.184239938855171204e-02 6.525048613548278809e-02 -1.055404543876647949e-02 -1.675013452768325806e-02 3.169113397598266602e-02 4.393226467072963715e-03 2.583573013544082642e-02 2.077360823750495911e-02 -2.807549200952053070e-02 -1.721267588436603546e-02 -5.603117097052745521e-05 2.728375047445297241e-02 -2.468550764024257660e-02 1.501265726983547211e-02 -1.217117905616760254e-02 -8.022833615541458130e-02 2.862867340445518494e-02 7.533279806375503540e-02 1.131508871912956238e-01 -1.551735773682594299e-02 -2.140827011317014694e-03 -6.141369789838790894e-02 2.825564704835414886e-02 -5.252508912235498428e-03 -8.806598931550979614e-02 4.275748878717422485e-02 1.352659165859222412e-01 -1.217310084030032158e-03 -1.171846017241477966e-01 1.336418185383081436e-02 4.285592294763773680e-04 -1.118811964988708496e-01 -6.698206812143325806e-02 4.992562904953956604e-02 -3.957458958029747009e-02 -9.629332460463047028e-03 -5.569892236962914467e-04 -7.644250057637691498e-03 -1.369978487491607666e-01 -3.165246546268463135e-02 -2.946879714727401733e-02 1.264642179012298584e-02 -7.109502702951431274e-02
-1.277007907629013062e-02 5.557660013437271118e-02 6.513613462448120117e-02 -2.216333709657192230e-02 3.607198968529701233e-02 1.580567285418510437e-02 2.555588074028491974e-02 -5.567122623324394226e-02 -1.055256929248571396e-02 1.114183366298675537e-01 5.051604658365249634e-02 -5.241136997938156128e-02 3.993780817836523056e-03 -6.264773756265640259e-02 -4.758241027593612671e-02 1.145162526518106461e-02 8.441137522459030151e-02 5.033520981669425964e-02 -2.325597777962684631e-02 3.811901435256004333e-02 -9.895142912864685059e-02 -5.295962560921907425e-03 6.361804436892271042e-03 2.905451133847236633e-02 -4.845556989312171936e-02 -8.992126211524009705e-03 -2.636398561298847198e-02 -4.159465059638023376e-02 4.153012484312057495e-02 4.768077284097671509e-02 8.146913349628448486e-02 2.935642376542091370e-02 -2.336098067462444305e-02 5.062818527221679688e-02 -9.774959646165370941e-03 5.842724815011024475e-02 3.645884990692138672e-02 5.646179988980293274e-02 1.313029229640960693e-01 -4.122942686080932617e-03 1.317398343235254288e-02 7.491204142570495605e-02 -1.609997265040874481e-02 -2.032863721251487732e-02 2.936361543834209442e-02 2.155788987874984741e-02 -2.465043589472770691e-02 7.586218416690826416e-02 3.456790745258331299e-02 5.285949632525444031e-02 8.999113738536834717e-02 8.337535709142684937e-02 6.559139490127563477e-02 -4.144655540585517883e-02 4.954387992620468140e-02 -5.722324177622795105e-02 4.071794822812080383e-02 -1.788699440658092499e-02 2.916291169822216034e-02 6.567914038896560669e-02 -2.603511512279510498e-02 1.538780238479375839e-02 2.581626921892166138e-02 -4.381760954856872559e-02 -8.270133286714553833e-03 -1.865519210696220398e-02 -5.586044117808341980e-02 4.745317995548248291e-02 -2.070219069719314575e-02 1.229985430836677551e-02 -9.659816324710845947e-02 4.061646014451980591e-02 6.153111159801483154e-02 3.505018353462219238e-02 -7.927594333887100220e-02 8.596845716238021851e-02 1.426790375262498856e-02 -3.088044561445713043e-02 -4.667468741536140442e-02 6.063850969076156616e-02 3.881515562534332275e-02 4.267939925193786621e-02 5.578596889972686768e-02 2.246212586760520935e-02 -8.577894419431686401e-02 -5.976777523756027222e-03 6.697568297386169434e-02 6.607176735997200012e-03 -7.928352057933807373e-02 -7.445361465215682983e-02 5.095367506146430969e-02 -3.521418198943138123e-02 -7.795946672558784485e-03 -1.974941603839397430e-02 7.452215254306793213e-02 1.598209142684936523e-02 7.644869852811098099e-03 -3.588185459375381470e-02 1.082006171345710754e-01 2.489509619772434235e-02 -1.377347707748413086e-01 -8.449218422174453735e-02 -1.364324707537889481e-02 -2.346051670610904694e-02 -6.807025521993637085e-02 7.107154279947280884e-02 6.329550873488187790e-03 5.581731721758842468e-02 7.842532545328140259e-02 1.221145242452621460e-01 6.251699477434158325e-02 -4.587892815470695496e-02 -8.404634147882461548e-02 -6.578858196735382080e-02 -1.055459119379520416e-02 3.540539741516113281e-02 1.207033358514308929e-02 -6.370991468429565430e-02 9.225004166364669800e-02 5.024336650967597961e-02 1.658066362142562866e-02 1.087616197764873505e-03 3.589748218655586243e-02 -2.292649447917938232e-02 -8.839908242225646973e-02 -7.265978306531906128e-02 1.820474117994308472e-02 1.784940063953399658e-02 -4.397879540920257568e-02 -8.437684923410415649e-02 -3.584299236536026001e-02 -1.459413673728704453e-02 -1.088184937834739685e-01 -4.215699806809425354e-02 -6.119462475180625916e-02 -5.249672383069992065e-02 4.602215439081192017e-02 2.277945168316364288e-02 -5.296750739216804504e-02 1.683641970157623291e-02 1.019997056573629379e-02 7.527911663055419922e-02 -5.793268233537673950e-02 3.356675058603286743e-02 -2.443263679742813110e-02 2.732108719646930695e-02 -2.319513075053691864e-02 -6.413066387176513672e-02 -5.633934214711189270e-02 4.065991379320621490e-03 -2.941392362117767334e-02 -5.563202872872352600e-02 -3.849866241216659546e-02 1.108055040240287781e-01 -1.208504568785429001e-02 1.121393591165542603e-02 -6.783896684646606445e-02 1.073549389839172363e-01 -5.466001573950052261e-03 1.018475517630577087e-01 -4.517707973718643188e-02 -9.314767271280288696e-02 -1.380262896418571472e-02 -3.098812140524387360e-02 -3.365650773048400879e-02 7.080163061618804932e-02 5.294775590300559998e-02 -5.118353664875030518e-02 -3.261934593319892883e-02 6.949793547391891479e-02 -8.948981016874313354e-02 -1.458634901791810989e-02 -3.136297315359115601e-02 -1.862179674208164215e-02 -3.151082992553710938e-02 -2.053683064877986908e-02 -3.196863085031509399e-02 -4.876548424363136292e-03 1.205039769411087036e-02 -3.383385390043258667e-02 -1.357130706310272217e-02 -1.776948571205139160e-02 -2.316836640238761902e-02 7.237500511109828949e-03 5.631846189498901367e-02 9.733675420284271240e-02 -3.455383330583572388e-02 1.831977628171443939e-02 -2.318741939961910248e-02 5.231730267405509949e-02 1.363997161388397217e-02 7.051441818475723267e-02 -6.127219647169113159e-02 -2.757104672491550446e-02 -1.135953422635793686e-02 4.535107407718896866e-03 -3.013911843299865723e-02 3.838373348116874695e-02 4.586093872785568237e-02 -1.492258161306381226e-02 1.281135249882936478e-02 4.512975737452507019e-02 2.886773273348808289e-02 -2.039132639765739441e-03 -3.927899152040481567e-02 4.438497871160507202e-02 5.096634849905967712e-02 -3.373823687434196472e-02 6.671745330095291138e-02 -2.340649440884590149e-02 -6.012642383575439453e-02 -9.219272434711456299e-02 3.691439703106880188e-02 3.161609545350074768e-02 1.864002831280231476e-02 1.833507418632507324e-02 1.744023337960243225e-02 6.642650067806243896e-02 7.633224129676818848e-02 1.388279721140861511e-02 -6.432332098484039307e-02 -1.539067551493644714e-02 -8.610724471509456635e-03 3.938409686088562012e-02 6.864727288484573364e-02 3.877748548984527588e-02 6.894052773714065552e-02 -2.857159264385700226e-02 3.852522745728492737e-02 2.822103351354598999e-02 3.750486671924591064e-02 3.652124851942062378e-02 -5.891060829162597656e-02 6.994359940290451050e-02 3.337569162249565125e-02 -3.465977311134338379e-02 -2.657149359583854675e-02 6.080968305468559265e-03 2.976944856345653534e-02 1.131943985819816589e-01 -4.016418755054473877e-02 5.557422712445259094e-02 -2.407247200608253479e-02 1.306292321532964706e-02 -6.665413826704025269e-02 -5.834075435996055603e-02 9.476227313280105591e-02 6.260927766561508179e-02 -7.481753826141357422e-02 -3.341260552406311035e-02 2.340121939778327942e-02 -2.409181371331214905e-02 9.506009519100189209e-03 3.764118626713752747e-02 -2.650605700910091400e-02 1.525863539427518845e-02 -5.745353549718856812e-02 1.239229273051023483e-02 -1.098571624606847763e-02 -9.877943433821201324e-03 -1.997053809463977814e-02 2.602808736264705658e-02 3.947427868843078613e-02 2.136493101716041565e-02 -4.939769580960273743e-02 -6.435956805944442749e-02 2.089748904109001160e-02 4.984803870320320129e-02 -5.850433558225631714e-02 -2.883829548954963684e-02 9.427743032574653625e-03 5.296295508742332458e-02 -7.564949337393045425e-04 8.965185843408107758e-03 7.101760711520910263e-03 -5.398191511631011963e-02 -9.471312165260314941e-02 -9.507978707551956177e-02 -7.029461208730936050e-03 9.755208157002925873e-03 -3.627822175621986389e-02 -3.197612240910530090e-02 1.048343330621719360e-01 1.047863066196441650e-01 3.456504782661795616e-03 4.333800449967384338e-02 6.358334422111511230e-02 3.071739803999662399e-03 6.553746759891510010e-02 1.603505760431289673e-01 6.509484350681304932e-02 4.266986995935440063e-02 6.974238436669111252e-03 -7.036376278847455978e-03 3.636094741523265839e-03 -2.800308540463447571e-02 -7.774786651134490967e-02 -2.691115625202655792e-02 -3.648203238844871521e-02 3.221565485000610352e-02 1.935185305774211884e-02 -1.567086670547723770e-03 2.646021731197834015e-02 3.659018129110336304e-02 5.367408320307731628e-02 1.845968700945377350e-02 5.220388993620872498e-02 2.897484460845589638e-03 3.571324050426483154e-03 -1.281372923403978348e-02 -2.201844006776809692e-02 -7.856042683124542236e-02 1.466915197670459747e-02 3.741266950964927673e-02 2.994498424232006073e-02 3.962028026580810547e-02 3.354890272021293640e-02 -1.273424946703016758e-03 8.660303801298141479e-02 3.031687438488006592e-02
1.251380518078804016e-02 6.539522111415863037e-02 -6.116228923201560974e-02 1.031058654189109802e-02 -2.828841656446456909e-02 1.275739632546901703e-02 -9.681941568851470947e-02 -5.282645300030708313e-02 4.398104175925254822e-02 -1.176713593304157257e-02 -2.773191407322883606e-02 -6.103157252073287964e-02 -3.263567760586738586e-02 5.354778096079826355e-02 -2.900784462690353394e-02 -3.566869348287582397e-02 -1.032232493162155151e-01 -2.750807441771030426e-02 3.308482840657234192e-02 -1.331278402358293533e-02 3.986138850450515747e-02 2.715713717043399811e-02 -2.517700195312500000e-02 -3.412405028939247131e-02 5.454991757869720459e-02 2.524203807115554810e-02 -2.222320996224880219e-02 8.351115509867668152e-03 -3.570912778377532959e-02 -2.096314355731010437e-02 1.098560635000467300e-02 3.329375013709068298e-02 6.528998911380767822e-02 5.999103654175996780e-03 1.293919701129198074e-02 5.760446656495332718e-03 -1.082798987627029419e-01 -2.650726400315761566e-02 4.995200410485267639e-02 3.044535405933856964e-02 -2.153682708740234375e-02 -2.107173018157482147e-02 2.992746978998184204e-02 -4.279411956667900085e-02 -4.254002869129180908e-02 1.570090837776660919e-02 5.648071318864822388e-02 -4.763780627399682999e-03 -1.524284947663545609e-02 -3.117239661514759064e-02 -6.415164470672607422e-02 2.858023857697844505e-03 -6.427694857120513916e-02 -3.415301814675331116e-02 -7.142093032598495483e-02 3.616537526249885559e-02 -1.214975677430629730e-02 -5.510307103395462036e-02 4.418455436825752258e-02 7.544893771409988403e-02 -2.574622817337512970e-02 2.583433128893375397e-02 4.924526065587997437e-02 -6.296037882566452026e-02 -4.378666635602712631e-03 2.207123674452304840e-02 -8.744692057371139526e-02 -6.602239608764648438e-02 7.252722233533859253e-02 7.514317519962787628e-03 -4.401261359453201294e-02 -2.951400540769100189e-02 -6.896087527275085449e-02 6.859856843948364258e-02 1.696469634771347046e-02 2.014313265681266785e-02 -1.755511946976184845e-02 7.583114504814147949e-02 -1.158962491899728775e-02 -5.167513154447078705e-03 5.567732080817222595e-02 5.527357384562492371e-02 5.519236996769905090e-02 1.935774274170398712e-02 3.823792561888694763e-02 6.365124136209487915e-02 3.837417066097259521e-02 3.911441192030906677e-02 -3.955350816249847412e-02 1.012739073485136032e-02 9.479580447077751160e-03 -6.814858317375183105e-02 4.518075287342071533e-02 7.294986397027969360e-03 -9.315378963947296143e-03 -1.119311898946762085e-02 -2.101480402052402496e-02 -1.238066628575325012e-01 -1.095581725239753723e-01 -8.592096157371997833e-03 9.449230128666386008e-05 -4.694532603025436401e-02 -8.658234030008316040e-03 -2.558919973671436310e-02 9.817778319120407104e-02 7.545579969882965088e-02 2.302746661007404327e-02 6.321761757135391235e-02 -3.339185193181037903e-02 2.514090761542320251e-02 -9.819502010941505432e-03 1.941077411174774170e-02 1.306293439120054245e-02 1.171392500400543213e-01 6.781966984272003174e-02 -3.359103202819824219e-02 -7.343800738453865051e-03 7.911152392625808716e-02 2.136845869245007634e-04 1.540233287960290909e-02 2.691225148737430573e-02 -1.396234147250652313e-02 2.998294867575168610e-02 7.048037834465503693e-03 3.608725965023040771e-02 2.262797392904758453e-02 1.816869154572486877e-02 -6.207454204559326172e-02 -3.017104603350162506e-02 -6.860579550266265869e-02 -7.657629996538162231e-02 -3.091960027813911438e-02 6.051897630095481873e-02 -2.748817950487136841e-02 7.944474369287490845e-02 -4.678756743669509888e-02 6.898709386587142944e-02 -2.284646779298782349e-02 1.039679646492004395e-01 -5.411722511053085327e-02 -4.715573415160179138e-02 3.719888255000114441e-02 7.907770574092864990e-02 -4.464184492826461792e-02 -8.811204880475997925e-02 1.547943055629730225e-02 2.597302570939064026e-02 -3.209696710109710693e-02 -4.394064191728830338e-03 -1.544833742082118988e-02 3.633770626038312912e-03 5.604134872555732727e-03 -4.763931035995483398e-02 -1.482000388205051422e-02 4.500905051827430725e-02 4.688537120819091797e-02 -2.764388546347618103e-02 3.810716420412063599e-02 -3.487852960824966431e-02 -2.097944170236587524e-02 6.700520217418670654e-02 7.131133973598480225e-02 7.396761793643236160e-03 -9.916996583342552185e-03 8.246408402919769287e-02 -1.261529512703418732e-02 -6.800061464309692383e-02 -6.124978419393301010e-03 -5.724548827856779099e-03 -1.207782700657844543e-02 -3.639797866344451904e-02 1.622022874653339386e-02 2.612270601093769073e-02 4.806175827980041504e-03 1.662285625934600830e-02 3.485935553908348083e-02 1.544902753084897995e-02 6.872926652431488037e-02 1.007955521345138550e-01 9.749698638916015625e-02 1.738420501351356506e-02 -6.974717974662780762e-02 3.586038574576377869e-02 -1.888008788228034973e-02 -3.062850236892700195e-02 4.059129394590854645e-03 6.287714838981628418e-02 -1.155103649944067001e-02 -4.982018843293190002e-02 3.955565020442008972e-02 -9.600035846233367920e-02 -1.164807938039302826e-02 3.613748028874397278e-02 7.617311552166938782e-03 4.975920170545578003e-02 4.320669919252395630e-02 2.414362505078315735e-02 4.352372884750366211e-02 -2.194927074015140533e-02 2.207807824015617371e-02 3.881690278649330139e-02 3.393802046775817871e-02 -4.401152580976486206e-02 3.759154304862022400e-02 3.511059563606977463e-03 4.663139209151268005e-02 4.935861378908157349e-02 -1.163123641163110733e-03 -9.954295307397842407e-02 -6.397857517004013062e-02 1.390535943210124969e-02 6.404578685760498047e-02 -8.420278131961822510e-02 -3.987395763397216797e-02 9.692858904600143433e-03 5.350069329142570496e-02 1.796536706387996674e-02 6.516575813293457031e-02 -2.546612173318862915e-02 -5.127945542335510254e-02 -7.033820264041423798e-03 1.857410185039043427e-02 -5.133485049009323120e-02 -4.877619072794914246e-02 2.194285951554775238e-02 4.836298152804374695e-02 9.103578329086303711e-02 6.681752949953079224e-02 2.139063738286495209e-02 -8.246550709009170532e-02 4.680882766842842102e-02 4.156416654586791992e-02 -9.292849153280258179e-02 -1.734080165624618530e-02 -7.481606211513280869e-03 -2.602752111852169037e-02 -2.173194102942943573e-02 -6.828254461288452148e-02 4.991094022989273071e-02 -5.695034749805927277e-03 -1.046060547232627869e-01 -9.753037244081497192e-02 1.003484055399894714e-02 2.763964794576168060e-02 3.922997042536735535e-03 4.200970008969306946e-02 6.603222340345382690e-02 -8.672378957271575928e-03 -1.599896326661109924e-02 5.449996329843997955e-03 1.084631681442260742e-02 3.307343926280736923e-03 -4.278264194726943970e-02 -4.245994240045547485e-02 1.909675262868404388e-02 1.562102045863866806e-02 -4.682730138301849365e-02 -2.107297256588935852e-02 1.789509318768978119e-02 -2.962175756692886353e-03 2.261341176927089691e-02 6.896323710680007935e-02 -2.601092867553234100e-02 -1.676140725612640381e-02 2.324989996850490570e-02 -2.477684617042541504e-02 4.522609058767557144e-03 -2.075905911624431610e-02 -5.130366235971450806e-02 -2.049505896866321564e-02 5.827486515045166016e-02 6.034534424543380737e-02 4.086634516716003418e-02 6.295770872384309769e-03 6.446945667266845703e-02 2.890983223915100098e-02 -1.063021179288625717e-02 -4.576787352561950684e-03 3.750126808881759644e-02 -5.384326446801424026e-03 -3.593314439058303833e-02 -1.873151399195194244e-02 -6.358082592487335205e-02 3.768981620669364929e-02 -8.008278161287307739e-02 1.494548004120588303e-02 -4.753457754850387573e-02 -1.000748481601476669e-02 2.445805072784423828e-02 -3.088267520070075989e-02 -4.381217435002326965e-02 -7.350645959377288818e-02 -9.070956707000732422e-02 -2.163398265838623047e-02 -2.343160659074783325e-02 -2.842960134148597717e-02 1.670893467962741852e-02 -1.302754040807485580e-02 -3.768756985664367676e-02 6.188573688268661499e-02 3.075705841183662415e-02 5.195288360118865967e-02 5.839664489030838013e-02 -3.568897023797035217e-02 -9.473872184753417969e-02 -1.079624984413385391e-02 7.431480288505554199e-02 4.844205081462860107e-02 -1.316432356834411621e-01 3.211157396435737610e-02 8.189246803522109985e-02 -2.539944835007190704e-02 -7.147505134344100952e-02 7.936097681522369385e-02 -3.755803406238555908e-02 -2.068410627543926239e-02 4.828772321343421936e-02 6.386405322700738907e-03 4.334413260221481323e-02 -1.491091027855873108e-02
6.116753816604614258e-02 1.407273951917886734e-02 -1.572398655116558075e-02 -2.807897515594959259e-02 1.458884961903095245e-02 -9.796548634767532349e-03 3.234488517045974731e-02 1.092013530433177948e-02 -4.619190469384193420e-02 6.797894090414047241e-02 -2.216465305536985397e-03 1.179652009159326553e-02 7.364004850387573242e-02 1.756292209029197693e-02 -1.185044459998607635e-02 1.625342853367328644e-02 -4.028686136007308960e-02 6.690997630357742310e-02 -2.346304012462496758e-03 1.792896725237369537e-02 1.166043654084205627e-01 2.286866120994091034e-02 -6.741859018802642822e-02 -5.999137833714485168e-02 -3.590010479092597961e-02 1.974277570843696594e-02 2.074828743934631348e-02 -1.420373469591140747e-02 -5.518579483032226562e-02 -1.010635308921337128e-02 3.913227468729019165e-02 2.051635272800922394e-02 -2.491236664354801178e-02 1.604994526132941246e-03 -2.476704306900501251e-02 4.535898566246032715e-02 -5.543719604611396790e-02 2.191738039255142212e-02 -5.505493655800819397e-02 -7.194692734628915787e-03 9.966555237770080566e-02 -2.095179446041584015e-02 2.431409992277622223e-02 -5.387699231505393982e-02 6.319083273410797119e-02 -2.422978915274143219e-02 2.910496667027473450e-02 3.447328135371208191e-02 -5.815388262271881104e-02 -4.286269843578338623e-02 3.229203820228576660e-02 -2.717770077288150787e-02 5.231651943176984787e-03 -2.634601294994354248e-02 5.994206294417381287e-02 8.285253494977951050e-02 -3.157145110890269279e-03 1.105970237404108047e-02 1.474768482148647308e-02 3.447329252958297729e-02 -3.051450103521347046e-02 -1.092463657259941101e-01 -1.693913526833057404e-02 5.233671888709068298e-02 7.401237636804580688e-02 -7.575078401714563370e-03 -9.472804516553878784e-02 -5.492027848958969116e-02 2.028400078415870667e-02 7.081665098667144775e-02 -1.285592019557952881e-01 -2.389018237590789795e-02 -1.132772117853164673e-02 4.900729283690452576e-02 -4.327598214149475098e-02 -5.003490298986434937e-02 6.910480558872222900e-02 2.630783058702945709e-02 -3.394267335534095764e-02 -1.531952619552612305e-02 3.565681353211402893e-02 1.760744862258434296e-02 6.705044955015182495e-02 2.066026255488395691e-02 5.491371080279350281e-02 3.761833533644676208e-02 -7.861431688070297241e-02 -6.781745702028274536e-03 -4.285232722759246826e-02 1.462949812412261963e-02 -2.392558380961418152e-02 -5.070703104138374329e-02 -2.867289632558822632e-02 4.646613448858261108e-02 4.149673506617546082e-02 2.434622123837471008e-02 8.186078816652297974e-02 5.413339659571647644e-02 -1.243092566728591919e-01 1.935613225214183331e-03 7.122763991355895996e-02 6.435766350477933884e-03 -9.015492349863052368e-02 5.277081951498985291e-02 -4.317726939916610718e-02 4.459792003035545349e-02 -3.222920000553131104e-02 -1.886281557381153107e-02 1.360174827277660370e-02 -4.103165864944458008e-02 4.729377478361129761e-02 9.138271957635879517e-02 8.974665403366088867e-02 2.014502137899398804e-02 -4.710997268557548523e-02 -9.636363387107849121e-02 -6.966781616210937500e-02 -5.133134778589010239e-03 5.039634555578231812e-02 -3.419965133070945740e-02 -6.382203847169876099e-02 3.077207133173942566e-02 -4.431185312569141388e-03 -5.860447883605957031e-02 -9.650098159909248352e-03 3.821633756160736084e-02 -3.788254037499427795e-02 -3.613493219017982483e-02 8.316200971603393555e-02 9.304428845643997192e-02 7.435987237840890884e-03 -1.245413422584533691e-01 4.360955953598022461e-02 1.011262685060501099e-01 3.207861632108688354e-02 -3.638345748186111450e-02 -5.382364988327026367e-02 -1.345817558467388153e-02 7.216103374958038330e-03 5.131714791059494019e-02 -4.633266478776931763e-02 -6.518797483295202255e-03 5.976447835564613342e-02 8.220537565648555756e-03 -2.838218957185745239e-02 2.850863896310329437e-02 5.390708521008491516e-02 3.472751006484031677e-02 9.846352972090244293e-03 -4.582701250910758972e-03 -4.334240406751632690e-02 -7.080338895320892334e-03 -3.249330073595046997e-02 1.727539114654064178e-02 -4.822937026619911194e-02 -4.867827519774436951e-02 -1.539614330977201462e-02 -4.948002169840037823e-04 1.685063540935516357e-02 -4.079248383641242981e-02 5.596537142992019653e-02 6.867551803588867188e-02 4.117046669125556946e-02 -2.423026412725448608e-02 -7.853488437831401825e-03 -2.085874043405056000e-02 -4.630115628242492676e-02 -5.346354842185974121e-02 -4.679780080914497375e-02 2.975467219948768616e-02 2.126547507941722870e-02 -1.069111377000808716e-01 3.900732845067977905e-02 -5.950480699539184570e-02 -6.960576027631759644e-02 -4.243976250290870667e-02 1.626674458384513855e-02 6.113767623901367188e-02 9.487899392843246460e-02 1.499762386083602905e-02 -5.854212865233421326e-02 -2.688252739608287811e-02 9.351661801338195801e-02 -1.145159732550382614e-02 -7.539046555757522583e-02 -7.044818717986345291e-03 -1.485006883740425110e-02 -3.141675516963005066e-02 -4.202191717922687531e-03 1.770696043968200684e-02 -1.083009596914052963e-02 -2.436761558055877686e-02 -3.810587571933865547e-03 5.850498005747795105e-02 -1.536320429295301437e-03 2.626965008676052094e-02 2.226113528013229370e-02 -2.485662698745727539e-02 -2.664967812597751617e-02 -3.367477655410766602e-02 -8.320905268192291260e-03 6.631431635469198227e-03 -1.270348904654383659e-03 4.763453081250190735e-02 6.423048675060272217e-02 -2.483250806108117104e-03 1.304998062551021576e-03 -3.465363383293151855e-02 3.665310516953468323e-02 9.003814193420112133e-04 -2.311597391963005066e-02 1.008742228150367737e-01 5.016833543777465820e-02 2.821746282279491425e-02 5.484042689204216003e-02 9.802648425102233887e-02 5.294239521026611328e-02 3.923113271594047546e-02 -2.139543369412422180e-02 1.934638433158397675e-02 -9.681406430900096893e-03 3.328660130500793457e-02 -2.632272057235240936e-02 -9.149644523859024048e-03 1.418765541166067123e-02 4.242017120122909546e-02 5.203951522707939148e-02 1.435387693345546722e-02 -4.304492473602294922e-02 -6.625410169363021851e-02 -5.441167950630187988e-02 -7.129993289709091187e-02 -6.280577927827835083e-02 6.488608568906784058e-02 -4.249649122357368469e-02 -3.571407124400138855e-02 2.971627376973628998e-02 9.500487148761749268e-02 -1.546264276839792728e-03 -7.584916893392801285e-03 2.764227241277694702e-02 -1.695044897496700287e-02 -5.072446912527084351e-02 -5.130059644579887390e-02 8.063242584466934204e-02 3.366619348526000977e-02 -4.321866482496261597e-02 -6.134749203920364380e-02 5.637827515602111816e-02 1.137572620064020157e-02 3.841589018702507019e-02 1.936792768537998199e-02 -5.070354416966438293e-02 3.334201499819755554e-02 1.142158824950456619e-02 6.329809874296188354e-02 -1.452619908377528191e-03 -1.105311699211597443e-02 6.587021052837371826e-03 -6.614357978105545044e-02 -1.955396123230457306e-02 -1.117882877588272095e-02 -1.999881491065025330e-02 -4.376088082790374756e-02 -2.146433107554912567e-02 4.187944531440734863e-02 2.382777445018291473e-02 -1.321308966726064682e-02 1.034058816730976105e-02 5.486933514475822449e-02 3.388626128435134888e-02 2.372285351157188416e-02 -5.597377195954322815e-02 -2.879530750215053558e-02 -3.173241019248962402e-02 -4.393335431814193726e-02 6.021271925419569016e-03 -1.658135466277599335e-02 5.339210480451583862e-02 -1.502132602035999298e-02 3.310995548963546753e-02 3.397020325064659119e-02 4.068720713257789612e-02 3.409889712929725647e-02 2.607670240104198456e-02 4.178685322403907776e-02 -6.868086010217666626e-02 -2.513095736503601074e-02 4.910880327224731445e-02 -7.292735576629638672e-02 -3.132393211126327515e-02 -5.410487949848175049e-02 -5.975089967250823975e-02 -2.134296484291553497e-02 -1.360087245702743530e-01 -1.369034964591264725e-02 1.435504178516566753e-03 3.445913642644882202e-02 -8.055414259433746338e-02 -7.183583453297615051e-03 -8.655725978314876556e-03 4.946860298514366150e-02 -3.170135244727134705e-02 3.555233031511306763e-02 8.605243638157844543e-03 6.742388010025024414e-02 5.948426574468612671e-02 1.275121867656707764e-01 -2.456657402217388153e-02 1.395319495350122452e-02 2.876852825284004211e-02 -6.092839688062667847e-02 1.909610442817211151e-02 -9.314733743667602539e-02 2.719980850815773010e-02 -8.515024185180664062e-02 4.794805496931076050e-02 3.833500295877456665e-02 2.744327485561370850e-02 3.392289206385612488e-02
-2.054520510137081146e-02 1.657408289611339569e-02 1.328286249190568924e-03 -2.955574542284011841e-02 9.933265857398509979e-03 -3.483084589242935181e-02 -1.631586439907550812e-02 -8.443735423497855663e-04 2.581032738089561462e-02 4.907640162855386734e-03 -5.668832361698150635e-02 2.246530540287494659e-02 -1.066558435559272766e-02 -3.559626266360282898e-02 5.041696131229400635e-02 1.522399950772523880e-02 2.621280774474143982e-02 -2.369309077039361000e-03 -5.270009115338325500e-02 3.684157878160476685e-02 1.672409474849700928e-02 -2.570422925055027008e-02 4.441949725151062012e-02 -4.668197035789489746e-02 3.981154784560203552e-02 2.774244919419288635e-02 3.412328287959098816e-02 3.109313081949949265e-03 -3.729722648859024048e-02 6.270151119679212570e-03 -3.983006998896598816e-02 -1.253904122859239578e-02 -2.031965926289558411e-02 -4.235658422112464905e-02 4.346760734915733337e-02 -4.855172336101531982e-02 3.870327398180961609e-02 -1.659783907234668732e-02 -3.889352083206176758e-02 1.973800919950008392e-02 -2.995557896792888641e-02 4.119279235601425171e-02 3.064293414354324341e-02 4.963327944278717041e-02 9.186147362925112247e-04 -5.636595189571380615e-02 1.046041026711463928e-02 -1.194441225379705429e-02 1.779366098344326019e-02 1.000687479972839355e-02 -4.960571601986885071e-02 3.327355161309242249e-02 -4.026168212294578552e-02 -5.173301324248313904e-02 -1.605387404561042786e-02 5.077715590596199036e-02 -3.560931608080863953e-02 -5.920457770116627216e-04 -3.641898930072784424e-02 3.184277191758155823e-02 -1.905418187379837036e-02 -4.531500115990638733e-02 2.171483263373374939e-02 -4.194038361310958862e-02 4.308374226093292236e-02 2.117336541414260864e-02 2.629326423630118370e-03 1.891580224037170410e-02 -3.179759904742240906e-02 4.290214926004409790e-02 -2.956452372018247843e-04 -4.536575078964233398e-02 1.087206974625587463e-02 -4.674168303608894348e-02 -9.564072825014591217e-03 -4.109764099121093750e-02 -5.695976689457893372e-02 1.046325638890266418e-02 -4.963647574186325073e-02 3.505488485097885132e-02 4.247420281171798706e-02 1.641413383185863495e-02 -8.104451000690460205e-03 -1.849198527634143829e-02 -2.002606727182865143e-02 -2.032168675214052200e-03 3.205364942550659180e-02 3.356816247105598450e-02 1.810293830931186676e-02 4.782484844326972961e-02 -5.218719318509101868e-02 -2.373722847551107407e-03 4.933027923107147217e-02 -1.168079115450382233e-02 -1.799464784562587738e-02 1.606058329343795776e-03 -1.889024861156940460e-02 4.600990936160087585e-02 -5.550827085971832275e-02 -3.711849823594093323e-02 -1.996781304478645325e-02 -1.431404333561658859e-02 -3.263480961322784424e-02 4.740216210484504700e-02 -9.714500047266483307e-04 4.898554086685180664e-02 -3.524003922939300537e-02 -1.993030868470668793e-02 -4.931759834289550781e-02 1.797949895262718201e-02 1.850249432027339935e-02 -4.696454107761383057e-02 -5.720420181751251221e-02 3.673897683620452881e-02 5.112621467560529709e-03 1.632905565202236176e-02 -3.417839296162128448e-03 -4.347114264965057373e-02 -2.110098674893379211e-02 -2.716639824211597443e-02 -2.294670091941952705e-03 2.099112235009670258e-02 2.247850038111209869e-02 -4.036747850477695465e-03 -5.481982976198196411e-02 -4.477990791201591492e-03 3.534675762057304382e-02 1.757381483912467957e-02 2.406402118504047394e-02 -5.133504420518875122e-02 -5.556382238864898682e-02 -3.157659247517585754e-02 -1.446706335991621017e-02 -4.470735415816307068e-02 5.287080071866512299e-03 -1.111373770982027054e-02 -4.394287243485450745e-04 -3.443089663051068783e-04 3.352785133756697178e-04 -1.699078828096389771e-02 -5.445345863699913025e-02 1.202859543263912201e-02 -6.663683801889419556e-03 -3.082064911723136902e-02 -4.922269284725189209e-02 -1.786890090443193913e-03 -5.092203617095947266e-02 -7.988002151250839233e-03 2.423870749771595001e-02 1.546143786981701851e-03 3.235654532909393311e-02 4.822389036417007446e-02 -8.647113107144832611e-03 -3.783230111002922058e-02 -5.247727781534194946e-02 5.860396660864353180e-03 -1.883662864565849304e-02 4.718450829386711121e-02 -1.283954549580812454e-02 4.980179364793002605e-04 2.571488358080387115e-02 1.232869829982519150e-02 -1.631938479840755463e-02 2.931709587574005127e-02 -3.134265914559364319e-02 -4.677918180823326111e-02 3.691148757934570312e-02 -1.006102096289396286e-02 -4.119159653782844543e-03 -1.714701205492019653e-02 -2.189334109425544739e-02 -3.393104299902915955e-02 1.732315123081207275e-02 1.554852351546287537e-02 -4.834668338298797607e-02 5.395878106355667114e-02 -2.941292338073253632e-02 -5.013697221875190735e-02 1.045353431254625320e-02 -1.682397350668907166e-02 -4.707814380526542664e-02 -4.309455677866935730e-02 -4.577665030956268311e-02 -6.075059995055198669e-03 -4.501877725124359131e-02 1.551923993974924088e-02 -3.830720484256744385e-02 4.981784895062446594e-02 4.761688783764839172e-02 -7.927679456770420074e-03 4.382001981139183044e-02 4.165340214967727661e-02 4.429412633180618286e-02 -4.828305542469024658e-02 3.094863891601562500e-02 -6.821542046964168549e-04 -3.711060062050819397e-02 6.805365905165672302e-03 3.472178056836128235e-02 5.576472356915473938e-02 -2.134681865572929382e-02 5.132478103041648865e-02 -8.223008364439010620e-03 1.601531915366649628e-02 -2.091018296778202057e-02 -2.640541084110736847e-02 2.998057194054126740e-02 3.563910722732543945e-02 -4.417309165000915527e-02 -3.286273777484893799e-02 -1.927615515887737274e-02 -2.973388694226741791e-02 2.791048958897590637e-02 -7.975299842655658722e-03 -2.233389765024185181e-02 1.403504982590675354e-02 -5.119167640805244446e-02 4.615990072488784790e-02 -5.016983300447463989e-02 -4.344434291124343872e-02 -1.343080587685108185e-02 -5.664801970124244690e-02 9.944990277290344238e-03 3.191569121554493904e-04 4.336548503488302231e-03 -1.186964940279722214e-02 4.002979397773742676e-02 1.609257608652114868e-02 1.926474273204803467e-02 -5.175131931900978088e-02 4.018876329064369202e-02 -1.058079861104488373e-02 -3.180609270930290222e-02 -1.615604944527149200e-02 1.105208601802587509e-02 4.350943863391876221e-02 -4.186100140213966370e-02 -1.429502945393323898e-02 4.054198041558265686e-02 -4.230591282248497009e-02 1.988406106829643250e-02 1.087554637342691422e-02 -1.246291305869817734e-02 -5.404971912503242493e-02 1.711568422615528107e-02 3.464488312602043152e-02 3.664426133036613464e-02 4.789574071764945984e-02 2.150421403348445892e-02 1.618725806474685669e-02 3.270764276385307312e-02 -4.520009085536003113e-02 2.148324623703956604e-02 5.551657173782587051e-03 3.893273323774337769e-02 -3.613423556089401245e-02 -3.141364455223083496e-02 1.715388149023056030e-02 -2.811565622687339783e-02 5.288993567228317261e-02 1.571252010762691498e-02 -5.669183563441038132e-03 -3.415420278906822205e-02 -2.895681560039520264e-02 -2.281569875776767731e-02 3.349505364894866943e-02 -1.932303421199321747e-02 4.594686999917030334e-02 -4.824316129088401794e-02 -5.329878255724906921e-02 5.345776304602622986e-02 3.439822420477867126e-02 -4.895909875631332397e-02 -3.922547399997711182e-02 4.938527196645736694e-02 -3.880747407674789429e-02 4.752702079713344574e-03 1.438460778445005417e-02 -6.674999371170997620e-03 -6.365485955029726028e-03 2.000476699322462082e-03 -1.802906021475791931e-02 3.039204515516757965e-02 -3.905382240191102028e-03 4.933016374707221985e-02 4.536746069788932800e-02 4.724388942122459412e-03 2.442032657563686371e-02 5.322684533894062042e-03 5.297228693962097168e-03 3.810518607497215271e-02 -3.279468789696693420e-02 5.179643630981445312e-02 3.314867382869124413e-03 -5.403612554073333740e-02 2.735317684710025787e-02 3.080354444682598114e-02 -1.929657533764839172e-02 -2.465747296810150146e-02 -5.794908478856086731e-02 4.231777787208557129e-02 -2.649145573377609253e-02 -3.749639913439750671e-02 -2.368468046188354492e-02 -1.874527707695960999e-02 -1.047900598496198654e-02 -5.185880511999130249e-02 -2.816772088408470154e-02 -1.117570977658033371e-02 -4.825612530112266541e-02 1.008175127208232880e-02 -7.550253998488187790e-03 6.114002317190170288e-03 -1.846111565828323364e-02 -3.371119126677513123e-02 2.311502769589424133e-02 3.985292837023735046e-02 2.734835073351860046e-02 -2.530528791248798370e-02 -2.079259604215621948e-02
-3.623136505484580994e-02 2.100807428359985352e-02 -1.066625956445932388e-02 1.710594259202480316e-02 -2.300067432224750519e-02 -1.083233300596475601e-02 -6.832895334810018539e-03 -4.149599000811576843e-02 -5.186078324913978577e-02 1.410338934510946274e-02 -2.715902216732501984e-02 -1.372569426894187927e-02 -3.676746413111686707e-02 -9.648549603298306465e-04 -4.722296074032783508e-02 8.759013377130031586e-03 -5.692738667130470276e-02 1.736842282116413116e-02 4.980459809303283691e-02 -4.433301836252212524e-02 1.646495983004570007e-02 -2.834962122142314911e-02 2.804510295391082764e-02 -4.964254796504974365e-02 3.300651535391807556e-02 2.486257255077362061e-02 4.830896481871604919e-02 6.338806822896003723e-03 9.497182443737983704e-03 -3.038069792091846466e-02 5.702604353427886963e-02 7.322207558900117874e-03 2.919295802712440491e-02 2.162928134202957153e-02 -6.499600410461425781e-02 4.731797054409980774e-02 3.748702630400657654e-02 4.096846655011177063e-02 -2.030989900231361389e-02 2.476298809051513672e-02 -5.951539147645235062e-03 -1.335259154438972473e-02 -1.400581747293472290e-02 1.277297642081975937e-02 1.223127590492367744e-03 -4.891419783234596252e-03 2.449845708906650543e-02 5.564933642745018005e-02 -1.378421112895011902e-02 2.632110938429832458e-02 2.323814854025840759e-02 -1.035498268902301788e-02 -5.734947323799133301e-02 -4.495712346397340298e-04 -1.030919700860977173e-02 -1.763516478240489960e-02 -3.757686913013458252e-02 -4.884707182645797729e-02 -2.632311917841434479e-02 -1.378904189914464951e-02 1.556100044399499893e-02 2.915330603718757629e-02 4.529088269919157028e-03 1.734371110796928406e-02 -2.744622528553009033e-02 -9.751165285706520081e-03 4.916963726282119751e-02 3.433560952544212341e-02 1.539470860734581947e-03 -2.176519297063350677e-02 2.787214517593383789e-02 -1.978222094476222992e-02 -1.501663681119680405e-02 -2.140103653073310852e-02 -6.697842478752136230e-02 3.211523965001106262e-02 4.717708006501197815e-02 1.673647202551364899e-02 -5.042381584644317627e-03 -6.201987341046333313e-02 -4.197949171066284180e-02 -3.987096715718507767e-03 1.555882114917039871e-02 -1.870091445744037628e-02 -5.226287245750427246e-02 -1.176768261939287186e-02 2.017677947878837585e-02 -1.630897819995880127e-02 2.794414199888706207e-02 -2.206376008689403534e-02 -9.502498432993888855e-03 1.947914995253086090e-02 -4.721057042479515076e-02 3.115703538060188293e-02 1.122628338634967804e-02 4.402910545468330383e-02 -3.629559278488159180e-02 -2.290282864123582840e-03 -1.946877688169479370e-02 1.788927987217903137e-02 -5.649216100573539734e-02 -3.168418630957603455e-02 -1.093010045588016510e-02 6.605888903141021729e-02 -1.166830677539110184e-02 2.084640786051750183e-03 -4.363810643553733826e-02 -4.379884153604507446e-02 1.091656088829040527e-02 -3.205961082130670547e-03 3.735052049160003662e-02 -2.942211180925369263e-02 -1.693802513182163239e-02 -9.066649712622165680e-03 -3.465927392244338989e-02 -1.959468238055706024e-02 -4.907866194844245911e-02 -5.063434597104787827e-03 2.582499198615550995e-02 -4.402611404657363892e-02 -3.032631240785121918e-02 -4.294661059975624084e-02 3.839636594057083130e-02 4.280348494648933411e-02 -5.104681476950645447e-02 -3.114577755331993103e-02 -5.770149454474449158e-02 -4.796769097447395325e-02 9.624873287975788116e-03 2.375167794525623322e-02 5.391223728656768799e-02 3.075857460498809814e-02 -4.637681692838668823e-02 2.228972502052783966e-02 4.656264930963516235e-02 -1.679852791130542755e-02 -1.443590596318244934e-02 6.645793560892343521e-03 -2.338908240199089050e-02 2.947300113737583160e-02 -2.585440874099731445e-02 -1.718875952064990997e-02 -1.914711296558380127e-02 -7.534556556493043900e-03 3.063457645475864410e-02 -2.206246554851531982e-02 -3.616404533386230469e-02 1.543870754539966583e-02 -2.318291179835796356e-02 -1.528858579695224762e-02 3.873085230588912964e-02 -3.767773136496543884e-02 -1.500320062041282654e-02 -3.386862343177199364e-03 -7.010518573224544525e-03 5.604631081223487854e-02 5.498385429382324219e-02 -1.416730228811502457e-02 -1.377942739054560661e-03 -7.352932589128613472e-04 -7.440221309661865234e-02 4.281580448150634766e-02 5.732923373579978943e-02 -2.469362504780292511e-02 1.246728096157312393e-02 -3.696756809949874878e-02 -4.975955560803413391e-02 3.711543977260589600e-02 -8.001460693776607513e-03 -1.625382713973522186e-02 -4.116693511605262756e-02 3.437530621886253357e-02 -4.429964721202850342e-02 -5.384433269500732422e-02 -1.720377244055271149e-02 -2.644348517060279846e-02 -3.491365537047386169e-02 -5.029316525906324387e-03 4.240253940224647522e-02 -3.885090351104736328e-02 -5.746880546212196350e-03 1.395754795521497726e-02 -1.413610391318798065e-02 2.670305222272872925e-02 4.619042202830314636e-02 -3.111596219241619110e-02 1.601412333548069000e-02 4.978376999497413635e-02 2.555725164711475372e-02 2.510181441903114319e-02 2.403406053781509399e-02 3.998444881290197372e-04 -1.725153066217899323e-02 -3.519964963197708130e-02 -5.116356909275054932e-02 -2.779278159141540527e-02 2.322655357420444489e-02 -3.222623141482472420e-03 2.237767726182937622e-02 1.338803768157958984e-02 -2.468450926244258881e-02 4.864727333188056946e-02 -4.202931001782417297e-02 -5.114939436316490173e-02 1.985639333724975586e-02 1.553343236446380615e-02 5.224896594882011414e-02 -5.458326637744903564e-02 -1.574736274778842926e-02 2.893194928765296936e-02 3.601092845201492310e-02 -1.373206265270709991e-03 -3.422133624553680420e-02 -6.290381425060331821e-04 -1.493877358734607697e-02 3.434906154870986938e-02 -1.457540970295667648e-02 -3.453684225678443909e-02 7.350654900074005127e-02 -9.790558367967605591e-03 -3.139526769518852234e-02 -5.048243328928947449e-02 -5.151292681694030762e-02 -1.903844438493251801e-02 -2.119604684412479401e-02 -2.913218364119529724e-02 -5.860703065991401672e-02 1.624117419123649597e-02 -6.409687548875808716e-02 -3.354525938630104065e-02 -3.756067529320716858e-02 -2.479598671197891235e-02 5.274553969502449036e-02 -5.914152134209871292e-03 3.159423545002937317e-02 -4.655808582901954651e-02 -1.808375306427478790e-02 1.380772981792688370e-02 -5.753592401742935181e-02 -6.365327537059783936e-02 1.555942744016647339e-02 -4.071096703410148621e-02 -3.310320153832435608e-02 1.869985833764076233e-02 3.656177967786788940e-02 5.043702945113182068e-02 -2.379798330366611481e-02 -3.365510702133178711e-02 4.738761857151985168e-02 5.601891875267028809e-02 -3.363683447241783142e-02 3.002342209219932556e-02 1.519577857106924057e-02 3.805001499131321907e-03 1.013733353465795517e-02 -1.062037982046604156e-02 -5.780625715851783752e-02 -4.790838435292243958e-02 -5.731391534209251404e-02 -6.439403444528579712e-02 1.015904173254966736e-02 9.167645871639251709e-02 1.676066778600215912e-02 -7.446949370205402374e-03 2.290881983935832977e-02 3.716284409165382385e-02 -8.075319230556488037e-03 -4.978262633085250854e-02 -2.820241264998912811e-02 -5.394934117794036865e-02 3.656473383307456970e-02 2.450415492057800293e-02 -3.041061013936996460e-02 -3.758163750171661377e-02 -6.347486749291419983e-03 -1.927293464541435242e-02 -3.260292112827301025e-02 4.017519578337669373e-02 -3.348568454384803772e-02 -1.650657318532466888e-02 -4.464592784643173218e-02 5.849853903055191040e-02 -4.156359657645225525e-02 4.125826805830001831e-02 4.071395844221115112e-02 -2.558566071093082428e-02 1.612585224211215973e-02 -4.421636462211608887e-03 -3.043100982904434204e-02 -2.250970900058746338e-02 -1.189559139311313629e-02 -5.504899099469184875e-02 -7.054248452186584473e-02 -5.225212872028350830e-02 4.005022346973419189e-02 6.934230215847492218e-03 -3.753116726875305176e-02 3.707633167505264282e-02 -4.066942259669303894e-02 -4.904556274414062500e-02 -5.324218422174453735e-02 9.642171673476696014e-03 1.098255813121795654e-02 3.751399368047714233e-02 3.429939597845077515e-02 -2.755229547619819641e-02 -1.920518698170781136e-03 3.633643686771392822e-02 3.147854655981063843e-02 4.356973618268966675e-02 -6.831359583884477615e-03 3.491570055484771729e-02 2.578917518258094788e-02 -3.518501296639442444e-02 3.215964511036872864e-02 3.329933062195777893e-02 2.068055979907512665e-02 5.571289360523223877e-02 1.260913256555795670e-02 4.261180013418197632e-02
-1.245928928256034851e-02 -1.865664497017860413e-02 -4.397778585553169250e-02 -5.035884305834770203e-02 -3.343804040923714638e-03 4.139408469200134277e-02 -1.072993129491806030e-02 -8.476641029119491577e-03 -1.621790416538715363e-02 2.918143197894096375e-02 -1.778136380016803741e-02 3.574611246585845947e-02 2.836836129426956177e-02 -2.426400780677795410e-02 -4.647238925099372864e-02 8.043105714023113251e-03 2.340301498770713806e-02 -2.719728276133537292e-02 5.354311689734458923e-02 1.466036867350339890e-02 -1.512071955949068069e-02 2.293645031750202179e-02 -4.204414412379264832e-02 4.623055085539817810e-02 1.871753484010696411e-02 3.215530142188072205e-02 -2.096545323729515076e-02 -1.117772888392210007e-02 2.860570698976516724e-02 -1.856934651732444763e-02 -3.689904510974884033e-02 -5.457683280110359192e-02 -1.545877847820520401e-02 4.700026940554380417e-03 -2.461539395153522491e-02 -5.331878364086151123e-02 6.361177563667297363e-02 2.772624604403972626e-02 -2.741716615855693817e-02 -2.017486840486526489e-02 -6.020652130246162415e-02 1.245007198303937912e-02 -5.831139534711837769e-02 -1.650611124932765961e-02 -4.585367813706398010e-02 -4.525686427950859070e-02 -1.638859510421752930e-02 2.546832710504531860e-02 5.181942135095596313e-02 3.349298611283302307e-02 5.877764429897069931e-03 -1.330526266247034073e-02 1.671104319393634796e-02 -4.984156228601932526e-03 -4.385431855916976929e-02 -5.688037723302841187e-02 1.490796823054552078e-02 -2.835875377058982849e-02 -4.167136177420616150e-02 3.773330524563789368e-02 -1.151767466217279434e-02 -4.626602679491043091e-02 -1.972321793437004089e-02 4.712127521634101868e-02 -5.007814615964889526e-02 5.360953509807586670e-02 1.849892176687717438e-02 -6.247282400727272034e-02 -3.898221999406814575e-02 7.421734277158975601e-03 2.413821592926979065e-02 -2.455268241465091705e-02 4.195541143417358398e-02 2.866933494806289673e-02 2.511194907128810883e-02 -1.187772210687398911e-02 -9.861032478511333466e-03 -3.965478017926216125e-02 -6.398331373929977417e-02 -3.827092796564102173e-02 -2.808388695120811462e-02 5.041571799665689468e-03 3.531121835112571716e-02 -9.551974013447761536e-03 -1.675885729491710663e-02 -2.028328180313110352e-02 5.143123120069503784e-02 3.630879521369934082e-02 -4.582994058728218079e-02 3.549269959330558777e-02 -8.380640298128128052e-03 -4.116961359977722168e-02 1.547646895051002502e-02 2.444633096456527710e-02 5.784079059958457947e-02 -3.932636231184005737e-03 2.539952471852302551e-02 1.783010177314281464e-02 4.979971423745155334e-02 -5.030238628387451172e-02 -5.441207438707351685e-02 2.387106977403163910e-02 9.087116457521915436e-03 9.819280356168746948e-03 3.646076843142509460e-02 -2.243251074105501175e-03 -3.651104867458343506e-02 -1.421401184052228928e-02 1.057145651429891586e-02 -2.789410576224327087e-02 1.049589458853006363e-02 3.400132805109024048e-02 -1.652194745838642120e-02 1.235628034919500351e-02 3.185594826936721802e-02 4.359741508960723877e-02 -8.318866603076457977e-03 -1.239348016679286957e-02 1.136372331529855728e-02 -3.461938723921775818e-02 4.114095121622085571e-02 9.960256516933441162e-03 -4.997454211115837097e-02 -4.225831478834152222e-02 -3.473936021327972412e-02 8.657251484692096710e-03 -7.977138273417949677e-03 2.969202026724815369e-02 4.165384545922279358e-02 -5.815212149173021317e-03 9.643054567277431488e-03 3.902642428874969482e-02 -1.576159335672855377e-02 3.339263424277305603e-02 -2.829585410654544830e-02 -6.961145903915166855e-03 3.287880122661590576e-02 -4.495822265744209290e-02 -3.510395810008049011e-02 -2.107195183634757996e-02 -4.692607372999191284e-02 5.543499439954757690e-02 2.720902441069483757e-03 1.587397605180740356e-02 -5.268731340765953064e-02 -3.308776393532752991e-02 -1.540253218263387680e-02 -8.866869844496250153e-03 -4.569211974740028381e-02 1.141215488314628601e-02 2.291867323219776154e-02 -5.657354742288589478e-02 -3.323549777269363403e-02 1.208734419196844101e-02 5.240045720711350441e-04 -3.524813801050186157e-02 3.331534191966056824e-02 -9.793763980269432068e-03 3.028437495231628418e-02 -4.089419543743133545e-02 -2.380351535975933075e-02 -3.706873953342437744e-02 -1.466584019362926483e-02 3.286452963948249817e-02 5.668107885867357254e-03 -5.198938399553298950e-02 8.046329952776432037e-03 -4.656887426972389221e-02 -2.699081227183341980e-02 3.382264077663421631e-02 1.642378792166709900e-02 2.622558735311031342e-02 1.555051654577255249e-02 5.613308399915695190e-03 -3.805480152368545532e-02 -4.884590581059455872e-02 -1.820851862430572510e-02 -4.547872021794319153e-02 4.278975352644920349e-02 1.383645739406347275e-02 7.604219950735569000e-03 1.302200928330421448e-02 1.779857277870178223e-02 -1.083663385361433029e-02 2.498675696551799774e-02 -3.628447279334068298e-02 5.424405261874198914e-02 4.732292145490646362e-02 2.771140262484550476e-02 2.355897612869739532e-02 2.528361231088638306e-02 1.893615536391735077e-02 1.846484839916229248e-02 -2.703570527955889702e-03 1.827679225243628025e-03 -4.774184525012969971e-02 -8.037169463932514191e-03 1.086929161101579666e-02 -5.156834051012992859e-02 -2.403886243700981140e-02 4.161347460467368364e-04 4.938530176877975464e-02 5.432534962892532349e-02 5.056848749518394470e-02 1.548876147717237473e-02 -4.411301761865615845e-02 -3.976157307624816895e-02 1.209199614822864532e-02 9.736399166285991669e-03 2.057844586670398712e-02 -6.403507292270660400e-02 -3.996866568922996521e-02 -3.358655422925949097e-02 4.658970609307289124e-02 -5.747069418430328369e-02 -2.712984383106231689e-02 5.704508721828460693e-02 9.304861538112163544e-03 -2.737270481884479523e-02 -1.615811884403228760e-02 6.877841427922248840e-03 4.603160545229911804e-02 2.631332166492938995e-02 3.012866713106632233e-02 -2.909241989254951477e-02 2.973417052999138832e-03 -4.551833868026733398e-02 -3.899944946169853210e-02 -3.087386861443519592e-02 2.393276058137416840e-02 -2.519010007381439209e-02 -5.896915495395660400e-02 4.007011651992797852e-02 -2.906734822317957878e-03 -2.039824612438678741e-03 1.207650545984506607e-02 -2.220107056200504303e-02 9.259856306016445160e-03 3.454728797078132629e-02 -2.300054021179676056e-02 4.378887265920639038e-02 2.014274708926677704e-02 2.034617355093359947e-03 -5.598783865571022034e-02 5.109170451760292053e-02 2.011142671108245850e-02 4.214942827820777893e-02 1.193684246391057968e-02 2.827590331435203552e-02 4.666629433631896973e-02 1.310115307569503784e-02 9.661625139415264130e-03 -5.314623564481735229e-02 -9.884682483971118927e-03 -3.468255326151847839e-02 4.267651960253715515e-02 1.116529386490583420e-02 -4.156993702054023743e-02 -1.245009899139404297e-02 -1.796483062207698822e-02 5.607771500945091248e-02 3.555964305996894836e-02 3.196595609188079834e-02 5.464792624115943909e-02 -4.790528118610382080e-02 1.213274896144866943e-02 -3.489766642451286316e-02 -5.401608534157276154e-03 -2.196760848164558411e-02 1.325628720223903656e-02 5.450872704386711121e-02 5.162098258733749390e-02 -2.355762943625450134e-02 4.569433256983757019e-02 -1.550353784114122391e-02 -1.289277058094739914e-02 -2.207760512828826904e-02 -3.683382272720336914e-02 -1.610117033123970032e-02 -1.023225206881761551e-02 -4.974667355418205261e-02 3.105426393449306488e-02 -1.237664953805506229e-03 1.900530047714710236e-02 -5.206120014190673828e-02 8.351674303412437439e-03 -8.006008341908454895e-03 -3.900342807173728943e-02 2.827603835612535477e-03 -5.072707310318946838e-02 -3.654388710856437683e-02 -2.618509344756603241e-02 4.740138724446296692e-02 -1.675644330680370331e-02 -1.382561400532722473e-02 -1.779134385287761688e-02 5.544495955109596252e-02 5.827271565794944763e-02 -2.291622012853622437e-02 -1.661530695855617523e-02 -5.969574674963951111e-02 -2.110910974442958832e-02 3.449527546763420105e-02 -6.504534929990768433e-02 -3.838537633419036865e-02 1.993641629815101624e-02 -5.322229117155075073e-02 -2.302356436848640442e-02 -4.143872112035751343e-02 -5.232412368059158325e-02 -1.505782362073659897e-02 1.224084198474884033e-02 -1.302481908351182938e-02 -1.564019732177257538e-02 -5.085560027509927750e-03 -1.306594721972942352e-02 4.241623356938362122e-02 1.300232019275426865e-02 -5.784492939710617065e-02 -5.145924165844917297e-02
7.797349989414215088e-02 -9.764444082975387573e-03 -1.171384286135435104e-02 3.783341497182846069e-02 6.089216843247413635e-02 -1.095828879624605179e-02 -1.070115491747856140e-01 -9.155955910682678223e-02 -2.852192148566246033e-02 4.827636480331420898e-02 2.209740132093429565e-02 -2.069805376231670380e-02 9.591066092252731323e-02 1.128359660506248474e-01 -9.867210686206817627e-02 -4.474146664142608643e-02 -4.606483876705169678e-02 -1.978468149900436401e-02 5.080227926373481750e-02 4.200199246406555176e-02 -8.374414592981338501e-02 5.363057367503643036e-03 -1.252376008778810501e-02 4.191839694976806641e-02 -2.011631242930889130e-02 -6.026663258671760559e-02 3.357522422447800636e-03 -6.907899677753448486e-02 2.994772791862487793e-02 3.702277317643165588e-02 -4.396057873964309692e-02 -8.486447483301162720e-02 2.976532466709613800e-02 -1.276648044586181641e-02 7.188113871961832047e-03 -1.046337001025676727e-02 -4.204312339425086975e-02 -1.069052238017320633e-02 -1.649470999836921692e-02 -2.896043239161372185e-03 4.353969544172286987e-02 -2.846306189894676208e-03 1.341899856925010681e-02 -5.568785965442657471e-02 -4.903800785541534424e-02 -6.143573671579360962e-02 -1.788043789565563202e-02 4.915449023246765137e-02 -3.188753128051757812e-02 3.062578663229942322e-02 -1.850371132604777813e-03 6.198875606060028076e-02 -1.099899969995021820e-02 -1.581649295985698700e-02 2.775384113192558289e-02 -6.862453185021877289e-03 1.175982505083084106e-02 -8.116336911916732788e-02 -5.407800525426864624e-02 8.851183205842971802e-02 -9.539485722780227661e-02 -5.794857442378997803e-02 4.698804020881652832e-02 -3.084752522408962250e-02 -8.249747008085250854e-02 5.177430063486099243e-02 -1.357949618250131607e-02 1.158065870404243469e-01 -1.450362731702625751e-03 1.458298321813344955e-02 -5.410698801279067993e-02 -1.909109018743038177e-02 2.478242293000221252e-02 2.305530942976474762e-02 -8.794441074132919312e-02 3.338117897510528564e-02 8.407592773437500000e-03 -1.405462250113487244e-02 -9.112301468849182129e-02 -2.862248383462429047e-02 -6.494418485090136528e-04 -1.101343240588903427e-02 -1.068661734461784363e-02 -4.222714528441429138e-02 5.119386687874794006e-02 4.176078736782073975e-02 -6.096027325838804245e-03 4.390101507306098938e-02 -8.316448889672756195e-03 -4.135730676352977753e-03 4.683201014995574951e-02 5.505128763616085052e-03 6.714048504363745451e-05 1.929058879613876343e-02 -9.365556389093399048e-02 5.661164596676826477e-02 -2.940318919718265533e-02 -1.662269793450832367e-02 4.933195933699607849e-02 6.292792409658432007e-02 -1.027833484113216400e-02 7.549811154603958130e-02 -8.773763664066791534e-03 -9.313391521573066711e-03 -3.125268593430519104e-02 6.866573542356491089e-02 8.238540962338447571e-03 2.968934923410415649e-02 5.439113453030586243e-02 -4.179581627249717712e-02 -3.126723691821098328e-02 -4.675710108131170273e-03 3.303270041942596436e-02 -1.694194413721561432e-02 -1.070232316851615906e-02 -1.126705929636955261e-01 6.377001851797103882e-02 6.114800926297903061e-03 1.007606368511915207e-02 -2.483731694519519806e-02 6.883343309164047241e-02 -4.043717682361602783e-02 3.564186021685600281e-02 -9.907420724630355835e-02 4.609109461307525635e-02 -1.294291019439697266e-01 -7.219935208559036255e-02 2.109724655747413635e-02 -4.549534991383552551e-02 6.173873785883188248e-03 4.173870012164115906e-02 2.239327132701873779e-02 2.270693518221378326e-02 9.268479794263839722e-02 -3.703090175986289978e-02 2.904799394309520721e-02 3.827257454395294189e-02 7.865743339061737061e-02 8.450760692358016968e-02 4.973821341991424561e-02 8.850938826799392700e-02 1.860474795103073120e-02 -7.953741401433944702e-02 -2.058799006044864655e-02 -5.922282580286264420e-03 4.746701940894126892e-02 -2.070907317101955414e-02 5.575317144393920898e-02 1.897585764527320862e-02 -4.739706404507160187e-03 8.243866264820098877e-02 4.014221206307411194e-02 -8.952029980719089508e-03 -3.816962474957108498e-03 3.769538551568984985e-02 2.172463200986385345e-02 1.245469376444816589e-01 4.094623029232025146e-02 -1.449211221188306808e-02 -8.195495605468750000e-02 -2.316930331289768219e-02 -3.374923765659332275e-02 5.917572416365146637e-04 -5.759236961603164673e-02 -4.841442778706550598e-02 -9.796530008316040039e-02 -1.349936127662658691e-01 2.839204855263233185e-02 3.286157548427581787e-02 -2.266761474311351776e-02 -1.396547257900238037e-02 -1.863642781972885132e-02 -1.273219566792249680e-02 -7.301500439643859863e-02 -6.461026519536972046e-02 8.320020139217376709e-02 -6.183047778904438019e-03 2.431890927255153656e-02 1.826393604278564453e-02 -2.126991376280784607e-02 -3.155430313199758530e-03 2.677931077778339386e-02 -1.441687811166048050e-02 3.178084269165992737e-03 -9.328295476734638214e-03 -6.433125585317611694e-02 6.487064808607101440e-02 5.062897130846977234e-02 -1.104068681597709656e-01 -3.128748387098312378e-02 -3.701991960406303406e-02 8.700033649802207947e-03 2.306097000837326050e-02 1.829433068633079529e-02 -4.401738941669464111e-02 -4.326792433857917786e-03 -2.708996273577213287e-02 1.968243531882762909e-02 -7.376013789325952530e-03 2.234605699777603149e-02 1.211487501859664917e-02 1.040205825120210648e-03 3.000628389418125153e-02 2.066674083471298218e-02 -6.829480081796646118e-02 5.037343502044677734e-02 -5.957138538360595703e-02 3.004763275384902954e-02 9.817849844694137573e-03 5.837348103523254395e-02 2.333837933838367462e-02 1.614663749933242798e-02 -3.819954767823219299e-02 6.250557303428649902e-02 -5.070596560835838318e-02 -2.559128683060407639e-03 -7.803695648908615112e-02 -3.184695169329643250e-02 -8.404066413640975952e-02 4.274564795196056366e-03 7.300295401364564896e-03 1.114042103290557861e-02 -5.847494676709175110e-02 -1.293698847293853760e-01 -5.685380101203918457e-02 -3.846193104982376099e-02 4.374279081821441650e-02 -5.603331699967384338e-02 -6.838860362768173218e-02 -3.194370307028293610e-03 8.158497512340545654e-02 1.408189237117767334e-01 3.835929930210113525e-02 7.141282316297292709e-03 4.205027222633361816e-02 7.181717455387115479e-02 -3.936832398176193237e-02 -9.057082980871200562e-02 -4.309688694775104523e-03 3.120491281151771545e-02 -1.295713800936937332e-02 4.493246669881045818e-04 5.246577784419059753e-02 4.333547875285148621e-02 4.019237589091062546e-03 7.266432046890258789e-03 -2.117069810628890991e-02 -1.477011828683316708e-03 3.452035039663314819e-02 4.301064088940620422e-02 5.060771852731704712e-02 -3.008085303008556366e-02 -3.935876861214637756e-02 3.766201809048652649e-02 -1.356131676584482193e-02 -6.467901915311813354e-02 5.527460947632789612e-02 2.867702208459377289e-02 4.430172219872474670e-02 -2.548139914870262146e-02 7.122129318304359913e-04 -5.381889268755912781e-02 -2.759799174964427948e-02 -1.269010361284017563e-03 3.100026026368141174e-02 2.058905921876430511e-02 2.838927693665027618e-02 -1.136413067579269409e-01 -3.896873816847801208e-02 4.707339033484458923e-02 2.491348236799240112e-02 -1.305055990815162659e-02 -1.033429987728595734e-02 6.875648349523544312e-02 -3.177419304847717285e-02 3.838130459189414978e-02 -1.397949829697608948e-02 -2.639571670442819595e-03 3.974371030926704407e-02 1.003664508461952209e-01 3.119850158691406250e-02 4.358265548944473267e-02 1.186657771468162537e-01 8.052646368741989136e-02 1.100234463810920715e-01 7.860812544822692871e-02 2.547161281108856201e-02 5.720155686140060425e-02 -4.574571177363395691e-02 4.714683070778846741e-02 6.923161447048187256e-03 1.478516776114702225e-02 -7.303120195865631104e-02 2.207218669354915619e-02 4.367929324507713318e-02 1.474284827709197998e-01 4.169444739818572998e-02 -9.093966335058212280e-02 -4.924005642533302307e-02 -1.371118240058422089e-02 -1.188012734055519104e-01 -7.342518866062164307e-02 2.254158444702625275e-02 7.766637206077575684e-02 2.193577587604522705e-02 -9.794721007347106934e-02 -3.855046257376670837e-02 -1.910243066959083080e-03 -1.489305496215820312e-01 -6.032019108533859253e-02 -3.260496631264686584e-02 2.388722822070121765e-02 -1.218979880213737488e-01 -2.438215911388397217e-02 2.922592498362064362e-02 -7.729227095842361450e-02 5.274920165538787842e-02 1.132438704371452332e-01 -6.107925623655319214e-02 -6.074759364128112793e-02
2.105500735342502594e-02 7.835584692656993866e-03 -5.001384019851684570e-02 4.558322578668594360e-02 -4.718461632728576660e-02 3.253128379583358765e-02 -5.405224114656448364e-02 5.175211117602884769e-04 3.763080760836601257e-02 -1.482185907661914825e-02 -5.443817377090454102e-02 -2.680115960538387299e-02 4.469538107514381409e-02 -1.201104279607534409e-02 3.438954427838325500e-02 3.420571330934762955e-03 4.779267311096191406e-02 -7.137837354093790054e-03 4.381557554006576538e-02 -1.012687687762081623e-03 3.144754469394683838e-02 2.089957240968942642e-03 4.777085408568382263e-02 4.359992220997810364e-02 -5.327783897519111633e-02 2.908828109502792358e-02 1.770441420376300812e-02 -1.458925008773803711e-02 3.055853210389614105e-02 4.707030206918716431e-02 -2.512147277593612671e-02 2.843050472438335419e-02 2.103463746607303619e-02 1.960217207670211792e-02 -4.688212275505065918e-02 5.273764953017234802e-02 4.214744269847869873e-02 1.248611370101571083e-03 -4.136167094111442566e-02 -9.435114450752735138e-03 4.894961416721343994e-02 -3.089265897870063782e-02 2.729094401001930237e-02 -2.780586108565330505e-02 -2.464182116091251373e-02 1.790170371532440186e-02 3.359160944819450378e-02 -2.097129635512828827e-02 -4.173211380839347839e-02 3.894835710525512695e-03 -7.365652360022068024e-03 -4.740409553050994873e-02 -1.814555004239082336e-02 -4.899547249078750610e-02 7.652563508599996567e-03 3.381079435348510742e-02 -8.031344041228294373e-03 6.190993823111057281e-03 1.167761255055665970e-02 -3.153122961521148682e-02 5.663775652647018433e-02 6.431262474507093430e-03 3.719112649559974670e-02 -2.185959368944168091e-02 1.921667950227856636e-03 -6.069570034742355347e-02 -2.722573280334472656e-02 8.488075109198689461e-04 -5.404395982623100281e-02 -5.160271376371383667e-02 -5.920735746622085571e-02 -3.563670441508293152e-02 2.652184478938579559e-02 -3.450140124186873436e-03 -5.250576511025428772e-02 -4.414066206663846970e-03 -4.424188286066055298e-02 -6.195606291294097900e-02 -3.801898658275604248e-02 -3.619789704680442810e-02 2.394691575318574905e-03 1.149693224579095840e-02 -5.023578181862831116e-02 -3.659977763891220093e-02 -2.925734594464302063e-02 -4.915385320782661438e-02 1.411499455571174622e-02 -1.081185601651668549e-02 -6.320180371403694153e-03 -1.569855399429798126e-02 5.358157679438591003e-02 -5.237816274166107178e-02 -2.035780996084213257e-02 -4.136088490486145020e-02 1.308356598019599915e-02 -4.900857061147689819e-02 8.735408075153827667e-03 -2.599185332655906677e-02 -5.029015243053436279e-02 -5.276570841670036316e-02 -2.504473365843296051e-02 1.780349016189575195e-02 -4.451312124729156494e-02 -6.451731082051992416e-03 -8.556894958019256592e-03 7.910482585430145264e-03 -2.819441631436347961e-02 -3.165494650602340698e-02 2.702126838266849518e-02 7.274657022207975388e-03 -4.391536116600036621e-03 2.821059711277484894e-02 3.464572131633758545e-02 1.396491751074790955e-02 4.646467510610818863e-03 -4.931249469518661499e-02 3.669808804988861084e-02 -2.153652906417846680e-02 4.092132300138473511e-02 -2.782894670963287354e-02 -3.824402391910552979e-02 -4.227447882294654846e-02 -1.857990515418350697e-03 -8.518907241523265839e-03 -1.897765905596315861e-03 3.103324025869369507e-02 -5.598254874348640442e-02 3.478466765955090523e-03 5.581422522664070129e-02 1.709174015559256077e-03 -4.205186292529106140e-02 -2.498677698895335197e-03 -4.587123170495033264e-02 -3.552510589361190796e-02 -3.757902979850769043e-02 2.799204364418983459e-02 2.689841389656066895e-02 -3.033645823597908020e-02 1.775981858372688293e-02 -6.225457042455673218e-02 -3.813634440302848816e-02 -7.732824888080358505e-03 -2.916088514029979706e-02 6.925549823790788651e-04 3.110001236200332642e-02 5.546568334102630615e-02 -1.634431257843971252e-02 4.589169472455978394e-02 -1.294659171253442764e-02 -4.431252554059028625e-02 -1.155048236250877380e-02 8.868371136486530304e-03 3.170100972056388855e-02 4.615375027060508728e-02 -4.092288389801979065e-02 6.173202767968177795e-02 3.948505222797393799e-02 7.092577405273914337e-03 -4.684953764081001282e-02 1.139798201620578766e-02 -8.915266953408718109e-03 -3.653160110116004944e-02 -4.177017509937286377e-02 -4.849729686975479126e-02 -2.186488918960094452e-02 -5.102333612740039825e-03 3.820225596427917480e-02 4.266976937651634216e-02 -2.918453700840473175e-02 -9.390953928232192993e-03 4.188872128725051880e-02 2.620756253600120544e-02 -9.947890415787696838e-03 1.129026804119348526e-02 -5.261018499732017517e-02 8.808254264295101166e-03 -4.852932877838611603e-03 3.610564768314361572e-02 -1.367444731295108795e-02 -5.871339887380599976e-02 -1.449124421924352646e-02 -1.192459487356245518e-03 1.419630460441112518e-02 -5.803766474127769470e-02 -3.137837350368499756e-02 3.591081872582435608e-02 4.542743414640426636e-02 2.059819176793098450e-02 2.683518826961517334e-02 7.990051805973052979e-02 -3.252431005239486694e-02 1.605000719428062439e-02 5.390905588865280151e-02 5.442879348993301392e-02 -1.278853137046098709e-02 4.694371018558740616e-03 -4.884192347526550293e-02 3.683811053633689880e-03 2.374690584838390350e-02 9.638180956244468689e-03 -2.088936045765876770e-02 -5.601307377219200134e-02 3.580865217372775078e-03 -4.335235059261322021e-02 1.308442838490009308e-02 -4.745883867144584656e-02 3.409311547875404358e-02 -5.229992792010307312e-02 1.423494517803192139e-02 3.136416897177696228e-02 5.193017423152923584e-02 5.698785185813903809e-02 -2.458265749737620354e-03 3.785524144768714905e-02 -1.044227043166756630e-03 5.576191470026969910e-02 4.527300596237182617e-02 -2.630117349326610565e-02 3.423864021897315979e-02 4.369722679257392883e-03 4.205140843987464905e-02 7.478383928537368774e-02 -2.806958183646202087e-02 -2.095678634941577911e-02 -5.794888734817504883e-02 -4.371112957596778870e-02 3.613606467843055725e-02 1.109166629612445831e-02 -4.355480894446372986e-02 1.336316950619220734e-02 4.209572821855545044e-02 -5.538448318839073181e-02 2.763008326292037964e-02 -1.634758152067661285e-02 1.719808392226696014e-02 -4.393446072936058044e-02 -1.172190066426992416e-02 1.695691794157028198e-02 -4.121602326631546021e-02 -2.918650768697261810e-02 3.351181373000144958e-02 -3.077820874750614166e-02 3.236908838152885437e-02 7.415730971843004227e-03 2.626017667353153229e-02 2.573783323168754578e-02 -2.154134027659893036e-02 -5.179043114185333252e-02 -4.287666454911231995e-02 -4.211942851543426514e-02 -2.479205466806888580e-02 1.347364112734794617e-02 -3.704573959112167358e-02 -3.574438020586967468e-02 1.384640391916036606e-02 -2.319856360554695129e-02 1.590918749570846558e-02 5.585385486483573914e-03 -1.228977367281913757e-02 -5.214116722345352173e-02 2.710200846195220947e-02 1.577221043407917023e-02 -3.164082765579223633e-02 2.019222825765609741e-02 5.743212997913360596e-02 1.169622689485549927e-02 1.910772360861301422e-02 -3.646406345069408417e-03 6.422996520996093750e-04 -2.907418645918369293e-02 1.431119814515113831e-02 -3.510052338242530823e-02 -4.796640947461128235e-02 4.533170163631439209e-02 3.574820607900619507e-02 4.095850139856338501e-02 -2.906735427677631378e-02 4.186013713479042053e-02 -5.472461506724357605e-02 -2.522522583603858948e-02 1.423249579966068268e-02 3.554942831397056580e-02 -5.604593083262443542e-02 4.101538658142089844e-02 3.404848277568817139e-03 1.516052614897489548e-02 -4.072204697877168655e-03 6.249508634209632874e-02 -4.160023760050535202e-03 -8.033639751374721527e-04 -2.661806344985961914e-02 -5.037185549736022949e-02 3.089835681021213531e-02 -2.221572399139404297e-02 -2.562418207526206970e-02 -2.583665773272514343e-04 -4.886237904429435730e-02 2.158978208899497986e-02 2.813286520540714264e-02 3.519127890467643738e-02 5.787429865449666977e-03 -5.387930944561958313e-02 1.223489176481962204e-02 1.868828758597373962e-02 5.293473228812217712e-02 -4.483592510223388672e-02 -3.050882555544376373e-02 -5.456431955099105835e-02 -3.776777535676956177e-02 4.978534951806068420e-02 -4.368123039603233337e-02 1.846167631447315216e-02 -6.763293873518705368e-03 5.543691664934158325e-02 7.184283435344696045e-02 3.257478028535842896e-02 5.862228572368621826e-03 6.429631263017654419e-02 4.576387256383895874e-02 -1.064071431756019592e-02
