-2.012733370065689087e-01 2.813966013491153717e-02 -2.433831803500652313e-02 4.814008995890617371e-02 -2.190051600337028503e-02 -1.708888858556747437e-01 -2.296709269285202026e-01 1.201311126351356506e-01 -1.081857606768608093e-01 -1.062966734170913696e-01 1.583395153284072876e-01 1.518639773130416870e-01 -1.615635992493480444e-04 -6.026908755302429199e-02 2.578434944152832031e-01 2.842674851417541504e-01 2.782430052757263184e-01 8.814147859811782837e-02 5.241215601563453674e-02 7.028818130493164062e-02 -2.519479095935821533e-01 1.578724682331085205e-01 -3.958718851208686829e-02 -2.313226461410522461e-01 -2.106533646583557129e-01 5.573126301169395447e-02 -6.848568469285964966e-02 1.178469359874725342e-01 1.449176222085952759e-01 9.632359445095062256e-02 1.278455853462219238e-01 2.642759382724761963e-01 -7.805453240871429443e-02 8.819818496704101562e-02 2.060743719339370728e-01 -1.579730063676834106e-01 -1.398801803588867188e-01 -2.268825769424438477e-01 1.956365071237087250e-03 1.681513525545597076e-02 1.500782519578933716e-01 6.323487311601638794e-02 -3.771520033478736877e-02 -2.960788458585739136e-02 -4.188190400600433350e-02 -3.287561833858489990e-01 1.328418105840682983e-01 4.562336206436157227e-02 2.427202910184860229e-01 -1.227629110217094421e-01
-6.107862666249275208e-02 1.050822287797927856e-01 -3.963835909962654114e-02 1.270892769098281860e-01 1.342590749263763428e-01 -3.472932055592536926e-02 1.515521109104156494e-01 -8.766935020685195923e-02 -1.358092129230499268e-01 -1.012519374489784241e-01 -1.531055867671966553e-01 1.136423870921134949e-01 -1.444265432655811310e-02 -1.361838877201080322e-01 -4.390687048435211182e-01 2.120715379714965820e-01 -1.078303996473550797e-02 -2.011474519968032837e-01 1.292136460542678833e-01 -1.228076890110969543e-01 4.911883547902107239e-02 1.672011315822601318e-01 1.592751890420913696e-01 -3.672646582126617432e-01 -8.256895840167999268e-02 1.112594231963157654e-01 -1.377793401479721069e-01 -1.245784834027290344e-01 1.619396507740020752e-01 1.877823024988174438e-01 2.327844798564910889e-01 6.219986453652381897e-02 1.555098444223403931e-01 -9.357594884932041168e-03 -1.750860363245010376e-01 -6.715872138738632202e-02 -1.851495504379272461e-01 -1.272505819797515869e-01 -1.908290572464466095e-02 -8.550281822681427002e-02 -2.411982566118240356e-01 -1.034941896796226501e-01 1.086619496345520020e-02 -3.813362121582031250e-02 9.847126156091690063e-02 2.570345699787139893e-01 1.089558079838752747e-01 2.350459843873977661e-01 1.544577330350875854e-01 7.224544137716293335e-02
9.014043211936950684e-02 -2.801094651222229004e-01 -3.384414315223693848e-02 -1.903210729360580444e-01 8.762786537408828735e-02 -2.638879120349884033e-01 -1.038409322500228882e-01 -1.393590718507766724e-01 1.864821165800094604e-01 1.562573611736297607e-01 -7.735079526901245117e-02 1.004196107387542725e-01 2.965059578418731689e-01 -1.107587013393640518e-02 -1.039533168077468872e-01 1.646461039781570435e-01 -3.261196985840797424e-02 -4.519486054778099060e-02 -1.193200647830963135e-01 -2.369537800550460815e-01 -2.525810897350311279e-02 -1.187949031591415405e-01 2.995474636554718018e-01 6.698117405176162720e-02 2.111096680164337158e-02 2.078127712011337280e-01 -5.344148352742195129e-02 -5.207597464323043823e-02 2.656969130039215088e-01 -1.070332620292901993e-02 9.645055979490280151e-02 3.073585033416748047e-01 -2.425438016653060913e-01 2.062814086675643921e-01 1.959527432918548584e-01 1.950194239616394043e-01 -2.298585176467895508e-01 7.206528633832931519e-02 -3.074512630701065063e-02 -1.127708479762077332e-01 4.277831688523292542e-02 2.594905197620391846e-01 -5.146825686097145081e-02 -3.889024257659912109e-02 1.173567865043878555e-02 -2.555221021175384521e-01 6.427022814750671387e-02 1.222646087408065796e-01 -3.119617700576782227e-01 3.103940002620220184e-02
5.726198852062225342e-02 2.304120361804962158e-01 6.029811874032020569e-02 1.175856068730354309e-01 2.657464146614074707e-01 -2.270944863557815552e-01 -2.363674640655517578e-01 1.079846024513244629e-01 3.790505975484848022e-02 1.141654327511787415e-01 2.495025396347045898e-01 6.460371613502502441e-02 -1.531657427549362183e-01 -3.839297220110893250e-02 6.268694251775741577e-02 -9.399416856467723846e-03 -8.754316717386245728e-02 -2.018819563090801239e-02 2.745289541780948639e-02 3.252491652965545654e-01 -9.027194976806640625e-02 1.358399987220764160e-01 1.282947212457656860e-01 -1.007050201296806335e-01 1.095936223864555359e-01 -2.236470133066177368e-01 -1.294731199741363525e-01 1.044032201170921326e-01 -1.426251381635665894e-01 1.091799885034561157e-02 -5.675980076193809509e-02 -1.285017430782318115e-01 -3.257231116294860840e-01 -3.908749669790267944e-02 -2.082132697105407715e-01 3.114779293537139893e-01 3.552738428115844727e-01 -9.083656221628189087e-02 1.288246214389801025e-01 1.904283091425895691e-02 1.543834358453750610e-01 3.697331994771957397e-02 7.494799792766571045e-02 1.269305497407913208e-01 -4.213154688477516174e-02 -5.040691792964935303e-02 -7.855035364627838135e-02 -2.989858016371726990e-02 -1.965278387069702148e-01 -1.325924992561340332e-01
-5.445844307541847229e-02 2.409697882831096649e-02 -1.394564956426620483e-01 -1.515997946262359619e-01 -2.569082081317901611e-01 -6.971692293882369995e-02 -1.473833620548248291e-01 6.748899072408676147e-02 -1.428316086530685425e-01 4.829640965908765793e-04 -2.509292066097259521e-01 -5.060444399714469910e-02 -3.186330944299697876e-02 -1.597382426261901855e-01 1.301701515913009644e-01 -3.232152387499809265e-02 -2.227009385824203491e-01 -2.208450883626937866e-01 2.317487448453903198e-01 1.481693424284458160e-02 4.828867614269256592e-01 6.981011829338967800e-04 -4.346725717186927795e-02 1.127044185996055603e-01 1.495484961196780205e-03 1.466179490089416504e-01 1.316397786140441895e-01 2.913982793688774109e-02 -2.040645629167556763e-01 8.043326437473297119e-02 9.260986745357513428e-02 2.399119436740875244e-01 2.562737166881561279e-01 -1.338012963533401489e-01 6.804450601339340210e-02 -3.508275151252746582e-01 -3.994308412075042725e-02 1.618603020906448364e-01 6.561154872179031372e-02 -3.505728393793106079e-02 -1.422600746154785156e-01 2.381788045167922974e-01 -7.633287459611892700e-02 -8.593193441629409790e-02 1.375246495008468628e-01 5.005181208252906799e-02 -5.448213592171669006e-02 1.119323819875717163e-01 -2.054765261709690094e-02 5.607590824365615845e-02
4.477499425411224365e-02 2.600828111171722412e-01 1.127935051918029785e-01 -8.409035205841064453e-02 -1.538308262825012207e-01 3.675936162471771240e-02 3.213923871517181396e-01 -8.710908889770507812e-02 9.969503432512283325e-02 -8.820027112960815430e-02 -1.257304400205612183e-01 1.193977296352386475e-01 -1.720531582832336426e-01 1.575480997562408447e-01 6.969723105430603027e-02 5.005143955349922180e-02 1.465751826763153076e-01 2.396186888217926025e-01 -6.753012537956237793e-02 8.100673556327819824e-02 -1.794368177652359009e-01 1.919789314270019531e-01 -4.486635029315948486e-01 8.084847033023834229e-02 4.702785611152648926e-02 -5.657667294144630432e-02 -9.300585836172103882e-02 -3.263634815812110901e-02 1.407323032617568970e-02 2.795122563838958740e-01 -3.151159733533859253e-02 -1.111913174390792847e-01 1.404653191566467285e-01 1.702316701412200928e-01 -6.242230534553527832e-02 2.017303109169006348e-01 2.100716717541217804e-02 -2.610047161579132080e-01 4.235209897160530090e-02 -1.344663649797439575e-01 1.916487962007522583e-01 1.259815394878387451e-01 9.840731322765350342e-02 -8.957080543041229248e-02 9.269854426383972168e-02 1.937069594860076904e-01 -2.310257591307163239e-02 -4.102807119488716125e-02 -1.979835331439971924e-01 -3.355240449309349060e-02
-3.794265389442443848e-01 -6.311031430959701538e-02 1.336768716573715210e-01 8.098173141479492188e-02 2.591598927974700928e-01 1.538660824298858643e-01 4.632462561130523682e-02 -3.486446663737297058e-02 1.583540439605712891e-02 -1.480002421885728836e-02 3.152846544981002808e-02 3.716485574841499329e-02 -1.697054207324981689e-01 -9.184371680021286011e-02 -1.701383888721466064e-01 -1.193186938762664795e-01 1.949769407510757446e-01 2.459057420492172241e-01 1.611286848783493042e-01 -5.858417227864265442e-02 -1.702892929315567017e-01 -4.714169353246688843e-02 -2.858329713344573975e-01 1.234089136123657227e-01 -8.308077603578567505e-02 2.293562740087509155e-01 -9.199505299329757690e-02 -1.232618317008018494e-01 7.378973811864852905e-02 -4.320646449923515320e-02 -7.295219600200653076e-02 -1.646933108568191528e-01 -9.687846153974533081e-02 -2.090269774198532104e-01 3.018807172775268555e-01 -5.530344694852828979e-02 -2.149407118558883667e-01 -1.052504926919937134e-01 1.043768003582954407e-01 -1.021869182586669922e-01 2.587286829948425293e-01 1.711152344942092896e-01 -1.353548020124435425e-01 -1.328095495700836182e-01 -1.566607654094696045e-01 -5.530545487999916077e-02 -1.305850595235824585e-01 2.431171238422393799e-01 9.744316339492797852e-02 2.805624529719352722e-02
3.848911821842193604e-01 -1.561684906482696533e-01 -7.051781564950942993e-02 -1.501067876815795898e-01 2.082248963415622711e-02 -2.301654368638992310e-01 -1.903284788131713867e-01 -1.385405659675598145e-01 1.249778568744659424e-01 1.220235228538513184e-01 -3.178015053272247314e-01 1.451165298931300640e-03 -2.333953827619552612e-01 1.291288435459136963e-01 -1.050176396965980530e-01 2.052206695079803467e-01 2.190012931823730469e-01 7.098858710378408432e-03 -1.445429772138595581e-01 -1.116186305880546570e-01 -8.847322314977645874e-02 -5.348080769181251526e-02 3.429350554943084717e-01 -1.635632812976837158e-01 -7.322641089558601379e-03 -1.586377173662185669e-01 1.103248447179794312e-01 -1.612821780145168304e-02 -1.776974298991262913e-03 -7.222239673137664795e-02 -2.414656579494476318e-01 -1.830829828977584839e-01 1.071091517806053162e-01 -3.440845012664794922e-02 -1.488072276115417480e-01 -1.371691375970840454e-01 -1.206572800874710083e-01 2.500823140144348145e-01 1.086835488677024841e-01 -1.145854517817497253e-01 1.026382520794868469e-01 -3.173203393816947937e-02 1.310074422508478165e-02 -1.037471145391464233e-01 9.160799533128738403e-02 1.779444068670272827e-01 -1.261226981878280640e-01 5.582645535469055176e-02 3.007782399654388428e-01 -2.991892397403717041e-02
9.781356900930404663e-03 -1.811875402927398682e-01 -7.080404460430145264e-02 3.299656510353088379e-01 -1.378219872713088989e-01 1.052539870142936707e-01 7.317166030406951904e-02 -1.838771626353263855e-02 1.067564040422439575e-01 -1.060331389307975769e-01 3.311966955661773682e-01 6.459399312734603882e-02 -3.220052644610404968e-02 -9.093112498521804810e-02 -7.105255872011184692e-02 1.742865294218063354e-01 -2.331929504871368408e-01 1.095137372612953186e-01 2.151836603879928589e-01 1.423227488994598389e-01 -2.681061923503875732e-01 -2.594948709011077881e-01 1.146775335073471069e-01 2.241828143596649170e-01 4.830568656325340271e-02 2.438402920961380005e-02 1.116531714797019958e-01 5.892253667116165161e-02 7.990065962076187134e-02 -1.548173874616622925e-01 2.191256731748580933e-01 -1.214622631669044495e-01 1.861166208982467651e-01 -1.355319619178771973e-01 7.202085107564926147e-02 -1.980605348944664001e-02 1.240009292960166931e-01 -2.773782424628734589e-02 -1.754554174840450287e-02 -4.924467951059341431e-02 4.521291702985763550e-02 -1.187004595994949341e-01 7.372482120990753174e-02 6.577457487583160400e-02 6.543130427598953247e-02 -1.200396865606307983e-01 -2.070524357259273529e-02 -3.258566558361053467e-01 3.129497915506362915e-02 -1.395305246114730835e-01
1.131534501910209656e-01 -1.557687819004058838e-01 -1.112462878227233887e-01 1.305325478315353394e-01 -2.344514131546020508e-01 1.749702692031860352e-01 -9.314001351594924927e-02 1.004469767212867737e-01 5.321292951703071594e-02 1.581140235066413879e-02 -1.044223085045814514e-01 -8.408022671937942505e-02 1.816330105066299438e-01 6.434381008148193359e-03 3.824167847633361816e-01 -2.618415653705596924e-01 -2.446138411760330200e-01 7.186438143253326416e-02 -3.629028201103210449e-01 -1.646402291953563690e-02 3.076943159103393555e-01 2.096466124057769775e-01 -1.884575188159942627e-01 7.470529526472091675e-02 3.357867524027824402e-02 1.723859608173370361e-01 -5.914225243031978607e-03 6.861144304275512695e-02 1.746764481067657471e-01 -7.706755399703979492e-02 -5.270115286111831665e-02 -1.117615550756454468e-01 -2.065709084272384644e-01 -1.410211920738220215e-01 -1.002705693244934082e-01 1.142780855298042297e-01 2.083243280649185181e-01 8.932500332593917847e-02 1.835444755852222443e-02 -1.285350918769836426e-01 -1.434815078973770142e-01 -2.455285638570785522e-01 9.723131544888019562e-03 -7.774515450000762939e-02 1.825939416885375977e-01 -5.656985100358724594e-03 1.440533716231584549e-02 -2.018699347972869873e-01 2.978441417217254639e-01 1.182604283094406128e-01
